tree
version=v3
num_class=1
num_tree_per_iteration=1
label_index=0
max_feature_idx=23
objective=binary sigmoid:1
feature_names=Column_0 Column_1 Column_2 Column_3 Column_4 Column_5 Column_6 Column_7 Column_8 Column_9 Column_10 Column_11 Column_12 Column_13 Column_14 Column_15 Column_16 Column_17 Column_18 Column_19 Column_20 Column_21 Column_22 Column_23
feature_infos=[1:532] [1:1599] [0:1928985] [0:1928985] [0:1928985] [0:1928985] [0:1928600] [0:1928600] [0:1928600] [0:1928600] [0:1073409] [0:1073409] [0:1073409] [0:1073409] [0:9578] [0:300] [0:300] [0:300] [0:1599] [0:264] [0:406368] [0:24903] [0:65536] [0:24903]
tree_sizes=1191 1190 1182 1200 1203 1189 1186 1179 1181 1186 1192 1203 1185 1191 1184 1187 1184 1189 1187 1192 1190 1189 1191 1193 1187 1179 1189 1194 1188 1197 1205 1197 1185 1195 1192 1194 1196 1189 1195 1194 1184 1191 1194 1198 1203 1185 1198 1196 1190 1194 1188 1197 1199 1197 1188 1195 1207 1191 1193 1192 1191 1192 1190 1194 1194 1184 1185 1186 1184 1187 1194 1187 1192 1192 1190 1207 1190 1186 1194 1197 1192 1194 1197 1191 1193 1184 1199 1186 1191 1189 1188 1195 1196 1199 1193 1190 1179 1181 1200 1187 1185 1198 1199 1183 1197 1189 1187 1203 1193 1191 1199 1195 1189 1164 1200 1195 1194 1195 1196 1195 1193 1208 1193 1201 1191 1198 1189 1192 1193 1195 1197 1199 1204 1202 1207 1187 1192 1207 1197 1200 1194 1195 1203 1195 1188 1193 1185 1199 1188 1185 1185 1191 1189 1199 1185 1190 1186 1202 1189 1184 1189 1191 1198 1196 1199 1198 1196 1197 1208 1192 1198 1205 1198 1190 1198 1205 1189 1192 1187 1192 1192 1200 1200 1197 1194 1200 1198 1190 1191 1194 1193 1194 1202 1181 1204 1183 1196 1204 1188 1189 1204 1191 1189 1193 1205 1189 1184 1193 1194 1183 1213 1207 1188 1194 1192 1190 1194 1190 1190 1192 1202 1202 1193 1198 1189 1185 1213 1186 1190 1211 1198 1194 1199 1201 1190 1182 1189 1195 1186 1193 1191 1193 1201 1196 1191 1192 1190 1193 1199 1200 1199 1192 1204 1191 1194 1192 1189 1220 1189 1187 1186 1188 1208 1189 1188 1189 1199 1196 1191 1198 1188 1193 1185 1190 1186 1184 1193 1183 1207 1200 1179 1202 1177 1192 1203 1190 1187 1184 1186 1195 1183 1183 1206 1179 1182 1193 1213 1192 1188 1189 1196 1200 1188 1201 1195 1192 1193 1207 1183 1180 1194 1189 1186 1196 1193 1184 1187 1190 1190 1192 1193 1188 1202 1185 1192 1192 1203 1192 1191 1191 1193 1189 1208 1195 1191 1196 1196 1192 1195 1190 1189 1195 1190 1194 1195 1195 1186 1194 1190 1188 1196 1200 1212 1189 1192 1197 1187 1186 1186 1189 1209 1207 1190 1188 1183 1190 1187 1185 1191 1190 1180 1207 1182 1211 1182 1189 1192 1206 1208 1191 1193 1190 1190 1189 1192 1198 1177 1196 1198 1203 1202 1192 1181 1192 1184 1190 1190 1182 1191 1197 1181 1197 1182 1199 1200 1216 1199 1195 1199 1198 1186 1183 1182 1186 1188 1190 1192 1207 1192 1206 1183 1187 1181 1177 1184 1193 1193 1192 1191 1192 1195 1192 1195 1193 1184 1190 1185 1190 1196 1196 1198 1200 1199 1187 1199 1200 1189 1203 1198 1204 1182 1192 1183 1198 1176 1198 1196 1196 1195 1198 1199 1202 1200 1191 1203 1182 1197 1189 1182 1193 1181 1174 1177 1196 1189 1189 1189 1191 1190 1195 1184 1143 1143 1184 1143 1193 1190 1195 1197 1197 1193 1188 1186 1190 1196 1185 1167 1170 1173 1170 1189 1192 1179 1184 1190 1188 1185 1193 1188 1196 1197 1194 1194 1190 1196 1188 1193 1197 1201 1188 1189 1204 1190 1192 1178 1187 1184 1178 1185 1172 1193 1185 1186 1194 1184 1186 1161 1192 1188 1193 1179 1188 1196 1184 1197 1188 1193 1193 1193 1188 1187 1193 1183 1189 1193 1183 1188 1182 1204 1171 1201 1198 1197 1201 1195 1181 1177 1189 1169 1193 1183 1184 1192 1184 1184 1192 1192 1185 1185 1197 1165 1203 1172 1195 1185 1195 1194 1193 1207 1197 1192 1192 1194 1190 1198 1183 1191 1189 1186 1190 1196 1194 1192 1198 1189 1188 1175 1184 1176 1196 1187 1197 1200 1185 1185 1187 1190 1189 1191 1192 1193 1196 1192 1196 1196 1193 1203 1192 1201 1195 1191 1200 1196 1189 1194 1190 1188 1180 1190 1186 1192 1189 1185 1200 1192 1190 1193 1203 1199 1194 1187 1172 1180 1176 1195 1195 1193 1191 1179 1190 1200 1190 1196 1195 1205 1187 1193 1193 1192 1198 1180 1182 1199 1177 1169 1187 1188 1174 1184 1197 1202 1188 1181 1199 1202 1189 1184 1183 1190 1186 1174 1186 1196 1196 1176 1169 1166 1193 1173 1207 1198 1196 1183 1192 1189 1188 1197 1180 1183 1195 1188 1195 1183 1188 1193 1190 1192 1187 1193 1191 1193 1198 1191 1181 1191 1203 1190 1188 1196 1194 1190 1177 1179 1190 1172 1176 1178 1185 1196 1182 1183 1158 1181 1157 1179 1195 1193 1195 1203 1186 1195 1198 1203 1198 1196 1185 1193 1191 1197 1189 1201 1169 1191 1176 1183 1193 1193 1191 1193 1189 1170 1165 1163 1192 1168 1191 1183 1185 1187 1180 1157 1168 1145 1191 1189 1193 1177 1177 1164 1186 1188 1186 1188 1185 1184 1192 1192 1186 1183 1194 1161 1206 1200 1158 1171 1184 1186 1193 1182 1186 1192 1194 1190 1188 1194 1187 1176 1202 1192 1168 1190 1193 1196 1185 1205 1197 1193 1204 1194 1190 1194 1194 1189 1195 1181 1200 1201 1195 1195 1198 1180 1185 1185 1183 1186 1173 1168 1164 1169 1171 1193 1193 1189 1189 1192 1184 1192 1184 1189 1175 1206 1170 1207 1203 1179 1181 1178 1189 1169 1190 1193 1185 1166 1185 1173 1197 1192 1190 1188 1196 1190 1191 1189 1200 1202 1176 1189 1192 1183 1190 1185 1184 1192 1192 1194 1189 1197 1201 1191 1176 1201 1196 1204 1198 1199 1165 1188 1182 1179 1188 1184 1174 1150 1145 1175 1187 1190 1182 1191 1179 1195 1173 1184 1191 1184 1174 1181 1172 1174 1164 1172 1173 1188 1187 1197 1194 1187 1192 1187 1193 1184 1187 1172 1174 1181 1150 1168 1154 1128 1138 1186 1187 1192 1198 1194 1187 1190 1197 1193 1187 1191 1183 1184 1187 1197 1182 1185 1187 1185 1177 1197 1198 1195 1190 1185 1183 1180 1197 1174 1174 1189 1183 1190 1183 1189 1175 1176 1183 1180 1187 1197 1192 1196 1182 1193 1182 1171 1176 1189 1181 1191 1183 1191 1189 1185 1202 1193 1184 1184 1191 1191 1198 1202 1208 1203 1172 1173 1174 1141 1177 1188 1181 1186 1194 1183 1195 1190 1183 1184 1191 1192 1189 1190 1192 1185 1170 1176 1179 1189 1168 1181 1204 1175 1187 1183 1189 1190 1188 1203 1194 1193 1196 1185 1199 1187 1194 1193 1194 1192 1196 1193 1191 1177 1193 1185 1192 1202 1195 1201 1200 1178 1199 1180 1170 1200 1192 1191 1198 1190 1183 1174 1157 1177 1178 1182 1204 1176 1190 1193 1193 1184 1171 1177 1193 1170 1181 1183 1188 1186 1186 1195 1186 1172 1196 1174 1198 1188 1187 1183 1202 1172 1194 1171 1170 1164 1197 1182 1197 1185 1196 1191 1190 1193 1195 1195 1174 1190 1171 1176 1168 1187 1192 1190 1196 1189 1190 1185 1191 1185 1194 1203 1190 1195 1193 1195 1195 1191 1197 1193 1201 1197 1198 1194 1202 1201 1180 1181 1174 1171 1179 1187 1150 1174 1192 1187 1176 1200 1190 1187 1193 1183 1187 1187 1175 1184 1181 1181 1184 1182 1182 1177 1182 1184 1172 1209 1189 1183 1182 1183 1176 1173 1168 1171 1188 1184 1174 1171 1179 1188 1188 1200 1180 1179 1191 1206 1157 1213 1181 1162 1175 1193 1185 1181 1193 1185 1184 1202 1181 1180 1203 1202 1189 1196 1198 1194 1180 1174 1177 1177 1189 1188 1183 1180 1188 1182 1183 1193 1197 1195 1175 1183 1188 1183 1182 1181 1197 1193 1190 1195 1189 1199 1183 1187 1187 1188 1183 1174 1185 1191 1175 1194 1174 1174 1170 1199 1193 1190 1171 1170 1194 1188 1185 1183 1190 1178 1198 1191 1197 1191 1196 1210 1185 1172 1180 1179 1189 1197 1182 1197 1181 1188 1181 1184 1199 1185 1191 1190 1196 1194 1187 1174 1209 1167 1205 1178 1185 1171 1184 1186 1193 1174 1182 1183 1177 1193 1189 1186 1192 1189 1186 1189 1189 1187 1177 1190 1194 1184 1190 1175 1191 1147 1166 1184 1183 1187 1183 1193 1182 1182 1178 1201 1198 1188 1196 1201 1192 1184 1190 1184 1192 1194 1177 1197 1192 1183 1159 1185 1180 1182 1201 1174 1178 1181 1181 1179 1184 1179 1185 1186 1174 1194 1186 1189 1190 1195 1187 1193 1174 1177 1181 1191 1185 1182 1174 1166 1185 1183 1183 1182 1186 1196 1192 1185 1198 1190 1191 1183 1181 1184 1187 1189 1175 1185 1168 1178 1182 1188 1184 1193 1184 1188 1196 1188 1180 1182 1185 1191 1179 1174 1172 1187 1186 1191 1196 1188 1192 1186 1143 1170 1186 1153 1175 1161 1161 1157 1181 1183 1185 1191 1182 1171 1176 1161 1179 1165 1188 1189 1191 1189 1188 1182 1181 1190 1187 1188 1183 1190 1187 1189 1197 1172 1191 1191 1185 1193 1174 1189 1188 1176 1193 1187 1183 1193 1195 1179 1185 1188 1202 1182 1183 1188 1180 1177 1181 1175 1181 1176 1179 1177 1190 1180 1198 1164 1171 1170 1194 1182 1193 1190 1187 1179 1194 1188 1194 1188 1177 1175 1171 1172 1176 1200 1198 1199 1177 1178 1191 1181 1193 1198 1190 1188 1172 1178 1186 1171 1194 1194 1183 1180 1184 1157 1185 1194 1192 1194 1187 1186 1186 1177 1187 1179 1172 1180 1178 1181 1177 1170 1173 1175 1187 1192 1199 1207 1173 1197 1186 1160 1171 1174 1177 1194 1192 1186 1181 1146 1190 1191 1190 1193 1198 1186 1185 1189 1171 1178 1174 1168 1174 1177 1175 1198 1187 1183 1180 1187 1189 1192 1193 1195 1188 1170 1180 1177 1186 1179 1182 1176 1182 1167 1175 1184 1195 1168 1194 1194 1185 1186 1184 1185 1170 1184 1178 1189 1197 1190 1170 1159 1155 1168 1171 1197 1201 1190 1195 1200 1196 1198 1175 1193 1191 1181 1199 1180 1214 1184 1182 1191 1194 1189 1188 1182 1191 1185 1185 1183 1189 1182 1182 1187 1186 1190 1189 1191 1189 1182 1173 1186 1197 1183 1191 1191 1196 1195 1193 1194 1153 1187 1176 1168 1174 1182 1184 1184 1184 1185 1205 1195 1186 1186 1198 1182 1177 1168 1196 1182 1181 1188 1193 1186 1190 1185 1186 1187 1178 1185 1153 1177 1197 1175 1170 1187 1197 1200 1198 1193 1191 1184 1185 1194 1193 1176 1173 1185 1180 1179 1184 1188 1192 1186 1186 1172 1185 1208 1177 1200 1189 1170 1167 1172 1203 1183 1172 1182 1183 1189 1194 1189 1192 1171 1188 1184 1179 1190 1185 1182 1184 1183 1191 1197 1174 1183 1189 1191 1191 1192 1192 1187 1187 1183 1191 1187 1182 1176 1187 1188 1181 1178 1182 1182 1184 1174 1180 1188 1196 1186 1194 1204 1195 1184 1182 1182 1187 1184 1176 1200 1163 1178 1163 1178 1185 1161 1156 1151 1197 1182 1189 1172 1196 1193 1195 1160 1176 1180 1199 1174 1187 1191 1191 1183 1188 1190 1174 1161 1181 1158 1197 1194 1197 1182 1190 1195 1191 1200 1191 1187 1180 1177 1180 1186 1180 1165 1193 1171 1176 1190 1186 1185 1187 1189 1185 1190 1178 1192 1176 1187 1193 1186 1193 1188 1181 1169 1180 1192 1191 1185 1176 1192 1194 1177 1196 1186 1185 1193 1179 1182 1198 1184 1182 1173 1200 1171 1178 1189 1189 1180 1182 1184 1185 1185 1163 1183 1184 1180 1181 1174 1189 1192 1184 1195 1165 1195 1182 1200 1189 1191 1185 1175 1172 1183 1180 1179 1189 1188 1169 1187 1181 1181 1181 1187 1189 1198 1190 1190 1201 1188 1176 1182 1183 1185 1192 1192 1180 1198 1184 1183 1189 1180 1176 1180 1176 1203 1188 1162 1183 1178 1189 1181 1185 1193 1188 1197 1188 1195 1191 1184 1167 1176 1155 1175 1174 1195 1185 1186 1194 1184 1180 1164 1200 1165 1163 1184 1184 1184 1187 1185 1184 1188 1190 1182 1189 1188 1179 1184 1197 1210 1196 1177 1173 1183 1192 1188 1186 1183 1192 1198 1189 1179 1189 1199 1189 1159 1169 1157 1173 1182 1198 1185 1201 1183 1190 1199 1195 1192 1187 1187 1187 1193 1197 1186 1181 1163 1163 1179 1168 1173 1186 1197 1190 1193 1188 1191 1186 1186 1172 1190 1184 1179 1192 1193 1163 1160 1164 1176 1186 1177 1172 1154 1153 1177 1174 1186 1183 1185 1189 1165 1183 1186 1170 1184 1182 1194 1193 1184 1184 1176 1177 1177 1188 1183 1182 1164 1174 1176 1169 1169 1196 1191 1199 1206 1194 1183 1167 1184 1186 1183 1187 1186 1192 1181 1192 1189 1187 1186 1193 1183 1178 1176 1168 1183 1179 1197 1183 1182 1185 1183 1169 1170 1171 1166 1176 1147 1170 1174 1167 1172 1185 1187 1189 1186 1175 1179 1182 1170 1185 1185 1181 1187 1189 1182 1201 1165 1170 1188 1185 1183 1193 1166 1167 1142 1168 1194 1173 1174 1201 1171 1186 1194 1182 1191 1193 1180 1178 1176 1183 1187 1177 1191 1159 1187 1162 1208 1188 1204 1197 1205 1188 1188 1184 1187 1197 1190 1195 1196 1186 1190 1200 1190 1179 1170 1192 1195 1196 1197 1196 1195 1178 1180 1183 1184 1179 1174 1169 1167 1171 1195 1180 1173 1174 1173 1168 1197 1195 1191 1193 1199 1184 1169 1183 1185 1191 1165 1170 1168 1181 1170 1189 1185 1175 1181 1171 1192 1185 1187 1188 1187 1166 1178 1194 1176 1172 1181 1193 1189 1187 1188 1199 1190 1189 1194 1182 1191 1190 1195 1182 1174 1190 1193 1178 1177 1189 1203 1173 1193 1188 1189 1169 1171 1171 1170 1196 1174 1176 1172 1175 1186 1197 1197 1179 1199 1196 1195 1179 1190 1181 1200 1191 1190 1194 1195 1178 1174 1168 1184 1182 1189 1182 1191 1194 1191 1189 1171 1183 1174 1179 1175 1157 1178 1200 1204 1198 1190 1175 1171 1184 1193 1169 1174 1180 1188 1170 1188 1167 1179 1188 1182 1176 1174 1178 1189 1176 1179 1177 1178 1190 1175 1200 1191 1177 1183 1179 1158 1187 1182 1162 1191 1200 1205 1192 1192 1161 1157 1185 1198 1191 1170 1184 1186 1169 1179 1179 1181 1181 1181 1191 1195 1191 1189 1151 1162 1182 1168 1176 1168 1199 1188 1192 1184 1183 1194 1186 1162 1188 1165 1174 1183 1195 1185 1184 1181 1183 1175 1187 1171 1178 1190 1191 1183 1194 1187 1179 1196 1199 1196 1194 1194 1173 1147 1182 1181 1183 1186 1195 1191 1196 1187 1146 1192 1189 1147 1140 1186 1167 1210 1177 1179 1155 1163 1161 1167 1167 1172 1187 1164 1162 1189 1187 1186 1188 1184 1188 1196 1198 1197 1199 1199 1150 1186 1180 1190 1194 1178 1172 1177 1154 1193 1180 1181 1178 1187 1188 1197 1192 1200 1193 1196 1189 1200 1196 1196 1182 1177 1177 1176 1181 1175 1193 1195 1189 1181 1188 1184 1180 1181 1187 1184 1185 1180 1153 1181 1157 1181 1187 1185 1187 1191 1189 1167 1195 1192 1192 1179 1182 1194 1172 1192 1178 1179 1189 1189 1177 1172 1190 1195 1153 1181 1163 1163 1161 1193 1193 1174 1179 1182 1183 1189 1173 1173 1176 1169 1177 1183 1185 1187 1187 1176 1180 1158 1182 1172 1165 1150 1173 1186 1160 1171 1181 1158 1173 1177 1162 1186 1180 1180 1184 1176 1150 1202 1159 1190 1178 1170 1185 1186 1177 1173 1201 1181 1187 1195 1159 1193 1185 1191 1189 1188 1161 1174 1186 1175 1176 1172 1178 1186 1179 1183 1181 1180 1192 1193 1191 1170 1168 1167 1170 1167 1199 1200 1201 1178 1184 1189 1185 1190 1185 1189 1197 1195 1195 1203 1194 1198 1199 1190 1194 1187 1179 1177 1184 1182 1187 1192 1187 1191 1187 1187 1176 1182 1175 1176 1183 1199 1142 1147 1191 1171 1185 1180 1195 1180 1160 1187 1177 1164 1176 1182 1201 1189 1196 1189 1187 1172 1195 1192 1192 1191 1181 1181 1184 1185 1191 1196 1199 1173 1195 1183 1185 1178 1182 1170 1194 1183 1185 1185 1184 1197 1180 1181 1183 1181 1180 1163 1150 1166 1166 1158 1191 1191 1192 1188 1185 1168 1171 1174 1169 1169 1166 1170 1175 1162 1190 1178 1185 1190 1181 1186 1186 1188 1190 1193 1178 1200 1189 1205 1196 1193 1186 1183 1165 1191 1182 1181 1187 1194 1183 1185 1186 1175 1158 1190 1176 1166 1130 1154 1161 1163 1183 1177 1181 1182 1187 1195 1187 1204 1184 1199 1176 1202 1171 1164 1169 1180 1183 1182 1163 1177 1168 1181 1192 1170 1178 1190 1193 1182 1189 1183 1182 1184 1181 1189 1185 1191 1189 1194 1186 1197 1178 1170 1173 1174 1196 1192 1196 1188 1195 1181 1167 1167 1158 1190 1158 1170 1155 1176 1213 1169 1189 1191 1191 1188 1188 1180 1182 1168 1178 1175 1168 1170 1174 1174 1183 1205 1200 1189 1198 1190 1198 1189 1181 1188 1187 1185 1180 1179 1169 1163 1177 1168 1165 1180 1179 1191 1186 1187 1174 1196 1189 1197 1188 1191 1189 1190 1186 1155 1180 1190 1190 1185 1155 1187 1189 1155 1191 1194 1191 1185 1198 1191 1195 1188 1191 1188 1183 1183 1173 1185 1169 1161 1173 1186 1178 1194 1190 1191 1197 1194 1200 1202 1200 1205 1206 1170 1169 1167 1171 1170 1164 1171 1149 1163 1171 1179 1176 1161 1169 1185 1188 1195 1193 1193 1191 1177 1195 1183 1177 1183 1186 1173 1189 1191 1198 1195 1179 1197 1193 1198 1169 1173 1155 1180 1169 1175 1187 1176 1174 1165 1146 1163 1182 1162 1166 1193 1196 1199 1185 1187 1171 1185 1177 1184 1155 1192 1191 1172 1191 1173 1190 1181 1194 1158 1192 1180 1169 1163 1190 1172 1193 1178 1197 1201 1200 1173 1170 1174 1180 1158 1171 1172 1167 1196 1187 1187 1199 1176 1181 1190 1178 1148 1149 1140 1165 1185 1191 1191 1192 1194 1196 1189 1176 1177 1200 1183 1182 1175 1176 1191 1199 1182 1176 1176 1182 1178 1181 1189 1174 1189 1193 1188 1182 1186 1190 1170 1149 1170 1167 1172 1191 1197 1187 1193 1197

Tree=0
num_leaves=10
num_cat=0
split_feature=0 0 0 0 0 21 0 0 0
split_gain=1042.04 2431.12 913.557 417.399 739.682 556.402 394.613 1061.59 385.3
threshold=266.50000000000006 267.50000000000006 263.50000000000006 222.50000000000003 241.50000000000003 60.500000000000007 316.50000000000006 317.50000000000006 374.50000000000006
decision_type=2 2 2 2 2 2 2 2 2
left_child=2 -2 3 5 -5 -1 -3 -8 -9
right_child=1 6 -4 4 -6 -7 7 8 -10
leaf_value=-0.00056383665582471058 0.025301750650950146 -0.0050307326575260288 -0.021882692766970191 0.008222915029703735 -0.0084824071521636488 -0.0072753768343357108 0.033823384593476842 0.0070048908898984697 -0.00013821025479498068
leaf_weight=12719.021449267864 1831.6402595043182 3340.8052439689636 947.73432278633118 3546.2871704697609 1508.7648711204529 8079.3046919107437 418.9139170050621 4048.085254907608 11867.334949553013
leaf_count=34832 3498 9627 3244 8714 4515 23861 683 10105 32338
internal_value=0 0.164123 -0.131378 -0.0959509 0.161684 -0.158598 0.0614377 0.125502 0.0839619
internal_weight=0 21506.8 26801.1 25853.4 5055.05 20798.3 19675.1 16334.3 15915.4
internal_count=131417 56251 75166 71922 13229 58693 52753 43126 42443
shrinkage=0.02


Tree=1
num_leaves=10
num_cat=0
split_feature=0 0 0 0 0 0 21 0 0
split_gain=1000.88 2335.43 877.629 400.874 710.446 536.964 498.873 379.015 1020.19
threshold=266.50000000000006 267.50000000000006 263.50000000000006 222.50000000000003 241.50000000000003 25.500000000000004 60.500000000000007 316.50000000000006 317.50000000000006
decision_type=2 2 2 2 2 2 2 2 2
left_child=2 -2 3 5 -5 -1 -7 -3 -9
right_child=1 7 -4 4 -6 6 -8 8 -10
leaf_value=0.0059109462615690878 0.024800531850812973 -0.0049302390294033802 -0.02144899598094303 0.0080587330482241089 -0.008313245557917218 -0.0016100564999509067 -0.0083448065391158472 0.033161206568935661 0.0016456767503253648
leaf_weight=2339.8799234479666 1831.3471569120884 3340.7842064201832 947.62090015411377 3546.2273381948471 1508.7377415597439 11218.024565130472 7240.3143766522408 418.79413443803787 15915.370694369078
leaf_count=5927 3498 9627 3244 8714 4515 31101 21665 683 42443
internal_value=0 0.160853 -0.128756 -0.0940337 0.158451 -0.155428 -0.212651 0.0602147 0.123001
internal_weight=0 21506.3 26800.8 25853.2 5054.97 20798.2 18458.3 19674.9 16334.2
internal_count=131417 56251 75166 71922 13229 58693 52766 52753 43126
shrinkage=0.02


Tree=2
num_leaves=10
num_cat=0
split_feature=0 0 0 0 0 0 21 0 0
split_gain=961.374 2244.34 843.354 386.789 760.638 505.74 468.39 364.038 981.023
threshold=266.50000000000006 267.50000000000006 263.50000000000006 229.50000000000003 241.50000000000003 25.500000000000004 60.500000000000007 316.50000000000006 317.50000000000006
decision_type=2 2 2 2 2 2 2 2 2
left_child=2 -2 3 5 -5 -1 -7 -3 -9
right_child=1 7 -4 4 -6 6 -8 8 -10
leaf_value=0.0057928784227895399 0.024316781474677716 -0.0048318123566944773 -0.021028764614616401 0.009209137566999993 -0.0081477414149967575 -0.0015216250957139985 -0.0079553189170044319 0.032529921776360812 0.001612772506756724
leaf_weight=2339.8799645900726 1830.4913161993027 3340.7224922180176 947.2895895242691 3039.7149119377136 1508.658481284976 11496.445675492287 7467.8722603321075 418.44435542821884 15915.33802819252
leaf_count=5927 3498 9627 3244 7342 4515 31849 22289 683 42443
internal_value=0 0.157654 -0.126188 -0.0921558 0.172455 -0.14868 -0.202815 0.0590166 0.120551
internal_weight=0 21505 26799.9 25852.6 4548.37 21304.2 18964.3 19674.5 16333.8
internal_count=131417 56251 75166 71922 11857 60065 54138 52753 43126
shrinkage=0.02


Tree=3
num_leaves=10
num_cat=0
split_feature=20 23 18 14 14 4 2 20 4
split_gain=440.821 328.16 470.815 139.453 113.205 96.158 81.032 71.6589 44.9041
threshold=164.50000000000003 68.500000000000014 1.5000000000000002 7.5000000000000009 5.5000000000000009 26.500000000000004 26.500000000000004 103.50000000000001 1.5000000000000002
decision_type=2 2 2 2 2 2 2 2 2
left_child=1 3 -3 7 -2 6 -4 8 -1
right_child=4 2 5 -5 -6 -7 -8 -9 -10
leaf_value=0.0029802452432615683 0.0021078293855141886 0.0017362909610868144 -0.0047502555793806078 0.004179136721223338 0.0074117175377493918 -0.0083550030813708386 0.0068023059321615873 0.0051633207624554546 -0.00050611147886988098
leaf_weight=1581.3239669501781 3106.3330217897892 4849.0343738943338 4744.5296680778265 3577.7685148864985 3354.2455161958933 3913.9674035906792 252.97253295779228 1009.4650742709637 21911.542591109872
leaf_count=4149 8244 12934 13639 9249 8326 11714 632 2577 59953
internal_value=0 -0.0373675 -0.163863 0.024621 0.243231 -0.300282 -0.208027 -0.00230531 -0.0135418
internal_weight=0 41840.6 13760.5 28080.1 6460.58 8911.47 4997.5 24502.3 23492.9
internal_count=131417 114847 38919 75928 16570 25985 14271 66679 64102
shrinkage=0.02


Tree=4
num_leaves=10
num_cat=0
split_feature=18 18 21 22 14 22 12 6 4
split_gain=322.563 290.597 482.221 146.943 135.287 105.565 92.5741 83.2984 74.5152
threshold=2.5000000000000004 1.5000000000000002 65.500000000000014 136.50000000000003 1.5000000000000002 333.50000000000006 21.500000000000004 56.500000000000007 26.500000000000004
decision_type=2 2 2 2 2 2 2 2 2
left_child=1 5 4 8 7 -1 -6 -3 -4
right_child=-2 2 3 -5 6 -7 -8 -9 -10
leaf_value=0.00047644710208205951 0.0050884501270414811 -0.0037164129698596133 -0.0047430449792553184 0.00073414719564331447 0.00094429595802191695 0.0075701327345812667 0.0065211161062918863 -0.024420116762000298 -0.0085592304470506093
leaf_weight=27236.509523019195 4519.8109060674906 680.93396048247814 4579.5199635773897 1311.8388896584511 3469.4516421854496 863.01935306191444 1813.2731902599335 85.248614206910133 3741.2100300490856
leaf_count=73660 11540 1938 13178 3540 9330 2137 4548 304 11242
internal_value=0 -0.0260883 -0.135137 -0.274075 0.0860913 0.0347657 0.143113 -0.305703 -0.323104
internal_weight=0 43781 15681.5 9632.57 6048.91 28099.5 5282.72 766.183 8320.73
internal_count=131417 119877 44080 27960 16120 75797 13878 2242 24420
shrinkage=0.02


Tree=5
num_leaves=10
num_cat=0
split_feature=1 18 20 16 2 15 20 21 2
split_gain=523.316 681.538 114.61 110.731 106.839 97.8477 66.0377 60.2012 56.3573
threshold=1.5000000000000002 1.5000000000000002 32.500000000000007 5.5000000000000009 322.50000000000006 6.5000000000000009 31.500000000000004 336.50000000000006 35.500000000000007
decision_type=2 2 2 2 2 2 2 2 2
left_child=1 4 5 -2 7 -3 -7 -1 -4
right_child=3 2 8 -5 -6 6 -8 -9 -10
leaf_value=0.00024759052443658217 0.002831990290488647 -0.0040855848395769476 -0.0043396740264081283 0.0075824204800168599 0.0060739870551095899 0.0071485576541962586 0.031589768368140703 0.0060837038649343023 -0.0072849255965257631
leaf_weight=25952.067518129945 6066.2670086622238 286.28668071329594 6195.6978540867567 2908.4995166659355 1397.8429489284754 193.90914370119572 55.848236486315727 723.9618493616581 4526.9221519380808
leaf_count=70373 15926 817 17766 7184 3524 481 92 1824 13430
internal_value=0 -0.0488619 -0.256693 0.218709 0.0344938 0.193371 0.647383 0.0203434 -0.279268
internal_weight=0 39332.5 11258.7 8974.77 28073.9 536.044 249.757 26676 10722.6
internal_count=131417 108307 32586 23110 75721 1390 573 72197 31196
shrinkage=0.02


Tree=6
num_leaves=10
num_cat=0
split_feature=0 0 0 0 0 0 21 0 0
split_gain=941.849 1956.58 877.046 424.251 676.445 521.765 446.334 376.259 667.595
threshold=266.50000000000006 267.50000000000006 263.50000000000006 222.50000000000003 241.50000000000003 25.500000000000004 60.500000000000007 308.50000000000006 327.50000000000006
decision_type=2 2 2 2 2 2 2 2 2
left_child=2 -2 3 5 -5 -1 -7 -3 -9
right_child=1 7 -4 4 -6 6 -8 8 -10
leaf_value=0.0058406041813787446 0.023168073471860565 -0.0051905081942523216 -0.021385038448500336 0.0081346202051285448 -0.0078844926045654271 -0.001682401579945963 -0.0080604916496312719 0.014081174930677289 0.0011109538939837718
leaf_weight=2331.8870111554861 1783.7447767406702 3012.013902977109 945.16101412475109 3560.2644312232733 1494.5334575325251 11144.620344460011 7242.342411339283 1772.2789600938559 15019.520182743669
leaf_count=5892 3447 8723 3265 8715 4468 30918 21712 3995 40282
internal_value=0 0.156178 -0.12466 -0.0898878 0.169763 -0.153265 -0.209793 0.0657296 0.124126
internal_weight=0 21587.6 26718.8 25773.6 5054.8 20718.8 18387 19803.8 16791.8
internal_count=131417 56447 74970 71705 13183 58522 52630 53000 44277
shrinkage=0.02


Tree=7
num_leaves=10
num_cat=0
split_feature=0 0 0 0 0 0 0 0 0
split_gain=904.707 1881.59 843.307 407.477 649.764 501.15 361.5 719.971 415.105
threshold=266.50000000000006 267.50000000000006 263.50000000000006 222.50000000000003 241.50000000000003 25.500000000000004 311.50000000000006 327.50000000000006 288.50000000000006
decision_type=2 2 2 2 2 2 2 2 2
left_child=2 -2 3 5 -5 -1 8 -8 -3
right_child=1 6 -4 4 -6 -7 7 -9 -10
leaf_value=0.005724171806788113 0.022729181493838818 0.0011319436817998631 -0.020976653291045397 0.0079728391589588242 -0.0077279942254050637 -0.0041122083204687791 0.015046454711560684 0.0010887423924980716 -0.013621828752141785
leaf_weight=2331.7944289892912 1781.9004149883986 1856.1461481601 944.35694305598736 3559.9212856441736 1494.3654463887215 18385.984211087227 1636.8861409276724 15019.475439324975 1290.714072316885
leaf_count=5892 3447 5007 3265 8715 4468 52630 3622 40282 4089
internal_value=0 0.153077 -0.122181 -0.088096 0.166383 -0.150208 0.0644186 0.123162 -0.246238
internal_weight=0 21585.1 26716.4 25772.1 5054.29 20717.8 19803.2 16656.4 3146.86
internal_count=131417 56447 74970 71705 13183 58522 53000 43904 9096
shrinkage=0.02


Tree=8
num_leaves=10
num_cat=0
split_feature=0 0 0 0 0 0 21 0 0
split_gain=869.038 1810.01 811.074 391.363 624.154 481.342 428.849 348.35 618.192
threshold=266.50000000000006 267.50000000000006 263.50000000000006 222.50000000000003 241.50000000000003 25.500000000000004 60.500000000000007 308.50000000000006 327.50000000000006
decision_type=2 2 2 2 2 2 2 2 2
left_child=2 -2 3 5 -5 -1 -7 -3 -9
right_child=1 7 -4 4 -6 6 -8 8 -10
leaf_value=0.00561014817837576 0.022304013144092211 -0.0049968212601178468 -0.020580324300692478 0.0078145146192169918 -0.0075748160430982878 -0.0015665524097974038 -0.0078188467433499709 0.013551407979586979 0.001066975885384461
leaf_weight=2331.665077239275 1779.6298960894346 3011.7094637453556 943.35976238548756 3559.4707973748446 1494.1556943058968 11144.534175425768 7240.7825986295938 1771.2236912101507 15019.422449395061
leaf_count=5892 3447 8723 3265 8715 4468 30918 21712 3995 40282
internal_value=0 0.150043 -0.119751 -0.0863385 0.163076 -0.147209 -0.201506 0.063134 0.119324
internal_weight=0 21582 26714 25770.6 5053.63 20717 18385.3 19802.4 16790.6
internal_count=131417 56447 74970 71705 13183 58522 52630 53000 44277
shrinkage=0.02


Tree=9
num_leaves=10
num_cat=0
split_feature=0 0 0 0 0 0 21 0 0
split_gain=834.812 1741.62 780.253 375.901 599.571 462.335 412.01 335.801 874.124
threshold=266.50000000000006 267.50000000000006 263.50000000000006 222.50000000000003 241.50000000000003 25.500000000000004 60.500000000000007 316.50000000000006 317.50000000000006
decision_type=2 2 2 2 2 2 2 2 2
left_child=2 -2 3 5 -5 -1 -7 -3 -9
right_child=1 7 -4 4 -6 6 -8 8 -10
leaf_value=0.0054984799533641547 0.021891795235406349 -0.0045079868239279791 -0.020195413293454003 0.0076595530069622463 -0.007424868684227608 -0.0015352373895482626 -0.0076639065805615145 0.031122427657979769 0.0016757700943906835
leaf_weight=2331.5013027638197 1776.9600865244865 3372.2197552472353 942.18162846565247 3558.9196205735207 1493.9068609029055 11144.478891566396 7239.4981642961502 410.70481938123703 16018.453098759055
leaf_count=5892 3447 9715 3265 8715 4468 30918 21712 673 42612
internal_value=0 0.147073 -0.117374 -0.0846198 0.159839 -0.144276 -0.197493 0.061876 0.12089
internal_weight=0 21578.3 26710.5 25768.3 5052.83 20715.5 18384 19801.4 16429.2
internal_count=131417 56447 74970 71705 13183 58522 52630 53000 43285
shrinkage=0.02


Tree=10
num_leaves=10
num_cat=0
split_feature=0 0 0 0 21 0 0 0 0
split_gain=782.334 1753.87 699.644 880.188 433.477 339.708 660.878 414.35 384.136
threshold=266.50000000000006 267.50000000000006 241.50000000000003 229.50000000000003 59.500000000000007 311.50000000000006 327.50000000000006 288.50000000000006 457.50000000000006
decision_type=2 2 2 2 2 2 2 2 2
left_child=2 -2 3 4 -1 7 -7 -3 -8
right_child=1 5 -4 -5 -6 6 8 -9 -10
leaf_value=-0.00040664356309955325 0.021746440029274224 0.0010616111338061457 -0.012521407217776555 0.0087793990900218895 -0.0062415395885608016 0.014333206550981725 -0.0013346388168743947 -0.013827162480776263 0.0054725174282527246
leaf_weight=12825.863258495927 1790.7180925905704 1836.6944621503353 2436.7540964633226 3037.5541877299547 8447.0274071991444 1623.0388577729464 10058.077556163073 1256.7613105326891 4942.784481421113
leaf_count=35079 3465 4969 7771 7313 24933 3596 27726 4008 12557
internal_value=0 0.140605 -0.115548 -0.0642931 -0.13622 0.0544576 0.111098 -0.249638 0.0454283
internal_weight=0 21508.1 26747.2 24310.4 21272.9 19717.4 16623.9 3093.46 15000.9
internal_count=131417 56321 75096 67325 60012 52856 43879 8977 40283
shrinkage=0.02


Tree=11
num_leaves=10
num_cat=0
split_feature=20 21 18 16 16 4 20 20 3
split_gain=391.793 292.392 449.831 128.543 120.701 77.5831 54.5699 44.8458 31.8774
threshold=164.50000000000003 60.500000000000007 1.5000000000000002 4.5000000000000009 5.5000000000000009 26.500000000000004 49.500000000000007 141.50000000000003 266.50000000000006
decision_type=2 2 2 2 2 2 2 2 2
left_child=1 3 -3 6 -2 7 -1 -4 -5
right_child=4 2 5 8 -6 -7 -8 -9 -10
leaf_value=-0.00072981558533158754 0.0025219088436144589 0.0011357483392493196 -0.004499309193694844 0.0023205347904257491 0.0082450460991865034 -0.00770680586334323 0.0015241819951992636 0.0034613753286853923 0.0057495890129195372
leaf_weight=15221.379539266229 4138.1746047139168 6559.1011121422052 4772.972967505455 3065.5847837775946 2294.2743076384068 4224.7787662446499 5982.163930028677 297.90129016339779 1690.4344598054886
leaf_count=41755 10911 17638 13743 8094 5610 12654 15961 779 4272
internal_value=0 -0.0366954 -0.143686 0.0286466 0.228351 -0.285147 -0.00467429 -0.201434 0.177172
internal_weight=0 41814.3 15854.8 25959.6 6432.45 9295.65 21203.5 5070.87 4756.02
internal_count=131417 114896 44814 70082 16521 27176 57716 14522 12366
shrinkage=0.02


Tree=12
num_leaves=10
num_cat=0
split_feature=0 0 0 0 0 0 0 0 1
split_gain=750.012 1684.67 672.599 326.525 634.942 398.71 369.52 341.162 325.287
threshold=266.50000000000006 267.50000000000006 263.50000000000006 311.50000000000006 327.50000000000006 288.50000000000006 457.50000000000006 286.50000000000006 1.5000000000000002
decision_type=2 2 2 2 2 2 2 2 2
left_child=2 -2 8 5 -5 7 -6 -3 -1
right_child=1 3 -4 4 6 -7 -8 -9 -10
leaf_value=-0.0027134100906947064 0.021332125730352734 -0.0034217629368903063 -0.018710861169930159 0.014053398710114649 -0.0013092573287057793 -0.013563884679936793 0.0053672517306030268 0.017626158196224293 0.0030943265365095678
leaf_weight=21068.51532459259 1787.0143437683582 1448.7028218209743 955.84642012417316 1621.9558186233044 10057.955419480801 1256.3695225119591 4942.5507488399744 387.96957147121429 4718.5020196586847
leaf_count=59455 3465 4129 3294 3596 27726 4008 12557 840 12347
internal_value=0 0.137719 -0.113114 0.0533604 0.108893 -0.244797 0.0445417 0.0521264 -0.0825121
internal_weight=0 21502.5 26742.9 19715.5 16622.5 3093.04 15000.5 1836.67 25787
internal_count=131417 56321 75096 52856 43879 8977 40283 4969 71802
shrinkage=0.02


Tree=13
num_leaves=10
num_cat=0
split_feature=0 0 0 0 21 0 0 0 0
split_gain=720.503 1622.22 656.489 850.356 405.095 315.658 830.727 341.656 321.423
threshold=266.50000000000006 267.50000000000006 241.50000000000003 229.50000000000003 59.500000000000007 316.50000000000006 317.50000000000006 374.50000000000006 288.50000000000006
decision_type=2 2 2 2 2 2 2 2 2
left_child=2 -2 3 4 -1 8 -7 -8 -3
right_child=1 5 -4 -5 -6 6 7 -9 -10
leaf_value=-0.00039832032289591006 0.020951417824796998 0.0010220903595009882 -0.012114983543591213 0.0086694139386040998 -0.0060395118342399306 0.029932134808627799 0.0064824426583945851 -0.00024620469336166304 -0.011477627514529323
leaf_weight=12825.620435014367 1783.1892040371895 1836.633238479495 2433.4842391908169 3036.9848395287991 8444.5232369303703 417.58259978890419 4036.3536737561226 11937.063081026077 1486.0192965865135
leaf_count=35079 3465 4969 7771 7313 24933 690 10073 32486 4638
internal_value=0 0.135008 -0.110864 -0.0612377 -0.131938 0.0523009 0.10929 0.0727296 -0.228589
internal_weight=0 21496.8 26740.6 24307.1 21270.1 19713.7 16391 15973.4 3322.65
internal_count=131417 56321 75096 67325 60012 52856 43249 42559 9607
shrinkage=0.02


Tree=14
num_leaves=10
num_cat=0
split_feature=0 0 0 1 0 0 0 0 0
split_gain=692.196 1562.42 632.532 309.537 349.357 562.508 314.321 303.224 801.06
threshold=266.50000000000006 267.50000000000006 263.50000000000006 1.5000000000000002 222.50000000000003 241.50000000000003 25.500000000000004 316.50000000000006 317.50000000000006
decision_type=2 2 2 2 2 2 2 2 2
left_child=2 -2 3 4 6 -6 -1 -3 -9
right_child=1 7 -4 -5 5 -7 -8 8 -10
leaf_value=0.0041400358319569437 0.020581257699480764 -0.0044810734511164076 -0.018147280206985045 0.0030479342379255477 0.0071032840974510078 -0.0089763912895130665 -0.0048411895643051487 0.029434412775470903 0.0014255551621840143
leaf_weight=1735.368775755167 1779.0506517440081 3322.2326824218035 953.19514507055283 4718.1465694457293 3036.9895269572735 1216.170614913106 15076.631421491504 416.2151884585619 15973.008567810059
leaf_count=4469 3465 9607 3294 12347 7466 3732 43788 690 42559
internal_value=0 0.132357 -0.108665 -0.0790236 -0.130885 0.125044 -0.19566 0.0512655 0.107124
internal_weight=0 21490.5 26736.5 25783.3 21065.2 4253.16 16812 19711.5 16389.2
internal_count=131417 56321 75096 71802 59455 11198 48257 52856 43249
shrinkage=0.02


Tree=15
num_leaves=10
num_cat=0
split_feature=0 0 0 0 0 0 21 0 0
split_gain=693.098 1527.03 658.633 366.402 509.224 383.167 374.578 305.481 732.318
threshold=266.50000000000006 267.50000000000006 263.50000000000006 222.50000000000003 241.50000000000003 25.500000000000004 32.500000000000007 316.50000000000006 317.50000000000006
decision_type=2 2 2 2 2 2 2 2 2
left_child=2 -2 3 5 -5 -1 -7 -3 -9
right_child=1 7 -4 4 -6 6 -8 8 -10
leaf_value=0.0049316826181686566 0.020364915489415946 -0.0044641067144338678 -0.018569949484459898 0.0073943983476936004 -0.0065258077752832714 0.00039448040693823214 -0.0056880622288828829 0.028714770824578097 0.0015025505134051203
leaf_weight=2310.6321155428886 1783.4066819399595 3331.3349072337151 941.46687580645084 3546.3791577070951 1490.4199137538671 6008.6623079180717 12405.666233539581 402.65880277752876 16002.96234215796
leaf_count=5877 3474 9643 3282 8665 4459 16312 36448 673 42584
internal_value=0 0.132877 -0.108276 -0.0781842 0.163635 -0.136983 -0.185162 0.0527188 0.108797
internal_weight=0 21520.4 26703.2 25761.8 5036.8 20725 18414.3 19737 16405.6
internal_count=131417 56374 75043 71761 13124 58637 52760 52900 43257
shrinkage=0.02


Tree=16
num_leaves=10
num_cat=0
split_feature=0 0 0 0 0 0 0 0 0
split_gain=665.9 1471.37 634.239 351.945 489.225 368.044 320.462 293.437 706.759
threshold=266.50000000000006 267.50000000000006 263.50000000000006 222.50000000000003 241.50000000000003 25.500000000000004 27.500000000000004 316.50000000000006 317.50000000000006
decision_type=2 2 2 2 2 2 2 2 2
left_child=2 -2 3 5 -5 -1 -7 -3 -9
right_child=1 7 -4 4 -6 6 -8 8 -10
leaf_value=0.0048335810998176567 0.020012134647286288 -0.0043753705628651442 -0.018237602965398631 0.0072485871612035079 -0.0063974746711166876 -0.02059389479000075 -0.003218155864671844 0.028257217305893038 0.0014725268544038912
leaf_weight=2310.4405671805143 1778.6489795148373 3330.9836663305759 939.52506121993065 3545.4328939914703 1489.9758425503969 432.1257141828537 17980.304673671722 401.05980776250362 16002.726915046573
leaf_count=5877 3474 9643 3282 8665 4459 1472 51288 673 42584
internal_value=0 0.130272 -0.106134 -0.0766304 0.160406 -0.134257 -0.181478 0.0516752 0.10664
internal_weight=0 21513.4 26697.8 25758.3 5035.41 20722.9 18412.4 19734.8 16403.8
internal_count=131417 56374 75043 71761 13124 58637 52760 52900 43257
shrinkage=0.02


Tree=17
num_leaves=10
num_cat=0
split_feature=1 18 20 14 16 20 2 2 6
split_gain=453.362 507.016 121.634 156.76 102.455 90.4404 52.5349 50.644 49.7133
threshold=1.5000000000000002 1.5000000000000002 58.500000000000007 6.5000000000000009 5.5000000000000009 326.50000000000006 168.50000000000003 35.500000000000007 74.500000000000014
decision_type=2 2 2 2 2 2 2 2 2
left_child=1 5 3 8 -2 -1 -5 -4 -3
right_child=4 2 7 6 -6 -7 -8 -9 -10
leaf_value=0.00029790702773568937 0.0025634347139618526 -0.002190322448053525 -0.004173139002692481 0.016476109651641091 0.00713996329133397 0.0067685387222789521 0.0041388435569615677 -0.0071410545722992089 -0.013547390524776555
leaf_weight=27102.579010859132 6028.7038921862841 919.97464346885681 5623.0722199082375 211.97349305450916 2903.454616650939 889.65382209420204 399.5623789280653 3936.4764566719532 183.20254193246365
leaf_count=73526 15858 2597 16167 464 7185 2223 1034 11768 595
internal_value=0 -0.0468858 -0.225908 0.0191504 0.202682 0.0252238 0.424228 -0.269888 -0.205671
internal_weight=0 39266.5 11274.3 1714.71 8932.16 27992.2 611.536 9559.55 1103.18
internal_count=131417 108374 32625 4690 23043 75749 1498 27935 3192
shrinkage=0.02


Tree=18
num_leaves=10
num_cat=0
split_feature=0 0 0 0 0 21 0 0 0
split_gain=638.281 1415.6 608.532 340.392 471.999 354.432 297.027 282.146 682.204
threshold=266.50000000000006 267.50000000000006 263.50000000000006 222.50000000000003 241.50000000000003 32.500000000000007 25.500000000000004 316.50000000000006 317.50000000000006
decision_type=2 2 2 2 2 2 2 2 2
left_child=2 -2 3 5 -5 -1 -7 -3 -9
right_child=1 7 -4 4 -6 6 -8 8 -10
leaf_value=0.0011226149103286567 0.019652708778796438 -0.004292406918011321 -0.017883011445667712 0.0071314435090010196 -0.0062742941157224322 0.0037750068379308614 -0.0054882475462455504 0.027813152118919118 0.001442369844011922
leaf_weight=6762.9551569223404 1773.3553718626499 3330.5502224713564 937.22185830771923 3544.4977513551712 1489.4760743379593 1555.6759674698114 12401.553762882948 399.31915290653706 16002.114383220673
leaf_count=18178 3474 9643 3282 8665 4459 4011 36448 673 42584
internal_value=0 0.127584 -0.103904 -0.0750338 0.158116 -0.131707 -0.222737 0.0505856 0.104487
internal_weight=0 21505.3 26691.4 25754.2 5033.97 20720.2 13957.2 19732 16401.4
internal_count=131417 56374 75043 71761 13124 58637 40459 52900 43257
shrinkage=0.02


Tree=19
num_leaves=10
num_cat=0
split_feature=0 0 0 0 0 0 21 0 0
split_gain=613.258 1364.49 586.18 326.967 453.478 342.273 338.219 272.59 672.36
threshold=266.50000000000006 267.50000000000006 263.50000000000006 222.50000000000003 241.50000000000003 25.500000000000004 32.500000000000007 457.50000000000006 446.50000000000006
decision_type=2 2 2 2 2 2 2 2 2
left_child=2 -2 3 5 -5 -1 -7 8 -3
right_child=1 7 -4 4 -6 6 -8 -9 -10
leaf_value=0.0046695978518746222 0.019318131310081296 0.00051780925437943379 -0.017567566498125114 0.0069910819729290001 -0.006151082303997431 0.00040081178757795207 -0.0053794647638283326 0.0050594551138241611 -0.02091488390810076
leaf_weight=2310.0008179992437 1768.0923544317484 14184.710653245449 935.04546065628529 3543.4189988523722 1488.990365549922 6008.5371079295874 12399.372280240059 4937.1061415821314 607.66560450196266
leaf_count=5877 3474 38283 3282 8665 4459 16312 36448 12559 2058
internal_value=0 0.125087 -0.101852 -0.0735437 0.155002 -0.129087 -0.174632 0.0495852 -0.0183148
internal_weight=0 21497.6 26685.4 25750.3 5032.41 20717.9 18407.9 19729.5 14792.4
internal_count=131417 56374 75043 71761 13124 58637 52760 52900 40341
shrinkage=0.02


Tree=20
num_leaves=10
num_cat=0
split_feature=0 0 0 0 0 0 0 0 0
split_gain=563.848 1152.49 667.087 313.856 648.303 435.85 282.418 271.232 482.602
threshold=264.50000000000006 267.50000000000006 263.50000000000006 457.50000000000006 446.50000000000006 505.50000000000006 374.50000000000006 229.50000000000003 241.50000000000003
decision_type=2 2 2 2 2 2 2 2 2
left_child=2 -2 7 4 6 -5 -3 -1 -9
right_child=1 3 -4 5 -6 -7 -8 8 -10
leaf_value=-0.0024571123078304781 0.017238814554020678 0.0028264944579578649 -0.020306406379455515 0.0090439901344795039 -0.020738126149653077 -0.0040861992075426285 -0.0028495615239004157 0.0074943142317776381 -0.0063858440846444441
leaf_weight=21241.254286900163 1880.5528087466955 7805.6215467453003 775.08989468216896 3488.0972509086132 609.52756987512112 1420.835439234972 6360.8190406411886 3043.4306714832783 1489.9442028403282
leaf_count=60042 3868 20501 2803 8416 2069 4028 17835 7374 4481
internal_value=0 0.114644 -0.103019 0.0431169 -0.0296561 0.26211 0.0138712 -0.0754575 0.146496
internal_weight=0 21565.5 26549.7 19684.9 14776 4908.93 14166.4 25774.6 4533.37
internal_count=131417 56717 74700 52849 40405 12444 38336 71897 11855
shrinkage=0.02


Tree=21
num_leaves=10
num_cat=0
split_feature=0 0 0 0 0 0 0 0 0
split_gain=541.667 1110.31 643.09 301.471 622.891 418.688 271.241 260.551 415.167
threshold=264.50000000000006 267.50000000000006 263.50000000000006 457.50000000000006 446.50000000000006 505.50000000000006 374.50000000000006 222.50000000000003 241.50000000000003
decision_type=2 2 2 2 2 2 2 2 2
left_child=2 -2 7 4 6 -5 -3 -1 -9
right_child=1 3 -4 5 -6 -7 -8 8 -10
leaf_value=-0.00247160691499149 0.016937475338131752 0.0027700542294519744 -0.019962025046042955 0.0088646450524075236 -0.020329803720451949 -0.0040044401223568752 -0.0027925509457330383 0.0063053331185780387 -0.0062607407253706029
leaf_weight=20724.920801326632 1875.8310535699129 7805.4315965920687 772.76749533414841 3487.5593825429678 609.39586879312992 1420.9083537906408 6360.9214355796576 3557.540651217103 1489.3878556638956
leaf_count=58662 3868 20501 2803 8416 2069 4028 17835 8754 4481
internal_value=0 0.112381 -0.100981 0.0422531 -0.0290677 0.256895 0.0135934 -0.0739565 0.129714
internal_weight=0 21560 26544.6 19684.2 14775.7 4908.47 14166.4 25771.8 5046.93
internal_count=131417 56717 74700 52849 40405 12444 38336 71897 13235
shrinkage=0.02


Tree=22
num_leaves=10
num_cat=0
split_feature=0 0 0 0 0 0 0 1 0
split_gain=520.733 1177.19 503.639 289.584 598.601 402.217 260.507 257.231 287.39
threshold=266.50000000000006 267.50000000000006 263.50000000000006 457.50000000000006 446.50000000000006 505.50000000000006 374.50000000000006 1.5000000000000002 222.50000000000003
decision_type=2 2 2 2 2 2 2 2 2
left_child=2 -2 7 4 6 -5 -3 8 -1
right_child=1 3 -4 5 -6 -7 -8 -9 -10
leaf_value=-0.0035677712890230025 0.018043146622691235 0.002714750420568774 -0.016520536439626726 0.008689177308669499 -0.019933616405527561 -0.0039243530905730692 -0.0027366932343084174 0.0027938487238577205 0.0022359560263134847
leaf_weight=16817.450636938214 1725.5411007255316 7805.215445548296 915.74327385425568 3486.8939920216799 609.13969804346561 1420.9682945460081 6360.9968170374632 4673.4526969194412 4278.0520235449076
leaf_count=48352 3442 20501 3229 8416 2069 4028 17835 12273 11272
internal_value=0 0.110914 -0.0984463 0.0414073 -0.0284914 0.25179 0.0133213 -0.0724857 -0.119519
internal_weight=0 21408.8 26684.7 19683.2 14775.4 4907.86 14166.2 25769 21095.5
internal_count=131417 56291 75126 52849 40405 12444 38336 71897 59624
shrinkage=0.02


Tree=23
num_leaves=10
num_cat=0
split_feature=0 0 0 0 0 0 0 1 0
split_gain=500.894 1034.98 601.731 278.174 575.372 386.409 250.199 247.068 276.045
threshold=264.50000000000006 267.50000000000006 263.50000000000006 457.50000000000006 446.50000000000006 505.50000000000006 374.50000000000006 1.5000000000000002 222.50000000000003
decision_type=2 2 2 2 2 2 2 2 2
left_child=2 -2 7 4 6 -5 -3 8 -1
right_child=1 3 -4 5 -6 -7 -8 -9 -10
leaf_value=-0.0034967989993582201 0.016390282785567555 0.0026605593624952064 -0.019350620794639423 0.00851747798001108 -0.019548928361053843 -0.0038459007486352655 -0.0026819644150762913 0.0027380568754704561 0.0021913602830879739
leaf_weight=16815.686396330595 1864.837462797761 7804.9747454673052 768.22425852715969 3486.1089605093002 608.76657511293888 1421.0159973949194 6361.0466021597385 4673.3692365437746 4277.8739668726921
leaf_count=48352 3868 20501 2803 8416 2069 4028 17835 12273 11272
internal_value=0 0.108113 -0.0971133 0.0405789 -0.0279269 0.246794 0.0130547 -0.0710411 -0.117139
internal_weight=0 21546.8 26535.2 19681.9 14774.8 4907.12 14166 25766.9 21093.6
internal_count=131417 56717 74700 52849 40405 12444 38336 71897 59624
shrinkage=0.02


Tree=24
num_leaves=10
num_cat=0
split_feature=0 0 0 0 0 0 0 0 0
split_gain=481.532 1098.05 470.964 273.914 692.874 316.56 314.817 295.413 237.927
threshold=266.50000000000006 267.50000000000006 263.50000000000006 316.50000000000006 317.50000000000006 288.50000000000006 286.50000000000006 374.50000000000006 25.500000000000004
decision_type=2 2 2 2 2 2 2 2 2
left_child=2 -2 8 5 -5 6 -3 -6 -1
right_child=1 3 -4 4 7 -7 -8 -9 -10
leaf_value=0.0047284675579979769 0.017471827116714429 -0.0031203108775194706 -0.016002576192790635 0.02743356192288824 0.0058493843056979834 -0.011303609601701757 0.017212471451274761 -0.00039542426100928077 -0.0019958341572864518
leaf_weight=2308.9667348116636 1714.2687846720219 1466.5858660191298 911.02518625557423 410.1142702549696 4064.1888753473759 1482.6238256543875 381.19835743308067 11875.62018430233 23455.846015393734
leaf_count=5876 3442 4175 3229 693 10168 4638 827 32348 66021
internal_value=0 0.106706 -0.0946718 0.0397676 0.0930312 -0.221477 0.0546103 0.0598623 -0.0696254
internal_weight=0 21394.6 26675.8 19680.3 16349.9 3330.41 1847.78 15939.8 25764.8
internal_count=131417 56291 75126 52849 43209 9640 5002 42516 71897
shrinkage=0.02


Tree=25
num_leaves=10
num_cat=0
split_feature=0 0 0 0 0 0 0 0 1
split_gain=471.44 962.73 566.8 267.82 661.575 296.428 294.89 282.525 254.077
threshold=264.50000000000006 267.50000000000006 263.50000000000006 316.50000000000006 317.50000000000006 374.50000000000006 288.50000000000006 286.50000000000006 1.5000000000000002
decision_type=2 2 2 2 2 2 2 2 2
left_child=2 -2 8 6 -5 -6 7 -3 -1
right_child=1 3 -4 4 5 -7 -8 -9 -10
leaf_value=-0.0021594950221713698 0.015921592437908097 -0.0028581547129997715 -0.018625850914044225 0.027067060985605181 0.006026584363824845 -0.00022924792019729816 -0.010793974084503563 0.016343234238357075 0.0029737630384866461
leaf_weight=21039.893495470285 1879.0800091773272 1473.91815520823 767.70854824781418 407.77404090762138 4058.0591455250978 11923.483109146357 1496.4381671845913 383.74637562036514 4718.899366736412
leaf_count=59409 3919 4187 2816 692 10116 32417 4669 839 12353
internal_value=0 0.112688 -0.0862348 0.0475204 0.100226 0.067985 -0.209786 0.0562548 -0.0609317
internal_weight=0 21622.5 26526.5 19743.4 16389.3 15981.5 3354.1 1857.66 25758.8
internal_count=131417 56839 74578 52920 43225 42533 9695 5026 71762
shrinkage=0.02


Tree=26
num_leaves=10
num_cat=0
split_feature=0 0 0 0 0 0 0 0 0
split_gain=452.974 927.96 546.761 263.731 568.093 436.739 250.39 245.183 301.29
threshold=264.50000000000006 267.50000000000006 263.50000000000006 457.50000000000006 446.50000000000006 505.50000000000006 417.50000000000006 25.500000000000004 229.50000000000003
decision_type=2 2 2 2 2 2 2 2 2
left_child=2 -2 7 4 6 -5 -3 -1 -9
right_child=1 3 -4 5 -6 -7 -8 8 -10
leaf_value=0.005003575373260816 0.015649806913495289 -0.0011151274875379148 -0.018320718519968394 0.0087144138478681583 -0.019395513803934675 -0.0044054867686801899 0.0050440916757898994 -0.0029152557035082784 0.0028358984386138266
leaf_weight=2319.6050097346306 1873.5868127942085 10697.37679117918 764.9625610858202 3515.9228313267231 601.30034039914608 1423.3947533071041 3501.6987606734037 18929.618995293975 4508.4171262383461
leaf_count=5877 3919 29404 2816 8450 2050 4064 8952 54093 11792
internal_value=0 0.110492 -0.0845255 0.0465854 -0.0201811 0.246599 0.0202074 -0.0597155 -0.0904258
internal_weight=0 21613.3 26522.6 19739.7 14800.4 4939.32 14199.1 25757.6 23438
internal_count=131417 56839 74578 52920 40406 12514 38356 71762 65885
shrinkage=0.02


Tree=27
num_leaves=10
num_cat=0
split_feature=0 0 0 0 0 0 1 0 0
split_gain=435.814 988.153 426.896 253.355 546.252 419.601 243.817 244.772 377.275
threshold=266.50000000000006 267.50000000000006 263.50000000000006 457.50000000000006 446.50000000000006 505.50000000000006 1.5000000000000002 222.50000000000003 241.50000000000003
decision_type=2 2 2 2 2 2 2 2 2
left_child=2 -2 6 4 -3 -5 7 -1 -9
right_child=1 3 -4 5 -6 -7 -8 8 -10
leaf_value=-0.0031757765696432522 0.016711180815649977 0.00039607136692510137 -0.015079702306722668 0.0085428498370360394 -0.019028364623609899 -0.0043174789256412525 0.002936462567034801 0.0059561203745322183 -0.0072699807621392568
leaf_weight=16799.666604876518 1719.0324248820543 14199.145533874631 911.10111878812313 3514.8726835399866 600.70800921320915 1423.4221517592669 4718.5964172929525 3035.5216025710106 1201.6012634783983
leaf_count=48249 3485 38356 3250 8450 2050 4064 12353 7496 3664
internal_value=0 0.10906 -0.0823801 0.0456549 -0.0197817 0.241719 -0.0585253 -0.104614 0.110072
internal_weight=0 21457.2 26666.5 19738.1 14799.9 4938.29 25755.4 21036.8 4237.12
internal_count=131417 56405 75012 52920 40406 12514 71762 59409 11160
shrinkage=0.02


Tree=28
num_leaves=10
num_cat=0
split_feature=1 18 0 0 0 0 0 0 0
split_gain=421.448 526.415 439.093 394.268 254.35 182.574 175.704 307.089 196.934
threshold=1.5000000000000002 1.5000000000000002 264.50000000000006 267.50000000000006 308.50000000000006 457.50000000000006 377.50000000000006 417.50000000000006 222.50000000000003
decision_type=2 2 2 2 2 2 2 2 2
left_child=1 2 -1 -4 -5 -2 8 -8 -3
right_child=5 6 3 4 -6 -7 7 -9 -10
leaf_value=-0.0017310830389039114 0.0030219892328001174 -0.0060839427665320533 0.014769465123540073 -0.0047334391914394206 0.0034502451643940979 0.012518984450847139 -0.020529757883973074 -0.0046172118201599248 -0.00013668310080205037
leaf_weight=14786.33391584456 8005.4123184382915 4613.1778134256601 1094.1455326676369 1778.2307924926281 10312.73507578671 899.0916733443737 691.92447939515114 1620.2552779912949 4307.7034175843
leaf_count=41602 20921 13837 2307 5180 26674 2044 2351 4651 11850
internal_value=0 -0.0416886 0.0317382 0.164408 0.112265 0.199274 -0.224515 -0.470105 -0.160691
internal_weight=0 39204.5 27971.4 13185.1 12091 8904.5 11233.1 2312.18 8920.88
internal_count=131417 108452 75763 34161 31854 22965 32689 7002 25687
shrinkage=0.02


Tree=29
num_leaves=10
num_cat=0
split_feature=1 18 0 0 0 0 0 0 0
split_gain=404.833 505.706 421.842 380.433 244.315 175.529 168.785 295.193 189.246
threshold=1.5000000000000002 1.5000000000000002 264.50000000000006 267.50000000000006 308.50000000000006 457.50000000000006 377.50000000000006 417.50000000000006 222.50000000000003
decision_type=2 2 2 2 2 2 2 2 2
left_child=1 2 -1 -4 -5 -2 8 -8 -3
right_child=5 6 3 4 -6 -7 7 -9 -10
leaf_value=-0.0016965417044610014 0.0029617434796087366 -0.0059644916584629558 0.014520812380070398 -0.0046395946234627783 0.0033815430607215756 0.012275977705717422 -0.020128529099446759 -0.0045250511562119526 -0.00013395110596649444
leaf_weight=14785.703176215291 8004.9538448899984 4611.5311982780695 1090.7100738734007 1777.9781678318977 10311.880596145988 898.61581785976887 691.66473449766636 1620.2506253421307 4307.7044740021229
leaf_count=41602 20921 13837 2307 5180 26674 2044 2351 4651 11850
internal_value=0 -0.0408637 0.0311111 0.161181 0.110029 0.195315 -0.220073 -0.460792 -0.15751
internal_weight=0 39197.4 27966.3 13180.6 12089.9 8903.57 11231.2 2311.92 8919.24
internal_count=131417 108452 75763 34161 31854 22965 32689 7002 25687
shrinkage=0.02


Tree=30
num_leaves=10
num_cat=0
split_feature=1 18 16 20 14 5 20 20 2
split_gain=391.085 476.418 113.546 112.493 142.606 98.5532 58.4176 46.8426 34.6156
threshold=1.5000000000000002 1.5000000000000002 4.5000000000000009 54.500000000000007 6.5000000000000009 326.50000000000006 75.500000000000014 141.50000000000003 58.500000000000007
decision_type=2 2 2 2 2 2 2 2 2
left_child=1 5 -2 4 -3 6 -1 8 -5
right_child=2 3 -4 7 -6 -7 -8 -9 -10
leaf_value=-0.0002851540953578892 0.0019405681965923532 -0.0039011279279354176 0.0065831060897518457 -0.004684517043183613 0.0091601317153820177 0.0056480376021322736 0.0019716263279582484 -0.00014655315854679646 -0.0073435623783503117
leaf_weight=20616.936293914914 5460.2126263678074 921.29497496783733 3438.1467922478914 6163.9994345903397 520.77677102386951 1404.5272699445486 5897.2170101553202 695.64594689011574 2914.9094762504101
leaf_count=56437 14446 2716 8536 17951 1274 3563 15751 1918 8825
internal_value=0 -0.0453911 0.186832 -0.219435 0.0410385 0.0245382 0.0108367 -0.257895 -0.277052
internal_weight=0 39135.3 8898.36 11216.6 1442.07 27918.7 26514.2 9774.55 9078.91
internal_count=131417 108435 22982 32684 3990 75751 72188 28694 26776
shrinkage=0.02


Tree=31
num_leaves=10
num_cat=0
split_feature=1 18 16 20 14 5 20 20 7
split_gain=375.647 457.648 109.577 108.072 136.992 94.6691 56.1057 45.0023 33.7975
threshold=1.5000000000000002 1.5000000000000002 5.5000000000000009 54.500000000000007 6.5000000000000009 326.50000000000006 75.500000000000014 141.50000000000003 91.500000000000014
decision_type=2 2 2 2 2 2 2 2 2
left_child=1 5 -2 4 8 6 -1 -5 -3
right_child=2 3 -4 7 -6 -7 -8 -9 -10
leaf_value=-0.00027945184377753288 0.0021206465135495903 -0.002267058296602393 0.0068636773248241106 -0.0054313124457187048 0.0089778941645400432 0.0055358458233006058 0.0019322227300667882 -0.000143634737775231 -0.013347902496079702
leaf_weight=20616.949568390846 6009.92834892869 795.43711313605309 2887.4819175153971 9077.2622853070498 520.7815824598074 1404.394252076745 5897.1905327141285 695.64481587707996 125.69542163610458
leaf_count=56437 15854 2292 7128 26776 1274 3563 15751 1918 424
internal_value=0 -0.0444858 0.183119 -0.215084 0.0402286 0.0240483 0.0106199 -0.252785 -0.191202
internal_weight=0 39133.4 8897.41 11214.8 1441.91 27918.5 26514.1 9772.91 921.133
internal_count=131417 108435 22982 32684 3990 75751 72188 28694 2716
shrinkage=0.02


Tree=32
num_leaves=10
num_cat=0
split_feature=0 0 0 0 0 0 21 0 18
split_gain=385.547 302.25 289.937 273.36 699.84 906.55 244.296 228.077 185.775
threshold=229.50000000000003 25.500000000000004 27.500000000000004 241.50000000000003 264.50000000000006 267.50000000000006 60.500000000000007 314.50000000000006 1.5000000000000002
decision_type=2 2 2 2 2 2 2 2 2
left_child=1 -1 -3 -2 -5 -6 8 -7 -4
right_child=3 2 6 4 5 7 -8 -9 -10
leaf_value=0.0047475550927419449 0.0072043499832704092 -0.01906725670779669 -0.0024828104672533842 -0.0097881478029454953 0.01523219762898712 -0.0041749161991771339 -0.0053562985200819027 0.001630337507083414 0.0029674485075263301
leaf_weight=2324.2692652791739 3032.3523006439209 430.171097651124 7462.0678456127644 2244.8672360777855 1870.5666534155607 3240.3986982554197 7303.8575328141451 16360.254212707281 3758.8603733778
leaf_count=5907 7346 1456 21161 7271 3930 9388 21802 43293 9863
internal_value=0 -0.102714 -0.144463 0.0776417 0.0414577 0.0970355 -0.125511 0.0334905 -0.0328104
internal_weight=0 21279.2 18955 26748.4 23716.1 21471.2 18524.8 19600.7 11220.9
internal_count=131417 60189 54282 71228 63882 56611 52826 52681 31024
shrinkage=0.02


Tree=33
num_leaves=10
num_cat=0
split_feature=0 0 0 0 0 0 2 21 0
split_gain=370.405 290.344 278.807 262.668 672.823 874.137 248.501 236.209 178.535
threshold=229.50000000000003 25.500000000000004 27.500000000000004 241.50000000000003 264.50000000000006 267.50000000000006 322.50000000000006 35.500000000000007 263.50000000000006
decision_type=2 2 2 2 2 2 2 2 2
left_child=1 -1 -3 -2 8 -6 -7 -4 -5
right_child=3 2 7 4 5 6 -8 -9 -10
leaf_value=0.0046532655026891327 0.0070636033739944568 -0.018702530281514786 0.00055831879418332298 -0.0055280425930666387 0.014977582614629318 -0.00010329104956158607 0.0073278662337136202 -0.0041495014611444819 -0.017454253792616062
leaf_weight=2324.0022799223661 3030.9921337366104 429.85050310194492 6644.6037869304419 1479.8608462363482 1864.4315341413021 17597.711246728897 2001.9241138547659 11877.142847403884 762.42535722255707
leaf_count=5907 7346 1456 18065 4440 3930 47755 4926 34761 2831
internal_value=0 -0.10068 -0.141603 0.076123 0.0406468 0.0951304 0.0328217 -0.123022 -0.480189
internal_weight=0 21275.6 18951.6 26737.3 23706.4 21464.1 19599.6 18521.7 2242.29
internal_count=131417 60189 54282 71228 63882 56611 52681 52826 7271
shrinkage=0.02


Tree=34
num_leaves=10
num_cat=0
split_feature=0 0 0 0 0 0 0 1 0
split_gain=355.848 278.903 268.166 252.4 647.122 842.933 219.347 208.359 172.945
threshold=229.50000000000003 25.500000000000004 27.500000000000004 241.50000000000003 264.50000000000006 267.50000000000006 314.50000000000006 1.5000000000000002 263.50000000000006
decision_type=2 2 2 2 2 2 2 2 2
left_child=1 -1 -3 -2 8 -6 -7 -4 -5
right_child=3 2 7 4 5 6 -8 -9 -10
leaf_value=0.0045608886216791265 0.0069257194352715335 -0.018347755632973167 -0.0033970634298110315 -0.0054198280588430257 0.014727961503598532 -0.0041080631797534703 0.0015853169985810042 0.0021526932490389884 -0.017173664279055631
leaf_weight=2323.7152486145496 3029.5830815881491 429.46075886487961 15232.449655771255 1479.2858712226152 1858.2244475483894 3240.0120016336441 16359.217636659741 3286.8258662670851 759.46343250572681
leaf_count=5907 7346 1456 44142 4440 3930 9388 43293 8684 2831
internal_value=0 -0.0986832 -0.138796 0.0746342 0.0398512 0.0932619 0.0321668 -0.120579 -0.471374
internal_weight=0 21272.5 18948.7 26725.8 23696.2 21457.5 19599.2 18519.3 2238.75
internal_count=131417 60189 54282 71228 63882 56611 52681 52826 7271
shrinkage=0.02


Tree=35
num_leaves=10
num_cat=0
split_feature=0 0 0 0 0 0 2 0 0
split_gain=334.839 856.856 408.233 531.651 263.277 262.442 217.373 218.932 515.071
threshold=266.50000000000006 267.50000000000006 241.50000000000003 229.50000000000003 25.500000000000004 27.500000000000004 322.50000000000006 316.50000000000006 317.50000000000006
decision_type=2 2 2 2 2 2 2 2 2
left_child=2 -2 3 4 -1 -6 7 -3 -9
right_child=1 6 -4 -5 5 -7 -8 8 -10
leaf_value=0.004528829866295909 0.015584712102516732 -0.0049383983723251205 -0.009344825143923912 0.0071745422548065655 -0.017902677723925172 -0.0021978821257680708 0.0069738831301279867 0.025995460341943777 0.00047430233443673429
leaf_weight=2353.1302513927221 1688.7328051030636 2941.5181673616171 2373.9784325361252 3029.4036331027746 432.85454747080803 18514.209281802177 2011.6513396650553 320.46111631393433 14374.100429207087
leaf_count=5978 3482 8615 7718 7312 1468 52720 4964 553 38607
internal_value=0 0.0963321 -0.0716817 -0.0330195 -0.0887921 -0.127988 0.037511 0.00194571 0.0518236
internal_weight=0 21336.5 26703.6 24329.6 21300.2 18947.1 19647.7 17636.1 14694.6
internal_count=131417 56221 75196 67478 60166 54188 52739 47775 39160
shrinkage=0.02


Tree=36
num_leaves=10
num_cat=0
split_feature=1 18 0 0 0 0 0 0 20
split_gain=326.376 417.663 356.144 334.64 191.997 185.726 295.501 168.672 315.579
threshold=1.5000000000000002 1.5000000000000002 264.50000000000006 267.50000000000006 308.50000000000006 377.50000000000006 417.50000000000006 222.50000000000003 59.500000000000007
decision_type=2 2 2 2 2 2 2 2 2
left_child=1 2 -1 -4 -5 7 -7 8 -3
right_child=-2 5 3 4 -6 6 -8 -9 -10
leaf_value=-0.0015461980864991728 0.0035140164568697682 0.0060601090356282861 0.013647770558301433 -0.0040422032999291044 0.0030733302008546953 -0.020118752536281623 -0.0043767822241715191 0.00016355756889354663 -0.0077244043080279502
leaf_weight=14791.004584848881 8899.7006360888481 800.96308337152004 1076.7140818834305 1776.4239459484816 10264.976211622357 678.22317001223564 1603.9816597700119 4305.5599636882544 3825.7637919038534
leaf_count=41664 23019 2058 2305 5162 26608 2317 4606 11844 11834
internal_value=0 -0.036435 0.0290543 0.148996 0.101118 -0.199407 -0.453893 -0.134221 -0.26672
internal_weight=0 39123.6 27909.1 13118.1 12041.4 11214.5 2282.2 8932.29 4626.73
internal_count=131417 108398 75739 34075 31770 32659 6923 25736 13892
shrinkage=0.02


Tree=37
num_leaves=10
num_cat=0
split_feature=1 18 0 0 0 0 0 0 20
split_gain=313.497 401.266 342.163 323.044 184.424 178.458 284.279 162.116 303.295
threshold=1.5000000000000002 1.5000000000000002 264.50000000000006 267.50000000000006 308.50000000000006 377.50000000000006 417.50000000000006 222.50000000000003 59.500000000000007
decision_type=2 2 2 2 2 2 2 2 2
left_child=1 2 -1 -4 -5 7 -7 8 -3
right_child=-2 5 3 4 -6 6 -8 -9 -10
leaf_value=-0.0015153507772799786 0.0034441327344841301 0.0059382956797476303 0.013422594493187246 -0.003962140740010979 0.0030121616952473442 -0.019734297277499101 -0.0042895460518537938 0.0001602888626096417 -0.0075749732289911859
leaf_weight=14790.32647459209 8898.7456377446651 801.10559277236462 1072.969645395875 1776.1372480392456 10264.031724125147 677.67115293443203 1603.9312002509832 4305.559595361352 3823.2941114753485
leaf_count=41664 23019 2058 2305 5162 26608 2317 4606 11844 11834
internal_value=0 -0.035715 0.0284808 0.146076 0.099105 -0.195478 -0.44497 -0.131571 -0.261519
internal_weight=0 39115 27903.5 13113.1 12040.2 11211.6 2281.6 8929.96 4624.4
internal_count=131417 108398 75739 34075 31770 32659 6923 25736 13892
shrinkage=0.02


Tree=38
num_leaves=10
num_cat=0
split_feature=1 18 20 15 16 2 20 2 21
split_gain=301.128 385.521 132.78 134.355 102.532 84.1731 47.8506 42.8478 42.7988
threshold=1.5000000000000002 1.5000000000000002 58.500000000000007 6.5000000000000009 5.5000000000000009 242.50000000000003 149.50000000000003 165.50000000000003 325.50000000000006
decision_type=2 2 2 2 2 2 2 2 2
left_child=1 5 3 -3 -2 8 -4 -5 -1
right_child=4 2 6 7 -6 -7 -8 -9 -10
leaf_value=0.00012964002035369194 0.0018749386768023178 -0.0028309489592760468 -0.0050793615035101781 0.016174032097185282 0.0064525208354920503 0.0046977396873356036 0.0014325321947969909 0.0049092889050679185 0.005072453859406717
leaf_weight=25347.070194408298 5985.2748046219349 1105.2773738652468 9030.6387327611446 208.7232374548912 2912.4825330972672 1832.9032785147429 472.39050820469856 391.38861761987209 717.78424243628979
leaf_count=69191 15810 3230 26679 460 7209 4707 1283 1007 1841
internal_value=0 -0.0350095 -0.191631 0.0650645 0.168783 0.0279188 -0.237734 0.444908 0.0133278
internal_weight=0 39106.2 11208.4 1705.39 8897.76 27897.8 9503.03 600.112 26064.9
internal_count=131417 108398 32659 4697 23019 75739 27962 1467 71032
shrinkage=0.02


Tree=39
num_leaves=10
num_cat=0
split_feature=0 0 0 0 0 0 2 0 0
split_gain=301.363 793.462 397.98 508.128 251.039 255.686 204.575 202.856 495.996
threshold=266.50000000000006 267.50000000000006 241.50000000000003 229.50000000000003 25.500000000000004 27.500000000000004 322.50000000000006 316.50000000000006 374.50000000000006
decision_type=2 2 2 2 2 2 2 2 2
left_child=2 -2 3 4 -1 -6 7 -3 -9
right_child=1 6 -4 -5 5 -7 -8 8 -10
leaf_value=0.0044681366346984086 0.015037593169147018 -0.0047820575506608669 -0.0091780432152159669 0.0070631826708734118 -0.017608687168110065 -0.0020976966554296815 0.0067400591774237767 0.0069878064303259659 -0.0012731178109464726
leaf_weight=2352.4399844557047 1672.8469873964787 2940.4108526408672 2370.9864959865808 3027.9606544673443 432.29754075407982 18504.78232601285 2010.1204800605774 3988.1161812990904 10700.486973300576
leaf_count=5978 3482 8615 7718 7312 1468 52720 4964 9749 29411
internal_value=0 0.0913818 -0.0680829 -0.0299132 -0.0844529 -0.122742 0.0349996 0.000495653 0.0485187
internal_weight=0 21312 26688.5 24317.5 21289.5 18937.1 19639.1 17629 14688.6
internal_count=131417 56221 75196 67478 60166 54188 52739 47775 39160
shrinkage=0.02


Tree=40
num_leaves=10
num_cat=0
split_feature=0 0 0 0 0 0 0 0 0
split_gain=315.639 733.17 375.909 246.232 520.661 419.663 232.034 205.281 197.989
threshold=266.50000000000006 267.50000000000006 261.50000000000006 457.50000000000006 446.50000000000006 505.50000000000006 417.50000000000006 495.50000000000006 229.50000000000003
decision_type=2 2 2 2 2 2 2 2 2
left_child=2 -2 8 4 6 7 -3 -5 -1
right_child=1 3 -4 5 -6 -7 -8 -9 -10
leaf_value=-0.0017203345157120926 0.014615717348833499 -0.0011695882181753194 -0.0136727049152989 0.0047651351035429531 -0.018596382868595874 -0.004367298305312157 0.0047819282101234034 0.01485527816205001 0.0029201528967890415
leaf_weight=21225.206158593297 1665.8558376282454 10668.705673605204 955.68564894795418 2248.9624632000923 605.91135059297085 1453.5691155344248 3469.9664939939976 1260.992869630456 4444.7540908455849
leaf_count=60035 3492 29375 3427 5650 2064 4148 8855 2764 11607
internal_value=0 0.0943552 -0.0687968 0.0404417 -0.0244026 0.233026 0.0145668 0.420072 -0.0458176
internal_weight=0 21374 26625.6 19708.1 14744.6 4963.52 14138.7 3509.96 25670
internal_count=131417 56348 75069 52856 40294 12562 38230 8414 71642
shrinkage=0.02


Tree=41
num_leaves=10
num_cat=0
split_feature=1 18 0 0 0 0 0 0 0
split_gain=306.937 381.655 339.871 279.836 198.928 148.629 148.478 268.617 158.509
threshold=1.5000000000000002 1.5000000000000002 264.50000000000006 267.50000000000006 308.50000000000006 457.50000000000006 377.50000000000006 417.50000000000006 222.50000000000003
decision_type=2 2 2 2 2 2 2 2 2
left_child=1 2 -1 -4 -5 -2 8 -8 -3
right_child=5 6 3 4 -6 -7 7 -9 -10
leaf_value=-0.0015217971338943471 0.0025566398560943689 -0.0052121304020774951 0.012601026383442956 -0.0041384103194675075 0.0030910660371014447 0.011123544056406816 -0.018722076402761675 -0.0038311533887510512 0.00013285189261228288
leaf_weight=14742.975783810019 8003.2718464285135 4596.0710254460573 1088.047033905983 1783.5027415454388 10286.714459553361 899.52965170145035 692.774927765131 1608.4220039844513 4284.6390212029219
leaf_count=41580 20957 13855 2373 5205 26610 2062 2360 4603 11812
internal_value=0 -0.0343938 0.0281585 0.144976 0.101079 0.171318 -0.190468 -0.41676 -0.131675
internal_weight=0 39083.1 27901.2 13158.3 12070.2 8902.8 11181.9 2301.2 8880.71
internal_count=131417 108398 75768 34188 31815 23019 32630 6963 25667
shrinkage=0.02


Tree=42
num_leaves=10
num_cat=0
split_feature=1 0 0 0 0 0 0 0 0
split_gain=294.85 292.862 249.076 947.991 813.727 229.568 206.617 189.159 150.292
threshold=1.5000000000000002 222.50000000000003 374.50000000000006 369.50000000000006 417.50000000000006 505.50000000000006 25.500000000000004 241.50000000000003 413.50000000000006
decision_type=2 2 2 2 2 2 2 2 2
left_child=1 6 3 7 8 -6 -1 -3 -4
right_child=-2 2 4 -5 5 -7 -8 -9 -10
leaf_value=0.0038393913242125641 0.0033584467787198926 0.0058119731107657167 -0.0094408392746942651 0.028572255802183255 0.0033756518379788204 -0.0062122970455366772 -0.0034320671838978735 5.9656461706199002e-05 -0.023445295239371663
leaf_weight=1741.6910498142242 8901.4808540791273 3058.4448665678501 2100.5451763421297 538.18826247751713 6043.2457499653101 1193.3944977223873 14995.025079265237 9044.2300103157759 359.55304728448391
leaf_count=4482 23019 7530 6383 948 15648 3488 43756 24897 1266
internal_value=0 -0.0337148 0.041212 0.133692 -0.0793203 0.0895878 -0.133723 0.0757445 -0.575807
internal_weight=0 39074.3 22337.6 12640.9 9696.74 7236.64 16736.7 12102.7 2460.1
internal_count=131417 108398 60160 33375 26785 19136 48238 32427 7649
shrinkage=0.02


Tree=43
num_leaves=10
num_cat=0
split_feature=20 21 18 14 16 20 4 5 6
split_gain=250.655 183.74 308.352 145.558 66.7528 59.268 43.5747 43.5227 26.4171
threshold=241.50000000000003 64.500000000000014 1.5000000000000002 6.5000000000000009 5.5000000000000009 147.50000000000003 1.5000000000000002 29.500000000000004 25.500000000000004
decision_type=2 2 2 2 2 2 2 2 2
left_child=1 3 -3 6 -2 7 -1 -4 -5
right_child=4 2 5 8 -6 -7 -8 -9 -10
leaf_value=0.002995668918894797 0.002723241455808152 0.0012407510509992615 -0.0036458583942720062 -0.00011841438619121502 0.0079971277217458954 0.001289856722401366 -0.00028231299019265693 -0.0065374394784815026 0.0043946466251210264
leaf_weight=1749.037383377552 2376.0199772417545 6483.039962336421 4843.1380060762167 591.13128826022148 1619.5560913085938 664.26769086718559 21863.83991740644 3695.9125257730484 4082.6807095110416
leaf_count=4596 6245 17516 14054 1605 3930 1796 60008 11196 10471
internal_value=0 -0.0181639 -0.104961 0.029965 0.243342 -0.222614 -0.00194524 -0.244998 0.191143
internal_weight=0 43973 15686.4 28286.7 3995.58 9203.32 23612.9 8539.05 4673.81
internal_count=131417 121242 44562 76680 10175 27046 64604 25250 12076
shrinkage=0.02


Tree=44
num_leaves=10
num_cat=0
split_feature=20 21 18 14 2 20 4 5 22
split_gain=240.796 176.491 296.226 139.813 64.3676 56.9482 41.8534 41.8465 26.7513
threshold=241.50000000000003 64.500000000000014 1.5000000000000002 6.5000000000000009 1019.5000000000001 147.50000000000003 1.5000000000000002 29.500000000000004 39.500000000000007
decision_type=2 2 2 2 2 2 2 2 2
left_child=1 3 -3 6 -2 7 8 -4 -1
right_child=4 2 5 -5 -6 -7 -8 -9 -10
leaf_value=0.00073346680606402109 0.0037284174368964924 0.0012159513286413427 -0.0035734469394925351 0.0037468345200112902 0.011000624925108574 0.0012641739932022162 -0.00027666715758358482 -0.0064092753017277225 0.005722342248074018
leaf_weight=980.1477609872818 3427.1591904014349 6483.0215128213167 4842.5188944190741 4673.3080502897501 567.60198250412941 664.26851482689381 21863.853532403708 3694.4964239150286 768.82177735865116
leaf_count=2649 8858 17516 14054 12076 1317 1796 60008 11196 1947
internal_value=0 -0.0178017 -0.102877 0.0293668 0.238534 -0.218213 -0.00190573 -0.24016 0.146799
internal_weight=0 43970.4 15684.3 28286.1 3994.76 9201.28 23612.8 8537.02 1748.97
internal_count=131417 121242 44562 76680 10175 27046 64604 25250 4596
shrinkage=0.02


Tree=45
num_leaves=10
num_cat=0
split_feature=0 0 0 0 0 0 0 0 0
split_gain=300.82 760.754 363.851 206.464 626.303 333.848 315.704 255.452 205.191
threshold=266.50000000000006 267.50000000000006 263.50000000000006 316.50000000000006 317.50000000000006 288.50000000000006 286.50000000000006 374.50000000000006 294.50000000000006
decision_type=2 2 2 2 2 2 2 2 2
left_child=2 -2 -1 5 -5 6 -3 -6 -7
right_child=1 3 -4 4 7 8 -8 -9 -10
leaf_value=-0.0009962799649564653 0.014799159630506193 -0.0025534232481020996 -0.014006159248607819 0.025805520632045439 0.0052907477545939509 -0.021209618388785212 0.017515411056282362 -0.0005328735794138923 -0.0055006105083473039
leaf_weight=25790.947798401117 1647.6243711262941 1453.0589797496796 886.67868191003799 413.2506612688303 4040.5060891211033 510.11286541819572 396.54069563746452 11813.812891513109 958.74460107088089
leaf_count=72135 3449 4146 3227 715 10100 1783 852 32167 2843
internal_value=0 0.0879771 -0.0715219 0.0330107 0.0794006 -0.194176 0.0883673 0.0475815 -0.549615
internal_weight=0 21233.7 26677.6 19586 16267.6 3318.46 1849.6 15854.3 1468.86
internal_count=131417 56055 75362 52606 42982 9624 4998 42267 4626
shrinkage=0.02


Tree=46
num_leaves=10
num_cat=0
split_feature=0 0 0 2 0 0 0 0 0
split_gain=289.054 734.506 350.855 209.128 203.972 367.899 356.257 171.382 246.649
threshold=266.50000000000006 267.50000000000006 263.50000000000006 322.50000000000006 308.50000000000006 374.50000000000006 288.50000000000006 25.500000000000004 27.500000000000004
decision_type=2 2 2 2 2 2 2 2 2
left_child=2 -2 7 4 6 -6 -3 -1 -9
right_child=1 3 -4 -5 5 -7 -8 8 -10
leaf_value=0.0042054346943948984 0.014568595160811579 0.00059958882056229061 -0.013771746858749006 0.0067819662094818003 0.0057838112091278494 -0.0011397648601132006 -0.014675817340175217 -0.016433602374395832 -0.0012075502650859393
leaf_weight=2319.7642983347178 1640.3470487594604 1596.1573050320148 883.81569601595402 1993.1673889011145 4300.2173933088779 10706.618939235806 985.26604890823364 430.68161658942699 23039.839615404606
leaf_count=5909 3449 4383 3227 4906 10668 29393 3256 1454 64772
internal_value=0 0.0862741 -0.0701034 0.0323617 -0.00243367 0.0422275 -0.26193 -0.0488191 -0.0744633
internal_weight=0 21221.8 26674.1 19581.4 17588.3 15006.8 2581.42 25790.3 23470.5
internal_count=131417 56055 75362 52606 47700 40061 7639 72135 66226
shrinkage=0.02


Tree=47
num_leaves=10
num_cat=0
split_feature=0 0 0 2 0 0 0 0 0
split_gain=277.734 709.203 338.333 200.931 195.993 353.454 342.719 164.624 237.345
threshold=266.50000000000006 267.50000000000006 263.50000000000006 322.50000000000006 308.50000000000006 374.50000000000006 288.50000000000006 25.500000000000004 27.500000000000004
decision_type=2 2 2 2 2 2 2 2 2
left_child=2 -2 7 4 6 -6 -3 -1 -9
right_child=1 3 -4 -5 5 -7 -8 8 -10
leaf_value=0.0041220495441905312 0.014342031273416961 0.00058760849348910092 -0.01354174277415696 0.0066486935615214949 0.0056701198707731493 -0.0011169597849283361 -0.014399973441767348 -0.016129705745268421 -0.0011834475534471807
leaf_weight=2319.4211896806955 1633.0559805482626 1596.187290251255 880.93078166246414 1992.5244874507189 4298.786581993103 10706.774349883199 984.12578383088112 430.08261059224606 23038.967504873872
leaf_count=5909 3449 4383 3227 4906 10668 29393 3256 1454 64772
internal_value=0 0.0845941 -0.0687176 0.0317189 -0.00238682 0.0413872 -0.256819 -0.0478478 -0.0729814
internal_weight=0 21211.5 26669.4 19578.4 17585.9 15005.6 2580.31 25788.5 23469.1
internal_count=131417 56055 75362 52606 47700 40061 7639 72135 66226
shrinkage=0.02


Tree=48
num_leaves=10
num_cat=0
split_feature=0 0 0 0 0 0 0 0 0
split_gain=266.86 684.789 330.228 400.753 209.837 201.704 195.427 507.962 331.65
threshold=266.50000000000006 267.50000000000006 243.50000000000003 232.50000000000003 25.500000000000004 27.500000000000004 457.50000000000006 446.50000000000006 505.50000000000006
decision_type=2 2 2 2 2 2 2 2 2
left_child=2 -2 3 4 -1 -6 7 -3 -8
right_child=1 6 -4 -5 5 -7 8 -9 -10
leaf_value=0.004040341261881077 0.014119339789592195 0.00023251940993164122 -0.0087148170937731747 0.0061448620567755288 -0.015833084082791264 -0.002012872805179115 0.0074290874478660732 -0.018630013427055468 -0.004009951905006348
leaf_weight=2319.0650913119316 1625.7577063888311 14091.358493447304 2227.0918215215206 3017.7835220843554 429.43976482748985 18671.248718813062 3461.421522885561 592.17131623625755 1430.2573502957821
leaf_count=5909 3449 38122 7319 7396 1454 53284 8384 2026 4074
internal_value=0 0.0829476 -0.0673595 -0.0337258 -0.0818144 -0.116317 0.0310891 -0.0265714 0.204142
internal_weight=0 21201 26664.6 24437.5 21419.8 19100.7 19575.2 14683.5 4891.68
internal_count=131417 56055 75362 68043 60647 54738 52606 40148 12458
shrinkage=0.02


Tree=49
num_leaves=10
num_cat=0
split_feature=1 0 0 0 0 0 0 0 0
split_gain=262.784 221.599 242.337 856.544 770.498 179.033 170.015 158.039 147.552
threshold=1.5000000000000002 222.50000000000003 374.50000000000006 369.50000000000006 417.50000000000006 505.50000000000006 25.500000000000004 241.50000000000003 413.50000000000006
decision_type=2 2 2 2 2 2 2 2 2
left_child=1 6 3 7 8 -6 -1 -3 -4
right_child=-2 2 4 -5 5 -7 -8 -9 -10
leaf_value=0.0034613833869096885 0.0030845867134240059 0.0052473702322090336 -0.0094443988027671771 0.027140749403956565 0.0028960885413629278 -0.00562451271974159 -0.0031416779247655847 -2.2076268118204329e-05 -0.023359057704953314
leaf_weight=1736.7833332121372 8900.2443729639053 3046.3012803196907 2074.7329118251801 533.63346867263317 6000.3012624979019 1177.1209941059351 15046.023772254586 8975.7872457951307 358.0516437292099
leaf_count=4476 23079 7550 6323 952 15624 3429 43899 24818 1267
internal_value=0 -0.0361963 0.0294262 0.120901 -0.0900546 0.074804 -0.122875 0.0656818 -0.576052
internal_weight=0 38948.7 22165.9 12555.7 9610.21 7177.42 16782.8 12022.1 2432.78
internal_count=131417 108338 59963 33320 26643 19053 48375 32368 7590
shrinkage=0.02


Tree=50
num_leaves=10
num_cat=0
split_feature=0 0 0 21 20 0 0 0 0
split_gain=265.202 664.698 379.415 204.808 198.758 177.486 909.166 753.294 166.273
threshold=201.50000000000003 200.50000000000003 205.50000000000003 32.500000000000007 164.50000000000003 374.50000000000006 369.50000000000006 417.50000000000006 25.500000000000004
decision_type=2 2 2 2 2 2 2 2 2
left_child=1 3 -2 -1 5 6 -4 -7 -5
right_child=2 -3 4 8 -6 7 -8 -9 -10
leaf_value=0.0017467351002127852 0.019400473503804298 -0.027123307619200499 0.00061360502414423872 0.0032887771230215748 0.00508041199416992 -0.01101559766667267 0.0261700619650901 0.0013761991222593591 -0.003739598531190636
leaf_weight=5776.3399688005447 445.32664348185062 406.41173738241196 14501.317619532347 1541.9762887060642 3868.7611765861511 2639.5671200305223 576.07638031244278 7617.9231771528721 10459.5986610502
leaf_count=15481 959 1494 39489 3971 9757 8199 1039 20229 30799
internal_value=0 -0.0963541 0.0570261 -0.0673134 0.0429953 0.0107326 0.0797737 -0.0907147 -0.141774
internal_weight=0 18184.3 29649 17777.9 29203.6 25334.9 15077.4 10257.5 12001.6
internal_count=131417 51745 79672 50251 78713 68956 40528 28428 34770
shrinkage=0.02


Tree=51
num_leaves=10
num_cat=0
split_feature=0 0 0 21 20 18 0 0 0
split_gain=254.775 640.876 364.215 197.748 190.962 172.577 159.596 156.758 162.592
threshold=201.50000000000003 197.50000000000003 205.50000000000003 32.500000000000007 164.50000000000003 1.5000000000000002 241.50000000000003 25.500000000000004 27.500000000000004
decision_type=2 2 2 2 2 2 2 2 2
left_child=1 3 -2 -1 5 -4 -7 -5 -9
right_child=2 -3 4 7 -6 6 -8 8 -10
leaf_value=0.0017945462333106691 0.019002404968903493 -0.024095662680543493 0.0015389144427910637 0.0032235133760689818 0.0049805137141841326 0.0024903905189100268 -0.0033196722761402089 -0.01779566601263281 -0.0031610965215577705
leaf_weight=5743.1067690551281 445.62206789851189 502.42660640180111 15375.833800926805 1541.7940345257521 3867.5057999640703 2533.6268883496523 7423.1759044229984 310.5033965408802 10083.030734539032
leaf_count=15376 959 1806 40923 3971 9757 6648 21385 1083 29509
internal_value=0 -0.0944497 0.0558968 -0.0626776 0.0421436 0.0105216 -0.0920163 -0.136042 -0.180194
internal_weight=0 18180.9 29645.8 17678.4 29200.1 25332.6 9956.8 11935.3 10393.5
internal_count=131417 51745 79672 49939 78713 68956 28033 34563 30592
shrinkage=0.02


Tree=52
num_leaves=10
num_cat=0
split_feature=14 18 21 21 21 21 8 9 8
split_gain=157.774 112.815 188.155 89.7438 92.8747 57.9684 52.357 88.531 51.6665
threshold=10.500000000000002 1.5000000000000002 61.500000000000007 61.500000000000007 152.50000000000003 325.50000000000006 4.5000000000000009 6.5000000000000009 72.500000000000014
decision_type=2 2 2 2 2 2 2 2 2
left_child=1 5 8 -2 -5 -1 7 -4 -3
right_child=3 2 6 4 -6 -7 -8 -9 -10
leaf_value=0.00019098598290017625 0.0048430049803968259 0.0011324367303292273 -0.0025722425576667311 -0.0027465312624246471 0.0075949140415886018 0.0058710807063068887 -0.0048605477531517968 0.010387690544234383 -0.0067403941007030564
leaf_weight=25494.939025253057 3839.7860459387302 6437.2877894043922 3117.7188351750374 1528.9082793295383 446.17359727621078 736.68299823999405 5647.4894398003817 223.03479593992233 348.50939194858074
leaf_count=69690 9734 17284 8946 4411 1104 1873 16769 524 1082
internal_value=0 -0.0226088 -0.0894332 0.153103 -0.0199688 0.0175693 -0.184311 -0.0848338 0.0362208
internal_weight=0 42005.7 15774 5814.87 1975.08 26231.6 8988.24 3340.75 6785.8
internal_count=131417 116168 44605 15249 5515 71563 26239 9470 18366
shrinkage=0.02


Tree=53
num_leaves=10
num_cat=0
split_feature=1 18 20 14 21 16 4 19 21
split_gain=224.486 336.004 92.6344 118.415 79.4007 78.9875 42.9201 41.0879 37.7299
threshold=1.5000000000000002 1.5000000000000002 51.500000000000007 5.5000000000000009 325.50000000000006 4.5000000000000009 325.50000000000006 1.0000000180025095e-35 1.5000000000000002
decision_type=2 2 2 2 2 2 2 2 2
left_child=1 4 3 -3 6 8 -1 -4 -2
right_child=5 2 7 -5 -6 -7 -8 -9 -10
leaf_value=0.00012443684200056678 -0.024370206977940727 -0.0035982224203008361 -0.0043740739775216886 0.0090451504438556676 0.0064305017684912905 0.0052093831340139386 0.003877335260650041 0.010273458826003952 0.0014442271130942238
leaf_weight=25710.274443268776 19.727069973945618 720.76229879260063 9810.9783878177404 498.49365358054638 870.34999215602875 3457.1572698056698 1276.9211027473211 74.221228450536728 5378.3995532542467
leaf_count=70343 72 2164 29013 1220 2190 8659 3302 179 14275
internal_value=0 -0.0338759 -0.180941 0.0787817 0.024749 0.142485 0.0151321 -0.21302 0.0667648
internal_weight=0 38962 11104.5 1219.26 27857.5 8855.28 26987.2 9885.2 5398.13
internal_count=131417 108411 32576 3384 75835 23006 73645 29192 14347
shrinkage=0.02


Tree=54
num_leaves=10
num_cat=0
split_feature=0 0 0 0 0 20 0 0 0
split_gain=245.815 617.885 348.774 187.662 215.744 173.997 170.112 874.166 721.551
threshold=201.50000000000003 200.50000000000003 205.50000000000003 25.500000000000004 27.500000000000004 164.50000000000003 374.50000000000006 369.50000000000006 417.50000000000006
decision_type=2 2 2 2 2 2 2 2 2
left_child=1 3 -2 -1 -5 6 7 -4 -8
right_child=2 -3 5 4 -6 -7 8 -9 -10
leaf_value=0.0040418970975670135 0.018597270922013791 -0.026191577447006505 0.00061632131827113175 -0.01605921039014932 -0.0016869001265715849 0.0047811667899235596 -0.010768500833438936 0.025700722923684371 0.0013620232557912889
leaf_weight=2291.4103145450354 445.78282810747623 404.96293379366398 14498.841509416699 426.89763778448105 15050.723399147391 3864.573108240962 2638.1460293233395 574.89639587700367 7616.8998985141516
leaf_count=5822 959 1494 39489 1460 42969 9757 8199 1039 20229
internal_value=0 -0.0927419 0.0549608 -0.0647764 -0.104337 0.0414965 0.0113167 0.0789168 -0.0880124
internal_weight=0 18174 29639.1 17769 15477.6 29193.4 25328.8 15073.7 10255
internal_count=131417 51745 79672 50251 44429 78713 68956 40528 28428
shrinkage=0.02


Tree=55
num_leaves=10
num_cat=0
split_feature=20 0 0 0 0 0 0 0 0
split_gain=209.254 184.802 499.453 321.793 198.549 959.064 482.18 195.861 189.849
threshold=241.50000000000003 487.50000000000006 496.50000000000006 495.50000000000006 374.50000000000006 369.50000000000006 417.50000000000006 413.50000000000006 264.50000000000006
decision_type=2 2 2 2 2 2 2 2 2
left_child=1 4 3 -3 5 8 7 -6 -1
right_child=-2 2 -4 -5 6 -7 -8 -9 -10
leaf_value=-0.0014139266245682422 0.0043758386062630631 0.0043745624201093651 -0.00093656125028537818 0.028544389607843973 -0.0081933154819042349 0.025268309376686254 1.5461424349855808e-05 -0.023531609242970056 0.002120335056756031
leaf_weight=24348.97406424582 3998.9056231528521 425.00532682240009 2080.2344218492508 458.93723699450493 2337.7281658947468 583.75360272824764 5095.3361137360334 387.83638875186443 8098.5083856284618
leaf_count=69104 10217 1067 5679 799 7066 1057 13768 1385 21275
internal_value=0 -0.0200885 0.220866 0.849212 -0.0375941 -0.00365639 -0.180834 -0.520078 -0.0265759
internal_weight=0 43816.3 2964.18 883.943 40852.1 33031.2 7820.9 2725.56 32447.5
internal_count=131417 121200 7545 1866 113655 91436 22219 8451 90379
shrinkage=0.02


Tree=56
num_leaves=10
num_cat=0
split_feature=20 21 18 14 20 16 3 4 21
split_gain=201.009 151.163 268.175 105.175 62.4575 49.2341 46.8257 41.7614 32.0412
threshold=241.50000000000003 58.500000000000007 1.5000000000000002 6.5000000000000009 119.50000000000001 5.5000000000000009 30.500000000000004 1.5000000000000002 102.50000000000001
decision_type=2 2 2 2 2 2 2 2 2
left_child=1 3 -3 7 6 -2 -4 -1 -6
right_child=5 2 4 -5 8 -7 -8 -9 -10
leaf_value=0.0030255483283951755 0.0024489630218210126 0.00090688883534145465 -0.0035655513744516538 0.0034335152874703317 0.0037330830797772797 0.0069785102418049687 -0.006813244741796288 -0.0002438069810323026 -0.0023211488878591316
leaf_weight=1691.1971451044083 2378.4198985695839 7934.5484534949064 4120.0047744214535 4291.550704985857 418.0660298615694 1619.6597760021687 3155.7064613848925 20150.093643024564 2049.1064296811819
leaf_count=4446 6256 21557 12044 11109 1080 3961 9695 55372 5897
internal_value=0 -0.0196868 -0.0911028 0.0286155 -0.202235 0.214464 -0.248862 0.000472459 -0.0644767
internal_weight=0 43810.3 17677.4 26132.8 9742.88 3998.08 7275.71 21841.3 2467.17
internal_count=131417 121200 50273 70927 28716 10217 21739 59818 6977
shrinkage=0.02


Tree=57
num_leaves=10
num_cat=0
split_feature=20 0 0 0 0 0 0 0 0
split_gain=193.11 177.631 480.432 310.517 190.92 923.094 462.642 188.348 181.924
threshold=241.50000000000003 487.50000000000006 496.50000000000006 495.50000000000006 374.50000000000006 369.50000000000006 417.50000000000006 413.50000000000006 264.50000000000006
decision_type=2 2 2 2 2 2 2 2 2
left_child=1 4 3 -3 5 8 7 -6 -1
right_child=-2 2 -4 -5 6 -7 -8 -9 -10
leaf_value=-0.0013765602823292047 0.0042047235680504084 0.0042888161736418856 -0.00090943927705598672 0.028043857952515655 -0.008022386634756639 0.024830602142889648 1.8603240882577714e-05 -0.023075245556894792 0.0020834947849138392
leaf_weight=24345.673268601298 3997.0886758267879 424.86414121091366 2080.1605173498392 458.11243057250977 2336.9619528055191 582.25021490454674 5095.1145529448986 387.1637467443943 8096.7428522706032
leaf_count=69104 10217 1067 5679 799 7066 1057 13768 1385 21275
internal_value=0 -0.0192947 0.216981 0.833679 -0.036458 -0.00317541 -0.176934 -0.50935 -0.0256364
internal_weight=0 43807 2963.14 882.977 40843.9 33024.7 7819.24 2724.13 32442.4
internal_count=131417 121200 7545 1866 113655 91436 22219 8451 90379
shrinkage=0.02


Tree=58
num_leaves=10
num_cat=0
split_feature=1 18 20 14 16 5 5 6 21
split_gain=189.308 307.278 94.4915 111.665 67.3039 64.4263 53.9353 47.0537 40.3423
threshold=1.5000000000000002 1.5000000000000002 58.500000000000007 7.5000000000000009 4.5000000000000009 326.50000000000006 170.50000000000003 70.500000000000014 325.50000000000006
decision_type=2 2 2 2 2 2 2 2 2
left_child=1 5 3 7 -2 8 -5 -3 -1
right_child=4 2 -4 6 -6 -7 -8 -9 -10
leaf_value=0.00016537717398632079 0.0012459167612968835 -0.00076240660321724284 -0.0042006793613758526 0.017182619114383881 0.0048221742142160341 0.0047151123520646687 0.0038753670367819688 -0.011323904620066811 0.0048855534820907813
leaf_weight=25676.426314711571 5443.4326572567225 943.54260131716728 9400.3186759054661 178.99662983417511 3438.8534782975912 1388.2615428268909 381.40919888019562 203.04339888691902 742.48019379377365
leaf_count=70253 14474 2706 27839 387 8637 3546 993 681 1901
internal_value=0 -0.0301554 -0.170735 0.0454984 0.131617 0.0259992 0.410264 -0.133129 0.01494
internal_weight=0 38914.5 11107.3 1706.99 8882.29 27807.2 560.406 1146.59 26418.9
internal_count=131417 108306 32606 4767 23111 75700 1380 3387 72154
shrinkage=0.02


Tree=59
num_leaves=10
num_cat=0
split_feature=1 0 0 0 0 0 0 0 0
split_gain=181.841 144.459 436.876 212.449 139.034 785.68 584.135 138.019 170.845
threshold=1.5000000000000002 201.50000000000003 197.50000000000003 205.50000000000003 374.50000000000006 369.50000000000006 417.50000000000006 25.500000000000004 45.500000000000007
decision_type=2 2 2 2 2 2 2 2 2
left_child=1 2 7 -3 5 -5 -6 -1 -9
right_child=-2 3 -4 4 6 -7 -8 8 -10
leaf_value=0.003724256434288988 0.0025801376847693737 0.016323805959334189 -0.022039805885109391 0.00046974874410400029 -0.010151698441191908 0.025228626933453475 0.0011618987814160195 -0.0082429163220105201 -0.001371763822380715
leaf_weight=1738.0862431377172 8880.9362368434668 325.99583664536476 425.92580683529377 13667.262298464775 2444.7193849384785 529.69289034605026 7176.170712441206 1666.3678702712059 10937.196557179093
leaf_count=4456 23111 729 1529 37328 7622 950 19102 5183 31407
internal_value=0 -0.0295532 -0.107454 0.0180896 0.00705193 0.0699534 -0.0857296 -0.0776721 -0.114122
internal_weight=0 38911.4 14767.6 24143.8 23817.8 14197 9620.89 14341.7 12603.6
internal_count=131417 108306 42575 65731 65002 38278 26724 41046 36590
shrinkage=0.02


Tree=60
num_leaves=10
num_cat=0
split_feature=0 0 0 20 21 0 0 0 0
split_gain=200.385 576.61 333.114 187.321 151.802 146.719 773.955 639.638 119.948
threshold=201.50000000000003 197.50000000000003 205.50000000000003 166.50000000000003 32.500000000000007 374.50000000000006 369.50000000000006 417.50000000000006 25.500000000000004
decision_type=2 2 2 2 2 2 2 2 2
left_child=1 4 -2 5 -1 6 -4 -7 -6
right_child=2 -3 3 -5 8 7 -8 -9 -10
leaf_value=0.0016522218609536562 0.018001222491386869 -0.022794044533569008 0.00051469667416692111 0.0049107090189581711 0.0028462171331932796 -0.010220801092729086 0.024280686188700492 0.001239235020181506 -0.0030777866768077838
leaf_weight=5743.6643802374601 453.47440573573112 497.26414702832699 14503.223160922527 3815.7498817294836 1570.1542597860098 2613.7475635409355 566.6718480437994 7620.2496517300606 10418.841314464808
leaf_count=15399 975 1795 39553 9591 4057 8161 1030 20252 30604
internal_value=0 -0.0809002 0.0523868 0.0390844 -0.0510043 0.00791498 0.070671 -0.0844596 -0.115046
internal_weight=0 18229.9 29573.1 29119.6 17732.7 25303.9 15069.9 10234 11989
internal_count=131417 51855 79562 78587 50060 68996 40583 28413 34661
shrinkage=0.02


Tree=61
num_leaves=10
num_cat=0
split_feature=20 0 0 0 0 0 0 0 0
split_gain=192.991 161.881 417.172 263.389 214.24 400.708 169.328 829.469 473.831
threshold=164.50000000000003 457.50000000000006 446.50000000000006 505.50000000000006 495.50000000000006 496.50000000000006 374.50000000000006 369.50000000000006 417.50000000000006
decision_type=2 2 2 2 2 2 2 2 2
left_child=1 2 6 4 -3 -6 7 -1 -8
right_child=-2 3 -4 -5 5 -7 8 -9 -10
leaf_value=-0.00051906086448947654 0.0032696287082940307 0.002284606638901308 -0.018404065694019076 -0.0043255975238772086 0.027995457455511148 0.0037027218623083471 -0.010023701261726914 0.023876913833356658 0.0018872560220437973
leaf_weight=30645.672779381275 6373.2579475045204 1894.9136889874935 533.51682938635349 1302.6735370159149 445.51483166217804 693.09100961685181 2607.0792793035507 564.79901529848576 2733.6978316754103
leaf_count=85516 16514 4898 1831 3737 772 1755 8145 1030 7219
internal_value=0 -0.0234033 -0.0447899 0.159338 0.320792 0.663093 -0.0319293 -0.00375677 -0.196414
internal_weight=0 41421 37084.8 4336.19 3033.52 1138.61 36551.2 31210.5 5340.78
internal_count=131417 114903 103741 11162 7425 2527 101910 86546 15364
shrinkage=0.02


Tree=62
num_leaves=10
num_cat=0
split_feature=0 0 0 20 0 0 0 0 0
split_gain=192.358 555.245 320.116 174.362 142.847 228.249 142.357 137.186 718.29
threshold=201.50000000000003 197.50000000000003 205.50000000000003 166.50000000000003 25.500000000000004 27.500000000000004 4.5000000000000009 374.50000000000006 369.50000000000006
decision_type=2 2 2 2 2 2 2 2 2
left_child=1 4 -2 7 6 -6 -1 8 -4
right_child=2 -3 3 -5 5 -7 -8 -9 -10
leaf_value=-0.0052541145154580415 0.017645926789968791 -0.022390703850006646 0.00051461402758670369 0.004750397324455982 -0.016259136393927402 -0.0012893886451607393 0.0063757888265741271 -0.0016231427283795871 0.023485202199051213
leaf_weight=548.76480561494827 453.46136982738972 496.10323768854141 14503.218828186393 3813.2470811009407 415.93251530826092 14992.065091207623 1772.957022100687 10228.498612508178 562.80501799285412
leaf_count=1558 975 1795 39553 9591 1435 42704 4363 28413 1030
internal_value=0 -0.0792951 0.0513143 0.0382688 -0.0499863 -0.0848483 0.181056 0.00819441 0.0688802
internal_weight=0 18225.8 29561.2 29107.8 17729.7 15408 2321.72 25294.5 15066
internal_count=131417 51855 79562 78587 50060 44139 5921 68996 40583
shrinkage=0.02


Tree=63
num_leaves=10
num_cat=0
split_feature=0 0 0 20 21 0 0 0 0
split_gain=184.813 534.91 307.574 167.535 145.916 131.776 692.841 590.847 110.995
threshold=201.50000000000003 197.50000000000003 205.50000000000003 166.50000000000003 32.500000000000007 374.50000000000006 369.50000000000006 417.50000000000006 25.500000000000004
decision_type=2 2 2 2 2 2 2 2 2
left_child=1 4 -2 5 -1 6 -4 -7 -6
right_child=2 -3 3 -5 8 7 -8 -9 -10
leaf_value=0.0016400273569810908 0.017298120415102536 -0.022001188500886545 0.00050432983751552446 0.0046573237453319191 0.0027159440149218069 -0.0097961242022836445 0.023104872620250037 0.0012233603082943978 -0.002983579041768868
leaf_weight=5743.1473415493965 453.38831400871277 494.85428228974342 14503.053584426641 3811.7385510057211 1569.6464255899191 2610.705627784133 560.69850958883762 7617.8534007370472 10414.544703304768
leaf_count=15399 975 1795 39553 9591 4057 8161 1030 20252 30604
internal_value=0 -0.0777328 0.0503004 0.0375121 -0.0489966 0.00803485 0.0675196 -0.079534 -0.111804
internal_weight=0 18222.2 29557.4 29104 17727.3 25292.3 15063.8 10228.6 11984.2
internal_count=131417 51855 79562 78587 50060 68996 40583 28413 34661
shrinkage=0.02


Tree=64
num_leaves=10
num_cat=0
split_feature=0 0 0 2 18 1 0 0 0
split_gain=181.085 604.169 352.215 179.141 166.537 218.485 167.826 129.359 334.209
threshold=266.50000000000006 267.50000000000006 263.50000000000006 322.50000000000006 1.5000000000000002 1.5000000000000002 308.50000000000006 229.50000000000003 241.50000000000003
decision_type=2 2 2 2 2 2 2 2 2
left_child=2 -2 7 4 6 -6 -3 -1 -9
right_child=1 3 -4 -5 5 -7 -8 8 -10
leaf_value=-0.0012941832071163772 0.013141130823618594 -0.0046497652456492693 -0.013456059878968495 0.006090933223852092 -0.0061424422853945462 0.0013952455188932528 0.0022400250459606269 0.00628835460522953 -0.0053244341297647556
leaf_weight=21218.873297214508 1618.1312789916992 1652.8596872240305 884.82795903086662 2007.4565645903349 3501.3459459543228 2737.9637186229229 9676.629805341363 2993.6623498648405 1478.1363255828619
leaf_count=60137 3495 4866 3267 4957 10448 7202 25297 7278 4470
internal_value=0 0.0703799 -0.0535391 0.0217779 -0.0105614 -0.141734 0.0616689 -0.0321229 0.122373
internal_weight=0 21194.4 26575.5 19576.3 17568.8 6239.31 11329.5 25690.7 4471.8
internal_count=131417 56265 75152 52770 47813 17650 30163 71885 11748
shrinkage=0.02


Tree=65
num_leaves=10
num_cat=0
split_feature=1 18 0 0 0 0 0 0 0
split_gain=185.101 288.819 213.697 236.15 146.39 136.924 153.762 124.307 108.783
threshold=1.5000000000000002 1.5000000000000002 264.50000000000006 267.50000000000006 308.50000000000006 377.50000000000006 417.50000000000006 457.50000000000006 468.50000000000006
decision_type=2 2 2 2 2 2 2 2 2
left_child=1 2 -1 -4 -5 -3 -7 -2 -9
right_child=7 5 3 4 -6 6 -8 8 -10
leaf_value=-0.0011334882621812181 0.0018384320018440803 -0.0021735846373112377 0.011601921270144895 -0.0036923175311196171 0.0025132210675589324 -0.015709574621695543 -0.0042965193903294471 0.021765651558667682 0.005603011431594202
leaf_weight=14787.532211020589 7947.5430092811584 8817.5023568421602 1020.449143871665 1782.3150268346071 10238.317043676972 669.95106086134911 1603.0497902929783 222.32582099735737 658.95484133064747
leaf_count=41748 20903 25666 2277 5187 26640 2318 4640 423 1615
internal_value=0 -0.028776 0.0256001 0.118907 0.0795963 -0.165215 -0.383967 0.13158 0.487362
internal_weight=0 38919.1 27828.6 13041.1 12020.6 11090.5 2273 8828.82 881.281
internal_count=131417 108476 75852 34104 31827 32624 6958 22941 2038
shrinkage=0.02


Tree=66
num_leaves=10
num_cat=0
split_feature=0 0 0 0 0 0 0 0 0
split_gain=178.555 523.844 415.636 156.422 578.319 288.703 269.378 220.752 150.003
threshold=264.50000000000006 267.50000000000006 263.50000000000006 316.50000000000006 317.50000000000006 288.50000000000006 286.50000000000006 294.50000000000006 327.50000000000006
decision_type=2 2 2 2 2 2 2 2 2
left_child=2 -2 -1 5 -5 6 -3 -7 -6
right_child=1 3 -4 4 8 7 -8 -9 -10
leaf_value=-0.00065783614254466137 0.011950880234339878 -0.0021785917254936882 -0.015952648143093103 0.025456945102808902 0.0082269368067478758 -0.020564571945934793 0.016455158198991224 -0.0043711981232147029 0.000169803925571461
leaf_weight=25695.505170166492 1720.3267710208893 1465.6753218472004 727.98616345226765 382.70423272252083 982.57890918850899 518.04659935832024 390.4118989109993 962.00055947899818 14892.424632549286
leaf_count=71951 3842 4162 2807 666 2328 1814 844 2827 40176
internal_value=0 0.0689548 -0.0540605 0.0224453 0.0629384 -0.174675 0.0878929 -0.503669 0.0335168
internal_weight=0 21314.2 26423.5 19593.8 16257.7 3336.13 1856.09 1480.05 15875
internal_count=131417 56659 74758 52817 43170 9647 5006 4641 42504
shrinkage=0.02


Tree=67
num_leaves=10
num_cat=0
split_feature=1 18 0 0 0 0 0 0 0
split_gain=178.043 275.113 199.765 218.897 136.21 132.557 148.36 119.476 105.038
threshold=1.5000000000000002 1.5000000000000002 264.50000000000006 267.50000000000006 308.50000000000006 377.50000000000006 417.50000000000006 457.50000000000006 468.50000000000006
decision_type=2 2 2 2 2 2 2 2 2
left_child=1 2 -1 -4 -5 -3 -7 -2 -9
right_child=7 5 3 4 -6 6 -8 8 -10
leaf_value=-0.0010938932725857761 0.0018036971807037444 -0.0021161475169445445 0.011219298625419443 -0.0035513641566773408 0.0024364364123739472 -0.015434238011714594 -0.0042145348036946246 0.021389747037819533 0.0054909596184561562
leaf_weight=14785.68522849679 7944.2853595912457 8813.0756086707115 1012.6706621795893 1781.06292283535 10234.445249795914 668.48011258244514 1602.9005160629749 221.73175859451294 658.6111069470644
leaf_count=41748 20903 25666 2277 5187 26640 2318 4640 423 1615
internal_value=0 -0.0282447 0.0248391 0.115117 0.0773849 -0.161444 -0.37676 0.129063 0.478061
internal_weight=0 38898.3 27813.9 13028.2 12015.5 11084.5 2271.38 8824.63 880.343
internal_count=131417 108476 75852 34104 31827 32624 6958 22941 2038
shrinkage=0.02


Tree=68
num_leaves=10
num_cat=0
split_feature=0 0 0 0 0 0 0 0 0
split_gain=166.295 495.707 401.174 151.277 458.597 283.949 193.598 182.6 147.924
threshold=264.50000000000006 267.50000000000006 263.50000000000006 457.50000000000006 446.50000000000006 505.50000000000006 495.50000000000006 417.50000000000006 25.500000000000004
decision_type=2 2 2 2 2 2 2 2 2
left_child=2 -2 8 4 7 6 -5 -3 -1
right_child=1 3 -4 5 -6 -7 -8 -9 -10
leaf_value=0.0041758871385180899 0.011648191038617797 -0.0011662559540765991 -0.015690097523798682 0.0030390470850009035 -0.017646050025805844 -0.0039754048906963787 0.0129199807645213 0.0040953578668646391 -0.0011076865278806045
leaf_weight=2327.698879852891 1710.2176228910685 10574.95126734674 724.45962975919247 2219.5457126349211 601.34019960463047 1441.5935012251139 1235.473779514432 3511.871490329504 23365.448932692409
leaf_count=5892 3842 29275 2807 5660 2051 4114 2745 8972 66059
internal_value=0 0.0665846 -0.0521678 0.0214432 -0.0292903 0.173612 0.329111 0.00728206 -0.0314175
internal_weight=0 21295 26417.6 19584.8 14688.2 4896.61 3455.02 14086.8 25693.1
internal_count=131417 56659 74758 52817 40298 12519 8405 38247 71951
shrinkage=0.02


Tree=69
num_leaves=10
num_cat=0
split_feature=1 18 0 0 0 0 0 0 0
split_gain=170.736 261.328 186.659 202.879 129.134 134.067 128.932 123.7 133.702
threshold=1.5000000000000002 1.5000000000000002 264.50000000000006 267.50000000000006 375.50000000000006 417.50000000000006 308.50000000000006 365.50000000000006 357.50000000000006
decision_type=2 2 2 2 2 2 2 2 2
left_child=1 2 -1 -4 7 -6 -5 8 -3
right_child=-2 4 3 6 5 -7 -8 -9 -10
leaf_value=-0.0010561166706334728 0.0025280735271091034 -0.0020944541071617733 0.010847532464341714 -0.0034580296988581849 -0.014657000364015548 -0.004156765273442351 0.0023683183347706317 0.013906208822194828 -0.023169279418619428
leaf_weight=14783.239771217108 8820.1545520573854 8469.6828030943871 1004.9460898190737 1780.6254272758961 699.52548070251942 1602.2283103466034 10231.568213358521 187.26407703757286 119.25456911325455
leaf_count=41748 22941 24738 2277 5187 2416 4640 26640 415 415
internal_value=0 -0.0276806 0.0240665 0.111384 -0.15754 -0.368271 0.0751752 -0.10213 -0.119788
internal_weight=0 38878.3 27800.4 13017.1 11078 2301.75 12012.2 8776.2 8588.94
internal_count=131417 108476 75852 34104 32624 7056 31827 25568 25153
shrinkage=0.02


Tree=70
num_leaves=10
num_cat=0
split_feature=20 1 18 20 15 3 3 16 3
split_gain=169.443 100.307 216.601 97.022 80.3876 38.9011 36.2234 35.1383 31.3882
threshold=343.50000000000006 1.5000000000000002 1.5000000000000002 58.500000000000007 6.5000000000000009 35.500000000000007 278.50000000000006 20.500000000000004 322.50000000000006
decision_type=2 2 2 2 2 2 2 2 2
left_child=1 2 8 4 -4 -5 -3 -2 -1
right_child=7 6 3 5 -6 -7 -8 -9 -10
leaf_value=4.7859384606660712e-05 0.003956709754442983 0.0012027867751275407 -0.0019245581354034292 -0.0028545662861056802 0.0071932780090483107 -0.0054921274413951846 0.0051415063326956346 0.010438693206226028 0.0032455992649151749
leaf_weight=25654.569442749023 2071.3995085209608 6109.7584342956543 1097.754626750946 5548.6083968579769 593.01381042599678 3780.7989298254251 1102.2532915771008 400.43955580890179 1286.821207717061
leaf_count=70413 5299 16194 3249 16204 1485 11535 2756 928 3354
