tree
version=v3
num_class=1
num_tree_per_iteration=1
label_index=0
max_feature_idx=23
objective=binary sigmoid:1
feature_names=Column_0 Column_1 Column_2 Column_3 Column_4 Column_5 Column_6 Column_7 Column_8 Column_9 Column_10 Column_11 Column_12 Column_13 Column_14 Column_15 Column_16 Column_17 Column_18 Column_19 Column_20 Column_21 Column_22 Column_23
feature_infos=[1:532] [1:1599] [0:1928985] [0:1928985] [0:1928985] [0:1928985] [0:1928600] [0:1928600] [0:1928600] [0:1928600] [0:1073409] [0:1073409] [0:1073409] [0:1073409] [0:8902] [0:300] [0:300] [0:300] [0:1599] [0:264] [0:333127] [0:24903] [0:65536] [0:24903]
tree_sizes=1192 1194 1191 1202 1199 1194 1187 1189 1186 1184 1186 1205 1178 1184 1184 1190 1190 1203 1188 1189 1192 1183 1183 1189 1188 1196 1189 1193 1191 1197 1192 1188 1186 1193 1187 1192 1195 1190 1194 1188 1195 1193 1191 1203 1201 1191 1189 1199 1193 1192 1189 1184 1198 1197 1194 1191 1203 1190 1202 1191 1188 1192 1184 1199 1197 1188 1188 1190 1188 1187 1194 1186 1185 1190 1192 1196 1190 1189 1195 1178 1194 1191 1187 1196 1186 1195 1189 1195 1193 1196 1204 1196 1187 1199 1200 1194 1188 1191 1199 1192 1190 1194 1201 1193 1194 1188 1188 1206 1187 1192 1190 1197 1193 1189 1187 1192 1195 1197 1198 1187 1200 1209 1194 1199 1201 1193 1187 1194 1187 1194 1191 1201 1199 1188 1209 1191 1192 1196 1197 1195 1192 1195 1192 1190 1194 1179 1183 1207 1187 1184 1192 1197 1191 1198 1186 1190 1191 1209 1193 1190 1187 1192 1199 1199 1185 1194 1190 1202 1201 1188 1194 1194 1198 1191 1193 1207 1198 1192 1196 1192 1195 1203 1187 1204 1192 1195 1194 1190 1205 1196 1197 1183 1190 1189 1208 1190 1205 1202 1196 1189 1212 1191 1189 1187 1209 1194 1188 1196 1193 1197 1214 1201 1188 1195 1188 1197 1199 1200 1188 1191 1202 1207 1195 1205 1188 1200 1209 1201 1198 1209 1192 1197 1191 1192 1194 1188 1192 1193 1192 1173 1189 1189 1185 1185 1185 1184 1185 1204 1201 1193 1210 1182 1198 1187 1195 1184 1181 1219 1194 1199 1185 1206 1216 1185 1195 1194 1192 1192 1182 1197 1181 1191 1186 1191 1191 1187 1187 1196 1208 1205 1189 1201 1190 1194 1192 1194 1185 1191 1201 1198 1193 1189 1207 1192 1189 1184 1211 1186 1180 1182 1184 1184 1168 1189 1190 1196 1186 1209 1192 1181 1195 1194 1197 1194 1190 1196 1198 1191 1193 1182 1189 1197 1199 1199 1199 1193 1208 1190 1186 1196 1199 1196 1208 1197 1200 1194 1185 1182 1191 1191 1195 1199 1195 1195 1194 1192 1196 1192 1193 1192 1188 1192 1200 1186 1195 1195 1206 1196 1198 1191 1209 1193 1191 1189 1172 1187 1186 1189 1183 1188 1187 1209 1189 1192 1192 1194 1174 1191 1184 1195 1196 1198 1197 1194 1191 1189 1188 1188 1188 1186 1191 1198 1186 1173 1177 1188 1182 1187 1189 1202 1191 1175 1195 1181 1184 1203 1193 1202 1181 1192 1191 1188 1191 1202 1189 1195 1194 1186 1191 1196 1196 1197 1200 1195 1187 1178 1179 1182 1175 1183 1188 1186 1182 1183 1191 1190 1192 1194 1196 1192 1199 1198 1204 1187 1176 1195 1206 1193 1195 1187 1194 1189 1188 1187 1186 1189 1189 1184 1188 1182 1194 1186 1189 1193 1188 1187 1192 1189 1186 1187 1194 1196 1205 1198 1214 1197 1190 1185 1198 1198 1182 1191 1181 1200 1194 1175 1177 1197 1206 1199 1188 1192 1205 1196 1189 1193 1189 1190 1188 1195 1191 1191 1194 1190 1192 1195 1196 1193 1180 1194 1205 1206 1194 1187 1207 1195 1192 1194 1188 1195 1189 1190 1182 1192 1197 1191 1197 1189 1188 1204 1199 1200 1191 1197 1195 1192 1196 1189 1181 1193 1190 1192 1188 1191 1190 1201 1170 1182 1196 1191 1194 1179 1188 1181 1192 1172 1191 1171 1174 1194 1198 1197 1200 1198 1201 1195 1188 1192 1188 1210 1187 1184 1188 1197 1194 1194 1196 1192 1194 1202 1190 1197 1189 1203 1202 1189 1193 1188 1209 1190 1190 1187 1192 1193 1191 1192 1165 1187 1195 1171 1187 1189 1185 1186 1191 1186 1187 1192 1192 1190 1190 1201 1206 1188 1183 1193 1192 1197 1193 1195 1195 1178 1187 1192 1189 1197 1193 1191 1200 1184 1180 1196 1184 1178 1189 1184 1187 1188 1166 1186 1182 1160 1179 1167 1183 1187 1164 1194 1196 1164 1183 1188 1180 1184 1174 1185 1188 1187 1190 1180 1206 1187 1183 1188 1204 1191 1198 1189 1194 1199 1185 1199 1204 1210 1197 1188 1187 1198 1187 1191 1182 1207 1196 1204 1181 1197 1197 1182 1188 1196 1191 1190 1189 1198 1198 1189 1197 1193 1193 1199 1156 1194 1192 1179 1181 1191 1187 1188 1203 1189 1192 1183 1193 1184 1193 1192 1176 1194 1205 1194 1185 1190 1188 1195 1202 1185 1190 1165 1191 1188 1183 1184 1188 1175 1178 1177 1176 1176 1170 1175 1200 1192 1199 1195 1201 1199 1196 1195 1190 1190 1187 1189 1187 1187 1178 1190 1195 1193 1201 1174 1195 1191 1189 1195 1196 1184 1185 1188 1187 1191 1179 1181 1182 1172 1179 1180 1182 1179 1177 1176 1189 1183 1191 1202 1198 1189 1170 1165 1191 1167 1195 1193 1194 1194 1193 1188 1186 1187 1182 1180 1194 1191 1193 1197 1194 1194 1192 1186 1175 1191 1181 1193 1203 1179 1207 1187 1199 1186 1187 1177 1169 1166 1186 1187 1154 1194 1187 1191 1187 1186 1197 1196 1195 1185 1188 1157 1158 1197 1205 1171 1191 1178 1198 1206 1185 1194 1199 1188 1182 1193 1183 1182 1189 1172 1168 1176 1175 1192 1176 1173 1198 1197 1195 1194 1192 1175 1180 1182 1179 1175 1193 1188 1183 1188 1181 1186 1183 1186 1181 1194 1186 1188 1190 1179 1171 1191 1185 1185 1162 1184 1179 1163 1189 1190 1169 1181 1190 1187 1170 1182 1195 1173 1192 1176 1172 1161 1185 1180 1208 1189 1153 1183 1185 1191 1186 1169 1171 1170 1165 1193 1181 1187 1182 1182 1185 1196 1192 1199 1190 1186 1185 1204 1193 1176 1180 1178 1179 1183 1195 1191 1183 1183 1187 1186 1162 1195 1195 1184 1184 1159 1184 1178 1174 1182 1189 1183 1197 1192 1197 1193 1200 1186 1184 1182 1192 1190 1195 1194 1195 1194 1176 1176 1177 1167 1166 1187 1190 1189 1184 1202 1195 1197 1192 1198 1197 1186 1202 1185 1185 1183 1181 1187 1203 1194 1194 1166 1195 1185 1183 1179 1197 1187 1182 1187 1181 1162 1185 1183 1183 1185 1176 1158 1186 1184 1185 1186 1194 1198 1183 1185 1190 1190 1173 1193 1171 1173 1185 1198 1182 1176 1195 1186 1194 1186 1194 1178 1151 1186 1174 1180 1172 1181 1197 1171 1196 1171 1177 1181 1180 1154 1202 1200 1185 1193 1196 1182 1184 1182 1206 1198 1196 1199 1195 1196 1206 1186 1192 1185 1190 1158 1194 1206 1192 1194 1200 1199 1192 1201 1190 1187 1173 1166 1177 1181 1186 1200 1197 1184 1178 1188 1188 1190 1191 1183 1192 1188 1193 1192 1184 1184 1186 1178 1184 1188 1185 1175 1183 1180 1178 1182 1184 1198 1182 1190 1198 1185 1176 1193 1188 1180 1188 1187 1178 1188 1191 1172 1182 1186 1182 1181 1197 1191 1193 1172 1186 1191 1191 1194 1191 1167 1185 1171 1180 1183 1174 1196 1184 1204 1191 1191 1210 1195 1197 1208 1219 1186 1180 1178 1173 1158 1204 1192 1193 1194 1199 1173 1183 1181 1182 1172 1135 1181 1181 1184 1191 1193 1187 1186 1183 1192 1189 1193 1188 1190 1187 1164 1169 1182 1193 1179 1184 1189 1194 1188 1193 1189 1181 1183 1179 1185 1213 1187 1183 1169 1177 1183 1199 1183 1188 1183 1188 1162 1178 1183 1175 1190 1185 1183 1196 1204 1196 1206 1197 1191 1194 1195 1186 1189 1196 1192 1166 1182 1169 1186 1163 1159 1176 1191 1175 1163 1175 1184 1179 1181 1182 1183 1192 1185 1185 1189 1181 1192 1192 1187 1188 1172 1181 1174 1182 1177 1192 1185 1183 1189 1193 1120 1186 1193 1151 1195 1185 1188 1192 1192 1192 1171 1152 1182 1167 1171 1198 1195 1194 1192 1193 1188 1189 1196 1194 1186 1173 1178 1191 1189 1181 1171 1173 1176 1184 1187 1189 1186 1187 1191 1191 1175 1186 1199 1186 1194 1176 1189 1186 1204 1177 1187 1172 1179 1188 1190 1185 1173 1181 1183 1175 1195 1191 1171 1189 1168 1203 1191 1190 1192 1199 1187 1187 1187 1182 1186 1181 1184 1200 1182 1180 1202 1167 1170 1196 1201 1171 1203 1177 1177 1175 1170 1190 1178 1175 1198 1164 1167 1198 1186 1195 1187 1196 1144 1203 1184 1181 1180 1193 1189 1182 1177 1184 1186 1181 1196 1201 1198 1192 1202 1199 1185 1196 1179 1187 1182 1194 1206 1183 1197 1187 1184 1181 1183 1190 1181 1182 1180 1168 1184 1177 1194 1197 1187 1183 1183 1181 1200 1191 1191 1196 1177 1186 1176 1182 1178 1195 1195 1185 1176 1197 1189 1147 1166 1184 1165 1190 1185 1192 1194 1188 1179 1172 1181 1177 1165 1176 1166 1188 1188 1188 1180 1183 1188 1185 1182 1155 1162 1163 1164 1168 1190 1191 1190 1179 1181 1185 1149 1177 1185 1167 1186 1178 1192 1183 1194 1178 1191 1166 1182 1184 1180 1191 1181 1184 1181 1190 1209 1188 1189 1187 1186 1191 1194 1190 1180 1181 1177 1182 1170 1165 1176 1181 1190 1195 1194 1187 1188 1185 1189 1177 1194 1186 1182 1189 1183 1173 1202 1174 1176 1195 1187 1196 1191 1179 1193 1172 1174 1176 1194 1173 1197 1195 1189 1146 1181 1183 1190 1200 1193 1168 1177 1177 1184 1181 1185 1186 1191 1195 1191 1192 1186 1187 1178 1200 1190 1181 1193 1188 1182 1200 1178 1193 1174 1184 1191 1181 1181 1186 1179 1195 1176 1190 1163 1183 1183 1194 1193 1194 1183 1187 1179 1182 1190 1173 1183 1183 1168 1192 1194 1185 1206 1189 1202 1164 1193 1182 1179 1186 1185 1192 1155 1206 1151 1150 1177 1183 1158 1164 1198 1188 1193 1191 1167 1192 1169 1183 1183 1185 1164 1180 1174 1193 1184 1189 1197 1192 1187 1199 1190 1185 1198 1181 1200 1185 1193 1199 1196 1186 1185 1186 1180 1173 1181 1170 1167 1194 1182 1187 1190 1185 1186 1183 1172 1183 1187 1177 1188 1170 1183 1186 1191 1176 1181 1176 1182 1172 1179 1171 1173 1167 1181 1190 1179 1181 1178 1169 1165 1176 1179 1179 1186 1196 1174 1175 1189 1158 1159 1158 1195 1176 1182 1184 1183 1189 1181 1204 1184 1191 1178 1199 1189 1185 1194 1189 1188 1191 1192 1194 1195 1186 1188 1191 1183 1194 1181 1181 1185 1153 1194 1175 1182 1172 1172 1185 1184 1180 1172 1175 1182 1158 1195 1202 1191 1193 1195 1170 1175 1188 1168 1172 1181 1185 1179 1184 1183 1176 1158 1178 1171 1179 1187 1191 1189 1184 1197 1174 1201 1179 1178 1172 1167 1189 1171 1163 1175 1184 1191 1192 1190 1187 1189 1198 1196 1202 1184 1195 1181 1181 1171 1178 1190 1197 1167 1195 1185 1189 1180 1181 1177 1177 1179 1190 1185 1179 1189 1195 1199 1200 1199 1195 1186 1184 1183 1183 1174 1164 1177 1186 1177 1174 1171 1158 1167 1166 1138 1192 1203 1191 1192 1191 1183 1169 1171 1176 1198 1162 1144 1170 1165 1169 1176 1190 1191 1183 1185 1188 1177 1187 1192 1181 1191 1181 1202 1170 1179 1186 1206 1179 1189 1195 1187 1169 1185 1182 1176 1177 1181 1200 1179 1166 1184 1165 1174 1177 1173 1171 1175 1168 1183 1163 1185 1179 1191 1179 1187 1192 1190 1185 1187 1175 1175 1183 1171 1179 1175 1180 1175 1180 1177 1183 1189 1190 1175 1186 1188 1176 1186 1185 1174 1177 1195 1183 1177 1186 1194 1194 1200 1179 1188 1181 1190 1181 1192 1176 1197 1191 1194 1183 1191 1184 1183 1175 1190 1189 1190 1168 1185 1187 1189 1163 1174 1176 1173 1178 1175 1198 1185 1188 1188 1195 1187 1185 1191 1185 1184 1192 1173 1174 1195 1176 1193 1191 1189 1178 1193 1191 1169 1159 1182 1167 1194 1200 1194 1201 1197 1166 1182 1160 1174 1164 1184 1182 1189 1181 1186 1182 1189 1186 1196 1191 1179 1178 1188 1175 1181 1184 1181 1177 1179 1177 1183 1182 1186 1183 1187 1194 1182 1199 1184 1167 1191 1193 1205 1207 1200 1194 1202 1187 1196 1203 1168 1183 1166 1168 1185 1163 1160 1183 1174 1189 1172 1176 1173 1174 1183 1185 1179 1183 1181 1183 1181 1177 1173 1174 1167 1170 1175 1173 1175 1175 1191 1186 1188 1187 1189 1196 1157 1166 1139 1204 1185 1179 1180 1182 1180 1185 1182 1175 1188 1189 1186 1183 1197 1202 1176 1189 1193 1180 1196 1192 1183 1191 1184 1178 1192 1181 1180 1180 1189 1187 1164 1192 1166 1156 1192 1177 1192 1183 1189 1172 1193 1203 1178 1207 1172 1163 1189 1158 1148 1189 1185 1176 1188 1183 1192 1162 1201 1191 1194 1195 1171 1172 1181 1154 1157 1182 1187 1200 1184 1183 1176 1172 1179 1196 1177 1177 1194 1185 1183 1210 1186 1200 1198 1184 1196 1187 1189 1188 1189 1191 1160 1183 1185 1179 1174 1175 1178 1172 1171 1183 1190 1194 1190 1178 1190 1186 1183 1194 1161 1186 1154 1162 1192 1182 1177 1193 1197 1173 1188 1191 1174 1178 1168 1167 1171 1187 1179 1200 1189 1179 1193 1183 1185 1183 1181 1185 1192 1179 1168 1176 1183 1185 1186 1192 1180 1152 1151 1149 1136 1192 1180 1178 1177 1179 1179 1196 1190 1193 1193 1187 1177 1178 1198 1197 1178 1199 1193 1198 1201 1186 1177 1184 1186 1180 1184 1180 1176 1185 1185 1179 1187 1196 1190 1189 1180 1180 1189 1187 1175 1180 1194 1178 1186 1185 1202 1174 1184 1182 1178 1180 1177 1149 1176 1182 1186 1184 1191 1192 1189 1190 1176 1178 1177 1185 1175 1161 1196 1193 1203 1185 1180 1173 1171 1168 1178 1188 1187 1186 1192 1166 1179 1139 1162 1176 1164 1173 1183 1140 1189 1173 1177 1182 1184 1196 1197 1178 1179 1175 1158 1168 1185 1180 1188 1178 1166 1176 1174 1186 1184 1188 1200 1196 1206 1204 1206 1193 1176 1196 1175 1192 1189 1179 1182 1164 1187 1181 1173 1171 1174 1177 1184 1197 1187 1178 1197 1180 1184 1168 1190 1182 1188 1183 1187 1187 1189 1179 1181 1189 1185 1189 1188 1190 1167 1185 1180 1185 1201 1195 1186 1186 1187 1184 1193 1178 1187 1185 1189 1182 1185 1188 1187 1189 1195 1194 1187 1187 1188 1197 1201 1185 1176 1188 1195 1200 1204 1186 1189 1191 1191 1180 1180 1178 1184 1183 1187 1165 1180 1158 1189 1163 1198 1199 1195 1184 1171 1178 1179 1169 1170 1189 1172 1177 1174 1204 1174 1195 1173 1203 1169 1191 1146 1158 1169 1168 1159 1185 1185 1177 1170 1182 1186 1183 1182 1183 1186 1170 1166 1183 1195 1189 1169 1185 1182 1187 1185 1183 1192 1194 1179 1175 1199 1179 1180 1185 1194 1184 1186 1184 1188 1184 1193 1161 1191 1186 1191 1191 1198 1186 1198 1191 1179 1180 1163 1170 1179 1193 1193 1192 1185 1193 1191 1167 1182 1188 1182 1178 1184 1185 1189 1186 1187 1191 1207 1180 1186 1185 1198 1199 1184 1192 1196 1192 1184 1187 1173 1189 1208 1169 1171 1177 1194 1187 1193 1190 1204 1169 1179 1176 1175 1168 1188 1186 1178 1188 1186 1188 1167 1188 1189 1187 1182 1177 1166 1188 1177 1175 1190 1194 1191 1196 1187 1198 1166 1169 1185 1167 1168 1148 1184 1185 1194 1174 1179 1165 1172 1191 1194 1195 1182 1192 1186 1192 1196 1183 1190 1187 1185 1183 1187 1189 1178 1193 1186 1193 1184 1194 1192 1189 1182 1199 1190 1185 1193 1184 1173 1191 1189 1189 1185 1189 1204 1197 1195 1196 1182 1164 1175 1184 1180 1172 1165 1158 1163 1178 1191 1178 1173 1183 1180 1192 1177 1173 1180 1178 1178 1183 1186 1183 1187 1184 1172 1173 1143 1173 1167 1174 1140 1161 1162 1157 1193 1199 1200 1204 1197 1188 1191 1189 1188 1185 1177 1181 1193 1152 1185 1165 1190 1195 1195 1169 1178 1192 1180 1189 1196 1170 1204 1202 1173 1145 1175 1180 1173 1175 1173 1195 1183 1192 1184 1194 1180 1179 1169 1173 1183 1179 1183 1182 1165 1176 1201 1194 1194 1192 1183 1159 1134 1179 1185 1175 1198 1201 1197 1205 1198 1203 1200 1172 1182 1186 1182 1183 1187 1197 1183 1189 1186 1198 1184 1176 1200 1188 1202 1203 1201 1180 1183 1182 1188 1179 1177 1186 1185 1178 1152 1174 1170 1181 1177 1174 1191 1178 1186 1187 1185 1180 1184 1177 1187 1180 1188 1192 1187 1187 1190 1183 1162 1184 1179 1189 1192 1180 1186 1181 1182 1193 1194 1209 1208 1207 1185 1190 1182 1184 1184 1185 1176 1185 1186 1183 1190 1191 1193 1183 1171 1160 1185 1163 1159 1146 1172 1173 1188 1162 1151 1183 1184 1175 1177 1182 1193 1191 1185 1201 1186 1165 1166 1181 1150 1166 1173 1171 1166 1166 1188 1191 1197 1184 1170 1186 1189 1184 1182 1184 1184 1172 1180 1179 1181 1181 1185 1198 1181 1192 1197 1195 1191 1196 1204 1186 1157 1169 1183 1174 1167 1184 1184 1193 1186 1189 1179 1186 1177 1187 1182 1165 1197 1193 1196 1202 1170 1172 1190 1184 1188 1179 1195 1174 1168 1189 1189 1185 1188 1182 1179 1175 1174 1200 1169 1176 1192 1191 1196 1194 1182 1186 1185 1201 1189 1180 1199 1177 1173 1189 1172 1184 1176 1173 1165 1176 1168 1177 1171 1186 1189 1178 1171 1165 1151 1168 1183 1168 1188 1172 1182 1180 1183 1194 1182 1175 1176 1183 1176 1176 1191 1176 1182 1184 1192 1172 1188 1174 1185 1185 1182 1182 1183 1178 1183 1182 1187 1186 1193 1187 1183 1174 1174 1182 1182 1166 1168 1167 1176 1168 1172 1201 1190 1191 1187 1174 1184 1185 1185 1187 1183 1189 1191 1172 1164 1185 1183 1178 1177 1197 1178 1163 1169 1178 1184 1169 1177 1178 1169 1183 1152 1174 1151 1185 1156 1183 1187 1194 1177 1177 1179 1183 1183 1174 1179 1189 1180 1185 1175 1187 1175 1188 1181 1184 1203 1203 1179 1170 1179 1178 1171

Tree=0
num_leaves=10
num_cat=0
split_feature=0 0 0 0 0 0 0 21 0
split_gain=1072.81 2291.11 932.937 523.762 1033.86 466.393 749.726 574.082 399.748
threshold=266.50000000000006 267.50000000000006 263.50000000000006 316.50000000000006 317.50000000000006 222.50000000000003 241.50000000000003 60.500000000000007 374.50000000000006
decision_type=2 2 2 2 2 2 2 2 2
left_child=2 -2 5 -3 -5 7 -7 -1 -6
right_child=1 3 -4 4 8 6 -8 -9 -10
leaf_value=-0.00061938015073437235 0.02479565727464015 -0.0058496446166886465 -0.02222428215169887 0.033109488401782308 0.0074188276233970712 0.0084364593677402084 -0.0084976662996940708 -0.0074540084269621373 0.00015553014402895217
leaf_weight=12705.564189910889 1820.5579466223717 3340.4065036177635 936.72960358858109 436.15461963415146 4061.4946249723434 3588.0419974923134 1472.4111993312836 8018.1137608289719 11927.037009358406
leaf_count=34829 3509 9716 3217 722 10089 8796 4408 23732 32399
internal_value=0 0.167264 -0.132465 0.0682861 0.141716 -0.0967707 0.175297 -0.163236 0.100101
internal_weight=0 21585.7 26720.9 19765.1 16424.7 25784.1 5060.45 20723.7 15988.5
internal_count=131417 56435 74982 52926 43210 71765 13204 58561 42488
shrinkage=0.02


Tree=1
num_leaves=10
num_cat=0
split_feature=0 0 0 0 0 0 0 21 0
split_gain=1030.44 2200.92 896.252 503.059 993.522 449.882 805.885 538.041 383.936
threshold=266.50000000000006 267.50000000000006 263.50000000000006 316.50000000000006 317.50000000000006 229.50000000000003 241.50000000000003 60.500000000000007 374.50000000000006
decision_type=2 2 2 2 2 2 2 2 2
left_child=2 -2 5 -3 -5 7 -7 -1 -6
right_child=1 3 -4 4 8 6 -8 -9 -10
leaf_value=-0.00057966050889883233 0.024304314598661191 -0.0057328054428235995 -0.021783913721352976 0.032460715480921783 0.0072706614845957605 0.0096607134416861768 -0.0083282093904232888 -0.0071091339997393669 0.00015242155151477484
leaf_weight=12992.296726703644 1820.2781664133072 3340.3779311180115 936.61397895216942 436.0351145118475 4061.4387243837118 3063.6756314635277 1472.3846073746681 8255.5711625963449 11927.037009358406
leaf_count=35602 3509 9716 3217 722 10089 7374 4408 24381 32399
internal_value=0 0.163931 -0.129821 0.0669268 0.138892 -0.0948372 0.190931 -0.155876 0.0981009
internal_weight=0 21585.2 26720.5 19764.9 16424.5 25783.9 4536.06 21247.9 15988.5
internal_count=131417 56435 74982 52926 43210 71765 11782 59983 42488
shrinkage=0.02


Tree=2
num_leaves=10
num_cat=0
split_feature=0 0 0 0 0 0 0 21 0
split_gain=989.772 2115.03 861.261 483.183 955.349 432.082 774.069 516.771 368.762
threshold=266.50000000000006 267.50000000000006 263.50000000000006 316.50000000000006 317.50000000000006 229.50000000000003 241.50000000000003 60.500000000000007 374.50000000000006
decision_type=2 2 2 2 2 2 2 2 2
left_child=2 -2 5 -3 -5 7 -7 -1 -6
right_child=1 3 -4 4 8 6 -8 -9 -10
leaf_value=-0.00056807092418218613 0.023829802377175812 -0.0056183936380026943 -0.021357374130520902 0.031841477398499414 0.0071256446568088725 0.0094682982160641527 -0.008162416944872913 -0.0069672662002210253 0.00014937252349100564
leaf_weight=12992.294262111187 1819.461167216301 3340.2944329231977 936.27618858218193 435.68616420030594 4061.2755873352289 3063.4793322086334 1472.3070092797279 8255.2614006251097 11927.037009358406
leaf_count=35602 3509 9716 3217 722 10089 7374 4408 24381 32399
internal_value=0 0.160673 -0.127233 0.0655959 0.136127 -0.0929436 0.187123 -0.152762 0.0961416
internal_weight=0 21583.8 26719.6 19764.3 16424 25783.3 4535.79 21247.6 15988.3
internal_count=131417 56435 74982 52926 43210 71765 11782 59983 42488
shrinkage=0.02


Tree=3
num_leaves=10
num_cat=0
split_feature=20 23 18 14 4 14 2 20 14
split_gain=525.879 294.169 445.239 182.984 151.926 142.783 74.8877 60.9388 43.3861
threshold=165.50000000000003 63.500000000000007 1.5000000000000002 7.5000000000000009 30.500000000000004 11.500000000000002 30.500000000000004 65.500000000000014 2.5000000000000004
decision_type=2 2 2 2 2 2 2 2 2
left_child=1 3 -3 7 6 8 -4 -1 -2
right_child=5 2 4 -5 -6 -7 -8 -9 -10
leaf_value=-0.00049131682562826833 0.00075023476589609244 0.0014220541830775224 -0.0040987324649214407 0.0048208744202144606 -0.0086498807445233236 0.0098330067455926502 0.0057091208181351584 0.0029426584066119593 0.004866412848454944
leaf_weight=20953.246972948313 1619.7393842488527 5700.0754708647728 5297.9876725077629 3387.7404127717018 3939.7317493408918 1976.2767128646374 327.77870248258114 2290.1140981018543 2806.8821318149567
leaf_count=57331 4373 15267 15123 8690 11832 4755 831 6014 7201
internal_value=0 -0.0394071 -0.15007 0.0240256 -0.281878 0.268235 -0.176174 -0.00761905 0.168158
internal_weight=0 41896.7 15265.6 26631.1 9565.5 6402.9 5625.77 23243.4 4426.62
internal_count=131417 115088 43053 72035 27786 16329 15954 63345 11574
shrinkage=0.02


Tree=4
num_leaves=10
num_cat=0
split_feature=18 18 21 22 14 4 4 4 16
split_gain=438.785 272.58 427.718 170.037 132.349 112.236 99.9236 73.2153 63.6202
threshold=2.5000000000000004 1.5000000000000002 58.500000000000007 136.50000000000003 7.5000000000000009 30.500000000000004 232.50000000000003 90.500000000000014 4.5000000000000009
decision_type=2 2 2 2 2 2 2 2 2
left_child=1 6 4 5 7 -4 -1 -3 -2
right_child=8 2 3 -5 -6 -7 -8 -9 -10
leaf_value=0.00026923017092859622 0.0035676512157643459 0.00083045525508984217 -0.0041407132852416019 0.0015435122132417497 0.0075226084807024432 -0.0086653757345483834 0.0050057384760805092 -0.010182443516159443 0.0082963092593210785
leaf_weight=26099.711952015758 2309.529061421752 3825.3979163020849 5193.6901980340481 1350.208487957716 1270.0737298578024 3817.6589329391718 1909.5326997041702 254.70782808959484 2268.6829413026571
leaf_count=70787 6014 10306 14846 3610 3144 11488 4884 780 5558
internal_value=0 -0.0294866 -0.134901 -0.253444 0.0946358 -0.303025 0.0296429 0.00672549 0.295805
internal_weight=0 43721 15711.7 10361.6 5350.18 9011.35 28009.2 4080.11 4578.21
internal_count=131417 119845 44174 29944 14230 26334 75671 11086 11572
shrinkage=0.02


Tree=5
num_leaves=10
num_cat=0
split_feature=1 18 20 15 16 21 2 2 6
split_gain=620.649 728.844 126.929 128.568 121.292 100.899 73.2867 56.7314 51.4133
threshold=1.5000000000000002 1.5000000000000002 35.500000000000007 8.5000000000000018 4.5000000000000009 307.50000000000006 326.50000000000006 26.500000000000004 96.500000000000014
decision_type=2 2 2 2 2 2 2 2 2
left_child=1 5 3 -3 -2 6 -1 -4 -5
right_child=4 2 7 8 -6 -7 -8 -9 -10
leaf_value=0.00029956632981997859 0.0029948438740440243 -0.0038747822535066816 -0.0043661546048435031 0.027421201377150008 0.0077604866847807274 0.0070185930368831867 0.0052280129444217558 -0.0072957760350919653 0.0078684194136317831
leaf_weight=25830.26621080935 5480.2676459997892 360.05854216217995 5593.2465344071388 83.130379870533943 3511.9504518955946 991.10500033199787 1263.3549754619598 5080.0235053151846 156.91463454067707
leaf_count=70026 14369 1026 16041 150 8652 2473 3217 15078 385
internal_value=0 -0.0482086 -0.262963 0.183493 0.242936 0.0380033 0.0265075 -0.288138 0.745968
internal_weight=0 39358.1 11273.4 600.104 8992.22 28084.7 27093.6 10673.3 240.045
internal_count=131417 108396 32680 1561 23021 75716 73243 31119 535
shrinkage=0.02


Tree=6
num_leaves=10
num_cat=0
split_feature=0 0 0 0 0 0 21 0 0
split_gain=860.662 1985.6 868.228 427.056 637.833 540.014 420.687 407.935 979.744
threshold=266.50000000000006 267.50000000000006 263.50000000000006 222.50000000000003 241.50000000000003 25.500000000000004 60.500000000000007 316.50000000000006 317.50000000000006
decision_type=2 2 2 2 2 2 2 2 2
left_child=2 -2 3 5 -5 -1 -7 -3 -9
right_child=1 7 -4 4 -6 6 -8 8 -10
leaf_value=0.0062700655701983113 0.023209206817941093 -0.0051144744320464966 -0.021213132795655735 0.0081893267037928923 -0.0073557165926628658 -0.0015752625276432067 -0.007755293523251011 0.031678731156669276 0.0017351389617895011
leaf_weight=2300.8056005239487 1795.8011539280415 3334.3779175877571 931.72808916866779 3579.5652957558632 1493.9349894374609 11246.556789800525 7246.2763770222664 446.43711313605309 15973.802397027612
leaf_count=5810 3472 9656 3214 8759 4442 31156 21649 734 42525
internal_value=0 0.154605 -0.113804 -0.0795676 0.180457 -0.143043 -0.199903 0.06299 0.127763
internal_weight=0 21550.4 26798.9 25867.1 5073.5 20793.6 18492.8 19754.6 16420.2
internal_count=131417 56387 75030 71816 13201 58615 52805 52915 43259
shrinkage=0.02


Tree=7
num_leaves=10
num_cat=0
split_feature=0 0 0 0 0 0 0 0 0
split_gain=826.749 1909.43 834.81 410.171 612.674 518.666 391.827 953.535 433.513
threshold=266.50000000000006 267.50000000000006 263.50000000000006 222.50000000000003 241.50000000000003 25.500000000000004 316.50000000000006 327.50000000000006 417.50000000000006
decision_type=2 2 2 2 2 2 2 2 2
left_child=2 -2 3 5 -5 -1 -3 -8 -9
right_child=1 6 -4 4 -6 -7 7 8 -10
leaf_value=0.0061447561096211415 0.022769186213936345 -0.0050125228218539644 -0.020807938804107789 0.0080264801799130123 -0.007209651937921494 -0.0039183133198845334 0.017918070702078088 -0.0032156924396022041 0.0037473575019190109
leaf_weight=2300.8317570984364 1793.9712023884058 3334.2159389108419 930.94034108519554 3579.2106256633997 1493.7796908169985 18491.968291223049 1459.4978420883417 5908.0305592566729 9051.7926384210587
leaf_count=5810 3472 9656 3214 8759 4442 52805 3087 16641 23531
internal_value=0 0.151542 -0.11154 -0.0779807 0.176865 -0.140188 0.0617384 0.125222 0.0498485
internal_weight=0 21547.5 26796.7 25865.8 5072.99 20792.8 19753.5 16419.3 14959.8
internal_count=131417 56387 75030 71816 13201 58615 52915 43259 40172
shrinkage=0.02


Tree=8
num_leaves=10
num_cat=0
split_feature=0 0 0 0 0 0 21 0 0
split_gain=794.164 1836.74 802.879 394.532 659.258 487.921 391.868 376.35 924.485
threshold=266.50000000000006 267.50000000000006 263.50000000000006 229.50000000000003 241.50000000000003 25.500000000000004 60.500000000000007 316.50000000000006 317.50000000000006
decision_type=2 2 2 2 2 2 2 2 2
left_child=2 -2 3 5 -5 -1 -7 -3 -9
right_child=1 7 -4 4 -6 6 -8 8 -10
leaf_value=0.0060220690660815965 0.02234295459059937 -0.0049126618030501147 -0.020414636802011974 0.0091296415476075973 -0.0070666608178344597 -0.0014108483595127439 -0.0072900524970506428 0.030789634899864228 0.0016590640559034954
leaf_weight=2300.813600897789 1791.7099896669388 3334.0148887783289 929.9654313325882 3059.0629347413778 1493.5882830172777 11536.689270660281 7474.4121382981539 445.05344538390636 15973.428135916591
leaf_count=5810 3472 9656 3214 7357 4442 31934 22273 734 42525
internal_value=0 0.148541 -0.10932 -0.0764241 0.190682 -0.133516 -0.186171 0.060509 0.122727
internal_weight=0 21544.2 26794.5 25864.6 4552.65 21311.9 19011.1 19752.5 16418.5
internal_count=131417 56387 75030 71816 11799 60017 54207 52915 43259
shrinkage=0.02


Tree=9
num_leaves=10
num_cat=0
split_feature=0 0 0 0 0 0 21 0 0
split_gain=762.915 1767.28 772.34 379.793 566.346 478.723 388.772 361.498 897.915
threshold=266.50000000000006 267.50000000000006 263.50000000000006 222.50000000000003 241.50000000000003 25.500000000000004 60.500000000000007 316.50000000000006 327.50000000000006
decision_type=2 2 2 2 2 2 2 2 2
left_child=2 -2 3 5 -5 -1 -7 -3 -9
right_child=1 7 -4 4 -6 6 -8 8 -10
leaf_value=0.0059019399332620797 0.021929732612558563 -0.0048148423849118747 -0.020032601034539698 0.0077241388893881744 -0.0069266636343952581 -0.0014372162915195403 -0.0073788194925165909 0.017374389132415548 0.00094385678014109037
leaf_weight=2300.7536160796881 1789.0446828752756 3333.7772398889065 928.81511881947517 3578.1311205923557 1493.363067150116 11246.519047006965 7243.7405308932066 1457.4774610847235 14959.731251344085
leaf_count=5810 3472 9656 3214 8759 4442 31156 21649 3087 40172
internal_value=0 0.145608 -0.10715 -0.0749017 0.170365 -0.134759 -0.188302 0.0593083 0.12029
internal_weight=0 21540 26791.3 25862.5 5071.49 20791 18490.3 19751 16417.2
internal_count=131417 56387 75030 71816 13201 58615 52805 52915 43259
shrinkage=0.02


Tree=10
num_leaves=10
num_cat=0
split_feature=0 0 0 1 0 0 0 0 0
split_gain=875.203 1759.76 776.744 389.785 370.726 592.41 362.177 642.829 453.856
threshold=266.50000000000006 267.50000000000006 263.50000000000006 1.5000000000000002 229.50000000000003 241.50000000000003 311.50000000000006 327.50000000000006 288.50000000000006
decision_type=2 2 2 2 2 2 2 2 2
left_child=2 -2 3 4 -1 -6 8 -8 -3
right_child=1 6 -4 -5 5 -7 7 -9 -10
leaf_value=-0.0042366981922356307 0.021678941258066659 0.0012525168959319256 -0.020385628365772818 0.0033670088658833766 0.0080548719943784649 -0.0088603044476390086 0.014160392501911303 0.0010686448331882132 -0.014227190794848446
leaf_weight=17197.476318359375 1832.7372735142708 1867.3334525078535 931.12048129737377 4728.8219118863344 2592.8506754338741 1213.1325406134129 1665.0341939628124 14936.907942429185 1270.652396813035
leaf_count=49417 3554 5053 3248 12339 6303 3692 3702 40042 4067
internal_value=0 0.147426 -0.12347 -0.0909281 -0.149333 0.132948 0.0603092 0.119216 -0.251066
internal_weight=0 21572.7 26663.4 25732.3 21003.5 3805.98 19739.9 16601.9 3137.99
internal_count=131417 56418 74999 71751 59412 9995 52864 43744 9120
shrinkage=0.02


Tree=11
num_leaves=10
num_cat=0
split_feature=20 21 18 16 16 4 20 20 20
split_gain=459.46 296.194 569.165 170.582 149.857 112.498 65.7179 56.741 53.8486
threshold=163.50000000000003 60.500000000000007 1.5000000000000002 6.5000000000000009 5.5000000000000009 30.500000000000004 50.500000000000007 327.50000000000006 141.50000000000003
decision_type=2 2 2 2 2 2 2 2 2
left_child=1 3 -3 6 7 8 -1 -2 -4
right_child=4 2 5 -5 -6 -7 -8 -9 -10
leaf_value=-0.00078661366400318655 0.00087296829377523006 0.0015289599538611945 -0.0047746816705677561 0.0047486174255983171 0.0089876429916451415 -0.0087496278077094074 0.0016139105519454003 0.0057528765258335656 0.0038006090793728754
leaf_weight=16419.313117474318 2650.7479120194912 6544.9692136645317 4963.867966234684 3293.270677447319 2318.0251067429781 3926.6654928922653 6312.7989181131124 1489.5829705744982 308.32141426205635
leaf_count=45100 7132 17518 14333 8428 5608 11899 16827 3770 802
internal_value=0 -0.0406534 -0.148911 0.0248341 0.245891 -0.309259 -0.00597948 0.131649 -0.213509
internal_weight=0 41769.2 15743.8 26025.4 6458.36 9198.85 22732.1 4140.33 5272.19
internal_count=131417 114907 44552 70355 16510 27034 61927 10902 15135
shrinkage=0.02


Tree=12
num_leaves=10
num_cat=0
split_feature=0 0 0 1 0 0 0 0 0
split_gain=839.151 1689.68 746.676 364.223 357.868 570.7 348.167 617.798 436.94
threshold=266.50000000000006 267.50000000000006 263.50000000000006 1.5000000000000002 229.50000000000003 241.50000000000003 311.50000000000006 327.50000000000006 288.50000000000006
decision_type=2 2 2 2 2 2 2 2 2
left_child=2 -2 3 4 -1 -6 8 -8 -3
right_child=1 6 -4 -5 5 -7 7 -9 -10
leaf_value=-0.0041369896007796662 0.021262684884066001 0.0012316241731782011 -0.019998951410755205 0.0032331517972694073 0.007935146763689933 -0.0086694490008822431 0.013886575243197016 0.0010483674154074709 -0.013958230316070613
leaf_weight=17195.812352567911 1828.950525328517 1867.3121065348387 929.50797514617443 4728.5969512462616 2592.3423035591841 1212.7560038566589 1663.9247037619352 14936.478941977024 1270.2617556452751
leaf_count=49417 3554 5053 3248 12339 6303 3692 3702 40042 4067
internal_value=0 0.144426 -0.120861 -0.0889786 -0.145442 0.131936 0.0591333 0.116892 -0.24618
internal_weight=0 21566.9 26659 25729.5 21000.9 3805.1 19738 16600.4 3137.57
internal_count=131417 56418 74999 71751 59412 9995 52864 43744 9120
shrinkage=0.02


Tree=13
num_leaves=10
num_cat=0
split_feature=0 0 0 1 0 0 0 0 0
split_gain=806.145 1627.06 718.827 349.837 343.715 548.295 344.947 335.771 808.868
threshold=266.50000000000006 267.50000000000006 263.50000000000006 1.5000000000000002 229.50000000000003 241.50000000000003 25.500000000000004 316.50000000000006 317.50000000000006
decision_type=2 2 2 2 2 2 2 2 2
left_child=2 -2 3 4 6 -6 -1 -3 -9
right_child=1 7 -4 -5 5 -7 -8 8 -10
leaf_value=0.0044922799317175461 0.020882789136435011 -0.004591731041915138 -0.019636216024309462 0.0031686128624569703 0.0077786287143103575 -0.0084990785483441255 -0.0049927775757150298 0.029277844464546444 0.0016078028913848639
leaf_weight=1699.1127224862576 1825.0713979899883 3364.8634615689516 927.81732694804668 4728.4738342016935 2591.6808430999517 1212.3890719264746 15495.575143352151 431.15650275349617 15940.21523553133
leaf_count=4376 3554 9751 3248 12339 6303 3692 45041 719 42394
internal_value=0 0.14158 -0.118465 -0.0872067 -0.142548 0.12933 -0.202727 0.0579566 0.117106
internal_weight=0 21561.3 26655 25727.2 20998.8 3804.07 17194.7 19736.2 16371.4
internal_count=131417 56418 74999 71751 59412 9995 49417 52864 43113
shrinkage=0.02


Tree=14
num_leaves=10
num_cat=0
split_feature=0 0 0 1 0 0 0 0 0
split_gain=774.481 1567.09 692.151 336.025 330.595 472.956 338.645 322.532 780.23
threshold=266.50000000000006 267.50000000000006 263.50000000000006 1.5000000000000002 222.50000000000003 241.50000000000003 25.500000000000004 316.50000000000006 317.50000000000006
decision_type=2 2 2 2 2 2 2 2 2
left_child=2 -2 3 4 6 -6 -1 -3 -9
right_child=1 7 -4 -5 5 -7 -8 8 -10
leaf_value=0.0044026504720027703 0.020513397944404193 -0.0045004564646460871 -0.019283162986560604 0.0031053769779699524 0.0064462845564104846 -0.0083323123361608107 -0.0050085045041775014 0.028797722768255977 0.0015756763245078865
leaf_weight=1699.0909836739302 1820.8733969777822 3364.5091786533594 925.98184995353222 4728.3292461484671 3013.6362482458353 1211.9853389263153 15071.33542098105 429.64303061366081 15939.983610376716
leaf_count=4376 3554 9751 3248 12339 7464 3692 43880 719 42394
internal_value=0 0.138799 -0.116118 -0.0854715 -0.139715 0.11016 -0.202702 0.0568086 0.114783
internal_weight=0 21555 26650.4 25724.4 20996 4225.62 16770.4 19734.1 16369.6
internal_count=131417 56418 74999 71751 59412 11156 48256 52864 43113
shrinkage=0.02


Tree=15
num_leaves=10
num_cat=0
split_feature=0 0 0 0 0 0 0 0 0
split_gain=635.374 1389.74 835.54 359.871 640.833 466.814 330.884 421.397 604.695
threshold=264.50000000000006 267.50000000000006 263.50000000000006 458.50000000000006 446.50000000000006 505.50000000000006 25.500000000000004 201.50000000000003 200.50000000000003
decision_type=2 2 2 2 2 2 2 2 2
left_child=2 -2 6 4 -3 -5 -1 8 -8
right_child=1 3 -4 5 -6 -7 7 -9 -10
leaf_value=0.0057474762727496125 0.018688638965944113 0.00027177476308638533 -0.022364775246193274 0.0096249811607130968 -0.020201351699917335 -0.0039320806745166449 -0.0033818154685457697 0.0017137545243940783 -0.0279191660461434
leaf_weight=2314.8664449900389 1936.2982651591301 14154.852193102241 785.33874340355396 3455.3005795031786 636.14908720552921 1435.8631313294172 15520.323971450329 7562.9678059220314 409.57862856984138
leaf_count=5843 3923 38313 2847 8309 2139 4078 44312 20159 1494
internal_value=0 0.126743 -0.104073 0.0471381 -0.0306135 0.282197 -0.0730738 -0.108635 -0.200911
internal_weight=0 21618.5 26593.1 19682.2 14791 4891.16 25807.7 23492.9 15929.9
internal_count=131417 56762 74655 52839 40452 12387 71808 65965 45806
shrinkage=0.02


Tree=16
num_leaves=10
num_cat=0
split_feature=0 0 0 0 0 0 0 0 0
split_gain=610.366 1338.21 805.145 345.656 615.553 448.402 317.822 404.768 581.498
threshold=264.50000000000006 267.50000000000006 263.50000000000006 458.50000000000006 446.50000000000006 505.50000000000006 25.500000000000004 201.50000000000003 200.50000000000003
decision_type=2 2 2 2 2 2 2 2 2
left_child=2 -2 6 4 -3 -5 -1 8 -8
right_child=1 3 -4 5 -6 -7 7 -9 -10
leaf_value=0.0056330780985870792 0.018354302963455336 0.00026634118885639452 -0.021978765277023412 0.009433514248304041 -0.01979861756784506 -0.0038535266197544998 -0.0033144119370383035 0.0016795046598876617 -0.027385209277850483
leaf_weight=2314.7023076415062 1932.2333414703608 14154.825430944562 783.22280867397785 3454.986226812005 636.16814839839935 1435.8913329541683 15519.305435910821 7562.9152765572071 409.27462314069271
leaf_count=5843 3923 38313 2847 8309 2139 4078 44312 20159 1494
internal_value=0 0.124235 -0.102012 0.0461937 -0.0300049 0.276572 -0.0716193 -0.106473 -0.196916
internal_weight=0 21614.1 26589.4 19681.9 14791 4890.88 25806.2 23491.5 15928.6
internal_count=131417 56762 74655 52839 40452 12387 71808 65965 45806
shrinkage=0.02


Tree=17
num_leaves=10
num_cat=0
split_feature=1 18 20 14 20 16 2 19 20
split_gain=524.924 546.439 130.22 146.938 114.694 113.355 66.2296 60.2451 58.5951
threshold=1.5000000000000002 1.5000000000000002 58.500000000000007 7.5000000000000009 327.50000000000006 5.5000000000000009 326.50000000000006 1.0000000180025095e-35 148.50000000000003
decision_type=2 2 2 2 2 2 2 2 2
left_child=1 4 3 -3 6 -2 -1 8 -4
right_child=5 2 7 -5 -6 -7 -8 -9 -10
leaf_value=3.8016699570911498e-05 0.0027735321605945598 -0.0037318902356006786 -0.0061641998022368286 0.0086032952235477241 0.0075967236938617169 0.0075596795592159033 0.0047186919223342408 0.012078371915589848 0.00082813526242122833
leaf_weight=25772.498141095042 6055.3331841528416 1184.3897320926189 8945.5945579558611 569.49112930893898 876.64916825294495 2947.3609402626753 1265.8761327564716 73.170063957571983 504.22036278247833
leaf_count=70188 15877 3420 26365 1392 2167 7237 3239 169 1363
internal_value=0 -0.0505767 -0.236327 0.0138912 0.0244677 0.217156 0.0128938 -0.282432 -0.289516
internal_weight=0 39191.9 11276.9 1753.88 27915 9002.69 27038.4 9522.98 9449.81
internal_count=131417 108303 32709 4812 75594 23114 73427 27897 27728
shrinkage=0.02


Tree=18
num_leaves=10
num_cat=0
split_feature=0 0 0 0 0 0 0 0 0
split_gain=584.929 1286.56 774.497 342.433 775.478 324.351 411.959 316.199 304.172
threshold=264.50000000000006 267.50000000000006 263.50000000000006 316.50000000000006 317.50000000000006 288.50000000000006 287.50000000000006 374.50000000000006 25.500000000000004
decision_type=2 2 2 2 2 2 2 2 2
left_child=2 -2 8 5 -5 6 -3 -6 -1
right_child=1 3 -4 4 7 -7 -8 -9 -10
leaf_value=0.0055106595226016063 0.018013624907875614 -0.0039932019876333527 -0.021583563837563192 0.028547811170514005 0.0062214607337100197 -0.011827307651205005 0.019733231128923202 -0.00026163475416626634 -0.0020838382748122738
leaf_weight=2314.3954560607672 1927.5818754136562 1477.0858353376389 780.80718845129013 428.66764998435974 4025.1817114204168 1498.5893031805754 361.86157310009003 11889.332322284579 23488.896488711238
leaf_count=5843 3923 4255 2847 717 10048 4711 762 32346 65965
internal_value=0 0.121648 -0.099861 0.0452068 0.104835 -0.246519 0.034844 0.0689295 -0.0700932
internal_weight=0 21608.3 26584.1 19680.7 16343.2 3337.54 1838.95 15914.5 25803.3
internal_count=131417 56762 74655 52839 43111 9728 5017 42394 71808
shrinkage=0.02


Tree=19
num_leaves=10
num_cat=0
split_feature=0 0 0 0 0 0 0 0 0
split_gain=561.977 1239.17 746.67 335.997 589.182 430.09 292.16 392.593 555.698
threshold=264.50000000000006 267.50000000000006 263.50000000000006 458.50000000000006 446.50000000000006 505.50000000000006 25.500000000000004 222.50000000000003 241.50000000000003
decision_type=2 2 2 2 2 2 2 2 2
left_child=2 -2 6 4 -3 -5 -1 -8 -9
right_child=1 3 -4 5 -6 -7 7 8 -10
leaf_value=0.0054011359623393554 0.017695893804158539 0.0002313440981711773 -0.021219255294732346 0.009251322134918501 -0.019401103006087408 -0.0037619180450269652 -0.0034027756837700929 0.007124148688111071 -0.0073767585615003408
leaf_weight=2314.1630269885063 1923.0474752038717 14151.306219756603 778.40409022569656 3454.4410247504711 636.03808027505875 1435.8701807111502 18395.491423383355 3599.7756247073412 1492.9353677034378
leaf_count=5843 3923 38313 2847 8309 2139 4078 52645 8823 4497
internal_value=0 0.119268 -0.0978791 0.0443163 -0.0308226 0.271462 -0.0686932 -0.102111 0.143508
internal_weight=0 21600.7 26580.8 19677.7 14787.3 4890.31 25802.4 23488.2 5092.71
internal_count=131417 56762 74655 52839 40452 12387 71808 65965 13320
shrinkage=0.02


Tree=20
num_leaves=10
num_cat=0
split_feature=0 0 0 0 0 0 1 0 0
split_gain=599.643 1284.53 543.749 312.542 524.394 446.049 311.688 332.792 470.085
threshold=266.50000000000006 267.50000000000006 263.50000000000006 458.50000000000006 446.50000000000006 505.50000000000006 1.5000000000000002 222.50000000000003 241.50000000000003
decision_type=2 2 2 2 2 2 2 2 2
left_child=2 -2 6 4 -3 -5 7 -1 -9
right_child=1 3 -4 5 -6 -7 -8 8 -10
leaf_value=-0.0037231531092954307 0.018952097606818478 0.000442695971300578 -0.017121058626175918 0.0093217310819908913 -0.017897048679706425 -0.0038846305259333585 0.0032181046181816576 0.0066975219535257424 -0.008023826977519256
leaf_weight=16758.762596741319 1749.5386763066053 14196.938653603196 909.24020454287529 3483.6175881028175 649.26973155140877 1445.0679967999458 4748.4852786660194 3061.376874178648 1207.2357880473137
leaf_count=48211 3456 38333 3204 8352 2161 4113 12370 7537 3680
internal_value=0 0.127054 -0.0972743 0.0543098 -0.0181203 0.272423 -0.0704004 -0.122664 0.126498
internal_weight=0 21524.4 26685.1 19774.9 14846.2 4928.69 25775.9 21027.4 4268.61
internal_count=131417 56415 75002 52959 40494 12465 71798 59428 11217
shrinkage=0.02


Tree=21
num_leaves=10
num_cat=0
split_feature=0 0 0 0 0 0 0 0 1
split_gain=576.083 1238.5 523.933 308.357 643.712 409.436 399.429 391.198 299.385
threshold=266.50000000000006 267.50000000000006 263.50000000000006 311.50000000000006 327.50000000000006 288.50000000000006 287.50000000000006 417.50000000000006 1.5000000000000002
decision_type=2 2 2 2 2 2 2 2 2
left_child=2 -2 8 5 -5 6 -3 -6 -1
right_child=1 3 -4 4 7 -7 -8 -9 -10
leaf_value=-0.0024045839708731944 0.018632851635469096 -0.0033267588359785611 -0.016823247656886836 0.013850005076871924 -0.0031696849941314055 -0.013634148855246877 0.020121685593891728 0.0034351209966149237 0.0031539100033889217
leaf_weight=21024.367747664452 1744.0310311019421 1500.1863892376423 906.9058111011982 1684.9747720807791 5931.9517628252506 1236.4022722989321 357.1899059265852 9063.0416273623705 4748.2962618768215
leaf_count=59428 3456 4293 3204 3724 16671 3976 743 23552 12370
internal_value=0 0.124555 -0.0953515 0.0532246 0.107024 -0.236557 0.0602268 0.0410889 -0.069001
internal_weight=0 21517.8 26679.6 19773.7 16680 3093.78 1857.38 14995 25772.7
internal_count=131417 56415 75002 52959 43947 9012 5036 40223 71798
shrinkage=0.02


Tree=22
num_leaves=10
num_cat=0
split_feature=0 0 0 0 0 0 0 0 0
split_gain=553.481 1194.26 504.907 297.814 775.491 334.568 331.851 383.725 296.242
threshold=266.50000000000006 267.50000000000006 263.50000000000006 316.50000000000006 317.50000000000006 374.50000000000006 288.50000000000006 287.50000000000006 229.50000000000003
decision_type=2 2 2 2 2 2 2 2 2
left_child=2 -2 8 6 -5 -6 7 -3 -1
right_child=1 3 -4 4 5 -7 -8 -9 -10
leaf_value=-0.0023445927738876401 0.018321144081626162 -0.0032606358841922433 -0.016532189061401203 0.027990244249688295 0.0063591349103923221 -0.00027477574149849455 -0.01155754997508184 0.01972223697522877 0.0032808285680218196
leaf_weight=21228.613003402948 1738.3376244753599 1500.0590361505747 904.49214689433575 448.68335743248463 4077.3549735844135 11930.526384025812 1457.1685805171728 357.19641597568989 4542.8468633592129
leaf_count=59980 3456 4293 3204 754 10143 32435 4591 743 11818
internal_value=0 0.122119 -0.0934598 0.05217 0.107267 0.0707721 -0.221151 0.0590497 -0.0676238
internal_weight=0 21509.3 26676 19771 16456.6 16007.9 3314.42 1857.26 25771.5
internal_count=131417 56415 75002 52959 43332 42578 9627 5036 71798
shrinkage=0.02


Tree=23
num_leaves=10
num_cat=0
split_feature=0 0 0 0 0 0 0 1 0
split_gain=531.805 1151.73 486.623 297.264 505.57 428.554 293.489 287.965 309.222
threshold=266.50000000000006 267.50000000000006 263.50000000000006 458.50000000000006 446.50000000000006 505.50000000000006 374.50000000000006 1.5000000000000002 222.50000000000003
decision_type=2 2 2 2 2 2 2 2 2
left_child=2 -2 7 4 6 -5 -3 8 -1
right_child=1 3 -4 5 -6 -7 -8 -9 -10
leaf_value=-0.003554602587178159 0.018016633656816709 0.0029901500089390509 -0.016247603697986886 0.0090750876834248817 -0.017610765642319014 -0.0038701754288655152 -0.0027926424498967112 0.0031211591513347061 0.00247390103197758
leaf_weight=16754.7720618397 1732.4738461077213 7836.6727196723223 902.00574834644794 3482.5619414150715 649.00901861488819 1445.0677841454744 6353.9197403043509 4748.1361077278852 4267.247902020812
leaf_count=48211 3456 20524 3204 8352 2161 4113 17809 12370 11217
internal_value=0 0.119742 -0.0916061 0.0511434 -0.0195154 0.263876 0.0200203 -0.0662744 -0.116521
internal_weight=0 21499.7 26672.2 19767.2 14839.6 4927.63 14190.6 25770.2 21022
internal_count=131417 56415 75002 52959 40494 12465 38333 71798 59428
shrinkage=0.02


Tree=24
num_leaves=10
num_cat=0
split_feature=0 0 0 0 0 0 0 0 1
split_gain=510.915 1110.9 469.044 290.303 746.753 318.906 368.729 315.025 276.589
threshold=266.50000000000006 267.50000000000006 263.50000000000006 316.50000000000006 317.50000000000006 288.50000000000006 287.50000000000006 374.50000000000006 1.5000000000000002
decision_type=2 2 2 2 2 2 2 2 2
left_child=2 -2 8 5 -5 6 -3 -6 -1
right_child=1 3 -4 4 7 -7 -8 -9 -10
leaf_value=-0.0022840281611337756 0.017719002316971301 -0.0032552598569109566 -0.015969231424524923 0.027520625517830397 0.0061739386816732043 -0.011390848778721445 0.019276067602721575 -0.00026400771666001629 0.003058917758601668
leaf_weight=21019.997286468744 1726.4544100165367 1500.0483062565327 899.45283968746662 446.31547340750694 4076.2790244072676 1456.6221036463976 357.11691707372665 11929.312613233924 4747.9171819835901
leaf_count=59428 3456 4293 3204 754 10143 4591 743 32435 12370
internal_value=0 0.117392 -0.0897924 0.050122 0.104529 -0.219753 0.0549098 0.0688037 -0.0649539
internal_weight=0 21492.1 26667.4 19765.7 16451.9 3313.79 1857.17 16005.6 25767.9
internal_count=131417 56415 75002 52959 43332 9627 5036 42578 71798
shrinkage=0.02


Tree=25
num_leaves=10
num_cat=0
split_feature=0 0 0 0 0 0 0 0 21
split_gain=518.932 1022.13 444.609 272.063 556.182 394.757 259.781 510.496 359.023
threshold=266.50000000000006 267.50000000000006 263.50000000000006 458.50000000000006 446.50000000000006 505.50000000000006 229.50000000000003 241.50000000000003 59.500000000000007
decision_type=2 2 2 2 2 2 2 2 2
left_child=2 -2 6 4 -3 -5 8 -8 -1
right_child=1 3 -4 5 -6 -7 7 -9 -10
leaf_value=-0.00017218808007176515 0.017041313960268509 0.00051671246965782826 -0.015525728704665223 0.0087617528444836595 -0.018510438113180781 -0.003642133373572355 0.0076764889193117851 -0.0065494772695596035 -0.0054966097270921057
leaf_weight=12811.671269521117 1736.4027770608664 14155.261892646551 913.18602205812931 3483.8125340044498 639.38201367855072 1451.6010098606348 3054.9765979200602 1502.7583747655153 8378.3484745770693
leaf_count=35135 3510 38185 3258 8373 2156 4125 7391 4499 24785
internal_value=0 0.117188 -0.0916957 0.0523784 -0.0154383 0.255616 -0.0673164 0.149171 -0.113909
internal_weight=0 21466.5 26660.9 19730.1 14794.6 4935.41 25747.8 4557.73 21190
internal_count=131417 56349 75068 52839 40341 12498 71810 11890 59920
shrinkage=0.02


Tree=26
num_leaves=10
num_cat=0
split_feature=0 0 0 0 0 0 0 0 0
split_gain=498.57 986.044 428.617 261.364 534.699 379.273 251.95 354.824 293.296
threshold=266.50000000000006 267.50000000000006 263.50000000000006 458.50000000000006 446.50000000000006 505.50000000000006 25.500000000000004 27.500000000000004 222.50000000000003
decision_type=2 2 2 2 2 2 2 2 2
left_child=2 -2 6 4 -3 -5 -1 -8 -9
right_child=1 3 -4 5 -6 -7 7 8 -10
leaf_value=0.005014639246091337 0.016761394737793783 0.00050638322523664998 -0.01526151513040863 0.0085892444984012935 -0.018157020260672639 -0.0035694856102344726 -0.019668416272784928 -0.0027956718376667329 0.0026504144444499233
leaf_weight=2285.2828888744116 1730.2057922482491 14155.188677281141 910.49472407996655 3482.7772660553455 638.85429620742798 1451.5828038007021 440.00944222509861 17949.118869066238 5069.6442602872849
leaf_count=5806 3510 38185 3258 8373 2156 4125 1489 51238 13277
internal_value=0 0.11489 -0.089887 0.0513329 -0.0151337 0.25056 -0.0659804 -0.0968744 -0.0797889
internal_weight=0 21458.6 26654.6 19728.4 14794 4934.36 25744.1 23458.8 23018.8
internal_count=131417 56349 75068 52839 40341 12498 71810 66004 64515
shrinkage=0.02


Tree=27
num_leaves=10
num_cat=0
split_feature=0 0 0 0 21 0 0 0 0
split_gain=479.004 951.318 418.213 623.649 344.771 255.341 513.632 364.158 361.565
threshold=266.50000000000006 267.50000000000006 241.50000000000003 229.50000000000003 59.500000000000007 308.50000000000006 327.50000000000006 288.50000000000006 287.50000000000006
decision_type=2 2 2 2 2 2 2 2 2
left_child=2 -2 3 4 -1 7 -7 8 -3
right_child=1 5 -4 -5 -6 6 -8 -9 -10
leaf_value=-0.00012601643089854133 0.016487346477290145 -0.0032869107809148875 -0.0097025041844484468 0.007474209914814023 -0.0053443572630553918 0.012095217946633926 0.00075433497759815852 -0.01331753628593306 0.018946302988544481
leaf_weight=12810.840834856033 1723.8991697728634 1484.6452504992485 2410.2504677325487 3053.3390697687864 8375.0950688421726 1785.5981361418962 14965.510650441051 1129.6029623001814 361.17820844054222
leaf_count=35135 3510 4253 7757 7391 24785 4049 40137 3649 751
internal_value=0 0.112638 -0.0881101 -0.0485651 -0.109482 0.0503087 0.0982767 -0.219468 0.0541986
internal_weight=0 21450.4 26649.5 24239.3 21185.9 19726.5 16751.1 2975.43 1845.82
internal_count=131417 56349 75068 67311 59920 52839 44186 8653 5004
shrinkage=0.02


Tree=28
num_leaves=10
num_cat=0
split_feature=0 0 0 0 0 0 0 0 0
split_gain=460.706 835.903 502.101 251.734 513.71 364.422 249.268 242.864 340.513
threshold=264.50000000000006 267.50000000000006 263.50000000000006 458.50000000000006 446.50000000000006 505.50000000000006 374.50000000000006 25.500000000000004 27.500000000000004
decision_type=2 2 2 2 2 2 2 2 2
left_child=2 -2 7 4 6 -5 -3 -1 -9
right_child=1 3 -4 5 -6 -7 -8 8 -10
leaf_value=0.0049552371817188955 0.014997077811570024 0.0028707317758060093 -0.017707707510557415 0.0084055816070935895 -0.017827281896986059 -0.003513349251825398 -0.002464338054626591 -0.019245716340120973 -0.0015359872553208412
leaf_weight=2285.0903776288033 1861.5108626335859 7796.4281643480062 761.94780434668064 3481.5265442430973 638.25910028815269 1451.5621506124735 6355.6646307110786 439.7404408454895 23012.793157830834
leaf_count=5806 3935 20433 2833 8373 2156 4125 17752 1489 64515
internal_value=0 0.109838 -0.0869468 0.0493129 -0.0159252 0.244861 0.0237164 -0.0631974 -0.0935362
internal_weight=0 21585 26499.6 19723.4 14790.4 4933.09 14152.1 25737.6 23452.5
internal_count=131417 56774 74643 52839 40341 12498 38185 71810 66004
shrinkage=0.02


Tree=29
num_leaves=10
num_cat=0
split_feature=0 0 0 0 21 0 0 0 0
split_gain=442.982 888.259 394.584 599.984 331.03 248.804 489.653 350.053 349.826
threshold=266.50000000000006 267.50000000000006 241.50000000000003 229.50000000000003 59.500000000000007 308.50000000000006 327.50000000000006 288.50000000000006 417.50000000000006
decision_type=2 2 2 2 2 2 2 2 2
left_child=2 -2 3 4 -1 7 -7 -3 -8
right_child=1 5 -4 -5 -6 6 8 -9 -10
leaf_value=-0.00010022698554457825 0.015975718190430553 0.0010055847138609282 -0.0094166762620242726 0.0073580246631165325 -0.0052141193139571733 0.011810483828262767 -0.0030494332548286762 -0.013117337743761621 0.0032038486540945355
leaf_weight=12810.199420943856 1711.4977178424597 1845.5609423518181 2404.9505877196789 3052.3243627548218 8372.1243574470282 1783.4917104393244 5914.6207821071148 1128.9018286168575 9048.5992248058319
leaf_count=35135 3510 5004 7757 7391 24785 4049 16583 3649 23554
internal_value=0 0.108374 -0.0847381 -0.0463576 -0.106109 0.0483296 0.0956849 -0.218015 0.0365776
internal_weight=0 21432.7 26639.6 24234.6 21182.3 19721.2 16746.7 2974.46 14963.2
internal_count=131417 56349 75068 67311 59920 52839 44186 8653 40137
shrinkage=0.02


Tree=30
num_leaves=10
num_cat=0
split_feature=1 18 20 14 16 21 2 2 6
split_gain=441.371 493.784 123.444 114.95 103.782 77.9464 54.3757 51.0235 50.1332
threshold=1.5000000000000002 1.5000000000000002 58.500000000000007 9.5000000000000018 4.5000000000000009 334.50000000000006 121.50000000000001 30.500000000000004 70.500000000000014
decision_type=2 2 2 2 2 2 2 2 2
left_child=1 5 3 8 -2 -1 -5 -4 -3
right_child=4 2 7 6 -6 -7 -8 -9 -10
leaf_value=0.00031822382942997345 0.0022769618497170312 -0.0006442867410207041 -0.0040493720778489572 0.021778429473063698 0.0066982438565357395 0.0064955044177374098 0.0052251590304367304 -0.0070116389200611451 -0.01053576750773421
leaf_weight=27050.105473846197 5447.2266253232956 982.38635125756264 5329.867745295167 99.674130871891975 3489.6117849647999 839.70997732877731 372.21061839163303 4175.9606646001339 256.67367717623711
leaf_count=73602 14375 2767 15373 202 8649 2111 954 12559 825
internal_value=0 -0.0460008 -0.223161 0.023918 0.200285 0.0252552 0.442488 -0.267657 -0.135933
internal_weight=0 39106.6 11216.8 1710.94 8936.84 27889.8 471.885 9505.83 1239.06
internal_count=131417 108393 32680 4748 23024 75713 1156 27932 3592
shrinkage=0.02


Tree=31
num_leaves=10
num_cat=0
split_feature=1 18 20 14 16 4 2 2 7
split_gain=423.947 474.31 118.602 110.488 99.7238 72.0858 52.285 49.0443 48.2194
threshold=1.5000000000000002 1.5000000000000002 58.500000000000007 9.5000000000000018 4.5000000000000009 232.50000000000003 121.50000000000001 30.500000000000004 70.500000000000014
decision_type=2 2 2 2 2 2 2 2 2
left_child=1 5 3 8 -2 -1 -5 -4 -3
right_child=4 2 7 6 -6 -7 -8 -9 -10
leaf_value=0.0002197093308095593 0.0022315438901127638 -0.00063145187303474616 -0.0039687112459673365 0.021353954521308883 0.0065659141557933886 0.0042537192801452598 0.0051217124472314043 -0.0068732995118128658 -0.01033535970839128
leaf_weight=25990.728584945202 5446.9939474612474 982.36834074556828 5329.4938443750143 99.681862324476242 3488.8113856166601 1898.975856333971 372.19459702074528 4174.8814119398594 256.47783283889294
leaf_count=70811 14375 2767 15373 202 8649 4902 954 12559 825
internal_value=0 -0.045082 -0.21873 0.0234663 0.196306 0.0247512 0.433829 -0.262349 -0.13327
internal_weight=0 39104.8 11215.1 1710.72 8935.81 27889.7 471.876 9504.38 1238.85
internal_count=131417 108393 32680 4748 23024 75713 1156 27932 3592
shrinkage=0.02


Tree=32
num_leaves=10
num_cat=0
split_feature=0 0 0 0 0 0 0 0 0
split_gain=412.9 770.313 501.415 284.206 682.915 314.513 336.6 267.247 244.486
threshold=264.50000000000006 267.50000000000006 263.50000000000006 316.50000000000006 317.50000000000006 288.50000000000006 287.50000000000006 374.50000000000006 25.500000000000004
decision_type=2 2 2 2 2 2 2 2 2
left_child=2 -2 8 5 -5 6 -3 -6 -1
right_child=1 3 -4 4 7 -7 -8 -9 -10
leaf_value=0.0050411748673820167 0.014402037676849324 -0.0031284388407208869 -0.017866315821823766 0.026720567917796006 0.0057408736910517901 -0.011287608642790206 0.01839516228399014 -0.00020347017521546597 -0.0018191105729378466
leaf_weight=2276.9816115945578 1843.3164109140635 1482.8391636162996 741.00844025611877 431.23100167512894 4045.8180805742741 1481.8409697562456 358.27329894900322 11959.432201772928 23416.797649070621
leaf_count=5774 3933 4241 2790 736 10094 4692 746 32474 65937
internal_value=0 0.102381 -0.0839747 0.0446394 0.0985817 -0.221936 0.0539914 0.0649782 -0.0605201
internal_weight=0 21602.8 26434.8 19759.4 16436.5 3322.95 1841.11 16005.3 25693.8
internal_count=131417 56916 74501 52983 43304 9679 4987 42568 71711
shrinkage=0.02


Tree=33
num_leaves=10
num_cat=0
split_feature=1 0 0 0 0 0 21 0 0
split_gain=406.78 381.65 242.332 578.996 566.719 237.951 179.007 142.924 140.788
threshold=1.5000000000000002 222.50000000000003 241.50000000000003 264.50000000000006 267.50000000000006 25.500000000000004 60.500000000000007 461.50000000000006 4.5000000000000009
decision_type=2 2 2 2 2 2 2 2 2
left_child=1 5 -3 -4 -5 8 -7 -2 -1
right_child=7 2 3 4 -6 6 -8 -9 -10
leaf_value=-0.0066807326698582626 0.0030387810815988093 0.0060503205889749266 -0.010754536484058408 0.013258182607597436 4.3525989449141368e-05 -0.0019795328320261559 -0.0063722146000545115 0.011792506663122511 0.0070207471815399063
leaf_weight=385.28396864235401 8111.9100278764963 3058.1861323267221 1813.401265218854 1408.83020439744 16129.952992662787 8165.9219496101141 6813.2493776082993 820.03783643245697 1315.8964285701513
leaf_count=1127 21144 7563 5979 3062 43738 23073 20588 1880 3263
internal_value=0 -0.0441587 0.0410762 -0.00026362 0.0553721 -0.158678 -0.198941 0.192341 0.195391
internal_weight=0 39090.7 22410.4 19352.2 17538.8 16680.4 14979.2 8931.95 1701.18
internal_count=131417 108393 60342 52779 46800 48051 43661 23024 4390
shrinkage=0.02


Tree=34
num_leaves=10
num_cat=0
split_feature=1 18 0 0 0 0 0 0 0
split_gain=390.751 448.232 433.919 310.374 287.017 202.203 260.56 215.195 156.898
threshold=1.5000000000000002 1.5000000000000002 264.50000000000006 267.50000000000006 308.50000000000006 374.50000000000006 417.50000000000006 365.50000000000006 222.50000000000003
decision_type=2 2 2 2 2 2 2 2 2
left_child=1 2 -1 -4 -5 7 -7 8 -3
right_child=-2 5 3 4 -6 6 -8 -9 -10
leaf_value=-0.0018744540385012317 0.003770475926052896 -0.0057750251029020155 0.01335866380194977 -0.0052239195408921336 0.0034777026098369635 -0.019009868212821315 -0.0048525291683083147 0.021315383676023363 -0.0003834548228142799
leaf_weight=14671.867084801197 8930.8257954418659 4599.1418437361717 1084.6597677618265 1773.3498286604881 10344.255966827273 764.58198969066143 1627.4146968275309 142.0730988830328 4072.4023298621178
leaf_count=41446 23024 13819 2336 5217 26714 2567 4694 285 11315
internal_value=0 -0.0432873 0.0246107 0.15613 0.11014 -0.212173 -0.469923 -0.14205 -0.162235
internal_weight=0 39079.7 27874.1 13202.3 12117.6 11205.6 2392 8813.62 8671.54
internal_count=131417 108393 75713 34267 31931 32680 7261 25419 25134
shrinkage=0.02


Tree=35
num_leaves=10
num_cat=0
split_feature=0 0 0 0 0 20 1 0 0
split_gain=387.372 631.275 341.056 296.619 301.409 241.518 186.135 178.709 589.696
threshold=201.50000000000003 197.50000000000003 205.50000000000003 25.500000000000004 27.500000000000004 154.50000000000003 1.5000000000000002 458.50000000000006 374.50000000000006
decision_type=2 2 2 2 2 2 2 2 2
left_child=1 3 -2 -1 -5 7 -6 8 -4
right_child=2 -3 5 4 6 -7 -8 -9 -10
leaf_value=0.004984088639972249 0.018829351961392404 -0.024181266258189373 0.0017370133602285836 -0.019343679766144074 -0.0032407426278859078 0.0055659642765358069 0.0025839289888649098 0.0040942330418647513 -0.0057422770197887874
leaf_weight=2325.3940468132496 439.41070041060448 509.73361966013908 14912.039417728782 419.14214314520359 12323.154848396778 4211.6140909045935 2666.3747283667326 4314.5254471749067 5875.4500956833363
leaf_count=5892 945 1828 39896 1428 35693 10594 6998 11029 17114
internal_value=0 -0.11511 0.0699515 -0.0834503 -0.133711 0.0567822 -0.110196 0.0195755 -0.0188597
internal_weight=0 18243.8 29753 17734.1 15408.7 29313.6 14989.5 25102 20787.5
internal_count=131417 51839 79578 50011 44119 78633 42691 68039 57010
shrinkage=0.02


Tree=36
num_leaves=10
num_cat=0
split_feature=0 0 0 0 0 20 1 0 0
split_gain=372.129 607.537 327.5 284.933 289.898 232.069 178.798 177.497 575.792
threshold=201.50000000000003 197.50000000000003 205.50000000000003 25.500000000000004 27.500000000000004 165.50000000000003 1.5000000000000002 458.50000000000006 374.50000000000006
decision_type=2 2 2 2 2 2 2 2 2
left_child=1 3 -2 -1 -5 7 -6 8 -4
right_child=2 -3 5 4 6 -7 -8 -9 -10
leaf_value=0.0048851654517174312 0.018448372760502256 -0.023737554802605462 0.0017355016292990616 -0.018976912515520857 -0.0031764652153753758 0.0056941725797748323 0.0025323898898535996 0.0040876825365060692 -0.0055999752934248453
leaf_weight=2325.0969214886427 439.57545579969883 508.94042932987213 15134.022987559438 418.75981071591377 12321.150802671909 3840.4491782039404 2666.2901621460915 4372.2617117762566 5964.5844550430775
leaf_count=5892 945 1828 40469 1428 35693 9630 6998 11167 17367
internal_value=0 -0.112837 0.0685603 -0.0817966 -0.131062 0.0556519 -0.108007 0.0210739 -0.0169229
internal_weight=0 18240.2 29750.9 17731.3 15406.2 29311.3 14987.4 25470.9 21098.6
internal_count=131417 51839 79578 50011 44119 78633 42691 69003 57836
shrinkage=0.02


Tree=37
num_leaves=10
num_cat=0
split_feature=0 0 0 0 0 0 0 0 0
split_gain=359.118 820.005 420.186 537.186 296.666 270.243 244.113 1003.41 616.955
threshold=266.50000000000006 267.50000000000006 243.50000000000003 229.50000000000003 25.500000000000004 27.500000000000004 417.50000000000006 375.50000000000006 365.50000000000006
decision_type=2 2 2 2 2 2 2 2 2
left_child=2 -2 3 4 -1 -6 7 8 -3
right_child=1 6 -4 -5 5 -7 -8 -9 -10
leaf_value=0.0047882503511303808 0.015394681726056488 -8.3301295330740556e-06 -0.0098725420417926993 0.0068578030147570072 -0.01862015325723251 -0.0024163235492229147 0.00320650023386996 -0.011975409433477928 0.015846118792501127
leaf_weight=2324.777761682868 1663.5426590889692 6911.2652866542339 2224.7190941572189 3184.0702956169844 418.3094644099474 18467.813586965203 9017.557606741786 2631.6786623001099 1141.1839155703783
leaf_count=5892 3443 18749 7272 7764 1428 52737 23434 8204 2494
internal_value=0 0.0961761 -0.0778796 -0.0398968 -0.0974133 -0.138922 0.0391794 -0.0630575 0.112143
internal_weight=0 21365.2 26619.7 24395 21210.9 18886.1 19701.7 10684.1 8052.45
internal_count=131417 56324 75093 67821 60057 54165 52881 29447 21243
shrinkage=0.02


Tree=38
num_leaves=10
num_cat=0
split_feature=1 18 20 15 16 5 20 8 20
split_gain=352.842 416.026 133.248 104.433 100.46 74.3161 56.8371 52.7521 42.468
threshold=1.5000000000000002 1.5000000000000002 58.500000000000007 6.5000000000000009 5.5000000000000009 310.50000000000006 65.500000000000014 4.5000000000000009 149.50000000000003
decision_type=2 2 2 2 2 2 2 2 2
left_child=1 5 3 -3 -2 6 -1 -6 -4
right_child=4 2 8 -5 7 -7 -8 -9 -10
leaf_value=-0.00032442367916836598 0.0020953392482605778 -0.0025004017299281216 -0.0053101118105461434 0.0078591243014201791 0.008763330455658731 0.004863504265023709 0.0017712932554537434 0.003228649326150575 0.00081559759248773752
leaf_weight=19231.222009167075 6040.4579834640026 1137.4155253469944 9036.0614201873541 587.73440246284008 1783.087729409337 1465.0665693581104 7078.294449955225 1136.5907614976168 474.01154206693172
leaf_count=52781 15920 3319 26693 1461 4275 3750 18994 2929 1295
internal_value=0 -0.0414777 -0.203823 0.0516494 0.178545 0.0241975 0.0119658 0.330817 -0.2502
internal_weight=0 39009.8 11235.2 1725.15 8960.14 27774.6 26309.5 2919.68 9510.07
internal_count=131417 108293 32768 4780 23124 75525 71775 7204 27988
shrinkage=0.02


Tree=39
num_leaves=10
num_cat=0
split_feature=0 0 0 0 0 21 2 0 0
split_gain=346.525 583.896 316.667 261.9 269.763 195.616 185.352 132.744 120.256
threshold=201.50000000000003 197.50000000000003 205.50000000000003 25.500000000000004 27.500000000000004 32.500000000000007 326.50000000000006 4.5000000000000009 519.50000000000011
decision_type=2 2 2 2 2 2 2 2 2
left_child=1 3 -2 7 -5 -6 8 -1 -4
right_child=2 -3 6 4 5 -7 -8 -9 -10
leaf_value=-0.0038967713661813819 0.018115124370121076 -0.023259091011067618 0.00074687640945721862 -0.018309975288010833 0.0012235285786921192 -0.0036548157384616027 0.0059285704312639466 0.0073371690063274821 -0.0086262147329976245
leaf_weight=548.1882621049881 439.62784028053284 507.87389330565929 25904.334666013718 417.82249566912651 4866.210782378912 10116.406717807055 2833.7671888023615 1776.0632083266973 556.27662287652493
leaf_count=1544 945 1828 69826 1428 13179 29512 7138 4348 1669
internal_value=0 -0.108895 0.0661926 -0.0784839 -0.125726 -0.103502 0.0534913 0.23417 0.0274323
internal_weight=0 18232.6 29734 17724.7 15400.4 14982.6 29294.4 2324.25 26460.6
internal_count=131417 51839 79578 50011 44119 42691 78633 5892 71495
shrinkage=0.02


Tree=40
num_leaves=10
num_cat=0
split_feature=1 0 0 0 0 0 0 0 20
split_gain=348.692 303.868 264.473 486.535 538.918 239.277 186.536 163.879 135.496
threshold=1.5000000000000002 222.50000000000003 241.50000000000003 264.50000000000006 267.50000000000006 25.500000000000004 27.500000000000004 417.50000000000006 60.500000000000007
decision_type=2 2 2 2 2 2 2 2 2
left_child=1 5 -3 -4 -5 -1 -7 -2 -8
right_child=7 2 3 4 -6 6 8 -9 -10
leaf_value=0.0040761535232020397 0.0021246036573159418 0.0061168878445629253 -0.010077611812178268 0.012765906631165454 -0.0002279759322764926 -0.020106748824165185 -0.0016726772341591936 0.0088492644107196934 -0.0055246480837295555
leaf_weight=1750.5686096847057 7112.7349983304739 3051.5754652917385 1810.2497622817755 1384.517966195941 15982.172766670585 270.44420771300793 8038.6320405602455 1820.1755975931883 6707.1502665281296
leaf_count=4488 18703 7520 5958 3029 43480 955 22712 4355 20217
internal_value=0 -0.0441026 0.0325528 -0.0109608 0.0404805 -0.145734 -0.186535 0.1749 -0.171296
internal_weight=0 38995.3 22228.5 19176.9 17366.7 16766.8 15016.2 8932.91 14745.8
internal_count=131417 108359 59987 52467 46509 48372 43884 23058 42929
shrinkage=0.02


Tree=41
num_leaves=10
num_cat=0
split_feature=1 18 0 0 0 0 0 0 0
split_gain=334.96 480.008 329.79 313.772 248.711 196.606 214.892 157.504 155.856
threshold=1.5000000000000002 1.5000000000000002 264.50000000000006 267.50000000000006 308.50000000000006 377.50000000000006 417.50000000000006 417.50000000000006 222.50000000000003
decision_type=2 2 2 2 2 2 2 2 2
left_child=1 2 -1 -4 -5 8 -7 -2 -3
right_child=7 5 3 4 -6 6 -8 -9 -10
leaf_value=-0.0015087735994095089 0.0020822845658814522 -0.005576422824602266 0.013197201496586725 -0.0050350836436291188 0.0031131492367832644 -0.018879191869681466 -0.0055279917758547861 0.0086759613361937337 -0.00026337096855404916
leaf_weight=14775.468424350023 7112.2106348276138 4592.1674124449492 1073.3814787268639 1751.5690592676401 10251.638008728623 693.37668120861053 1588.4449488073587 1819.470042437315 4257.4683940112591
leaf_count=41691 18703 13860 2317 5142 26573 2348 4621 4355 11807
internal_value=0 -0.0432349 0.0269102 0.14257 0.0961328 -0.218732 -0.480355 0.171431 -0.1511
internal_weight=0 38983.5 27852.1 13076.6 12003.2 11131.5 2281.82 8931.68 8849.64
internal_count=131417 108359 75723 34032 31715 32636 6969 23058 25667
shrinkage=0.02


Tree=42
num_leaves=10
num_cat=0
split_feature=1 0 0 0 0 0 0 0 0
split_gain=321.767 281.753 256.617 464.683 504.376 229.581 180.132 151.386 129.723
threshold=1.5000000000000002 222.50000000000003 241.50000000000003 264.50000000000006 267.50000000000006 25.500000000000004 27.500000000000004 417.50000000000006 377.50000000000006
decision_type=2 2 2 2 2 2 2 2 2
left_child=1 5 -3 -4 -5 -1 -7 8 -2
right_child=7 2 3 4 -6 6 -8 -9 -10
leaf_value=0.0040425510771928729 0.0026681881738603542 0.0060138644191226366 -0.0098704438604636374 0.012379214714367412 -0.00022442284949826142 -0.019716270638720747 -0.0033055821032490157 0.0085063118079742508 -0.0095762565954140635
leaf_weight=1750.4574876725674 6749.9770660251379 3050.6801177710295 1807.5889979302883 1376.6317383497953 15980.240286022425 269.80743707716465 14739.686835318804 1818.7098480165005 361.7044280320406
leaf_count=4488 17612 7520 5958 3029 43480 955 42929 4355 1091
internal_value=0 -0.042381 0.0314582 -0.0114245 0.0388417 -0.14026 -0.180243 0.168031 0.10204
internal_weight=0 38975.1 22215.1 19164.5 17356.9 16760 15009.5 8930.39 7111.68
internal_count=131417 108359 59987 52467 46509 48372 43884 23058 18703
shrinkage=0.02


Tree=43
num_leaves=10
num_cat=0
split_feature=20 21 18 14 16 4 8 20 20
split_gain=290.579 210.311 406.601 115.485 103.912 46.4213 41.5243 36.7344 28.4722
threshold=163.50000000000003 60.500000000000007 1.5000000000000002 7.5000000000000009 5.5000000000000009 58.500000000000007 1.0000000180025095e-35 141.50000000000003 327.50000000000006
decision_type=2 2 2 2 2 2 2 2 2
left_child=1 3 -3 6 8 7 -1 -4 -2
right_child=4 2 5 -5 -6 -7 -8 -9 -10
leaf_value=0.0032420906121493603 0.0007314636769013554 0.0013186575898868022 -0.0046229710947442429 0.0039396941116468295 0.0072776105516155071 -0.0073219517028748253 -0.00029813160739077546 0.0019215483039096233 0.0042050411647795143
leaf_weight=1411.0498860180378 2638.4052564650774 6514.4706472158432 5931.045036137104 3280.2508232295513 2318.3635036349297 2879.6632205247879 21085.278053089976 361.19865694642067 1472.8909268677235
leaf_count=3691 7118 17610 17382 8459 5677 8800 57917 969 3794
internal_value=0 -0.033764 -0.125051 0.0217855 0.194665 -0.26071 -0.00377034 -0.21228 0.0989753
internal_weight=0 41463 15686.4 25776.6 6429.66 9171.91 22496.3 6292.24 4111.3
internal_count=131417 114828 44761 70067 16589 27151 61608 18351 10912
shrinkage=0.02


Tree=44
num_leaves=10
num_cat=0
split_feature=20 21 18 14 14 4 8 6 20
split_gain=279.135 202.02 390.622 110.929 89.4046 44.6444 39.8855 36.7292 35.2938
threshold=163.50000000000003 60.500000000000007 1.5000000000000002 7.5000000000000009 5.5000000000000009 58.500000000000007 1.0000000180025095e-35 1623.5000000000002 141.50000000000003
decision_type=2 2 2 2 2 2 2 2 2
left_child=1 3 -3 6 -2 8 -1 -6 -4
right_child=4 2 5 -5 7 -7 -8 -9 -10
leaf_value=0.0031775929813636738 0.0013400772934578195 0.0012922953371703847 -0.0045312702644510908 0.0038614196062777334 0.0053720225255692467 -0.0071788180272669908 -0.00029216990646198967 0.012483304870353379 0.0018834203466941617
leaf_weight=1410.9589003324509 3063.9188080728054 6514.476504907012 5930.1224923580885 3279.8742152005434 3042.0491599440575 2878.4099200516939 21085.282097518444 322.58936236798763 361.20127262175083
leaf_count=3691 8222 17610 17382 8459 7637 8800 57917 730 969
internal_value=0 -0.0330908 -0.122569 0.021351 0.190812 -0.25556 -0.00369429 0.303306 -0.208066
internal_weight=0 41460.3 15684.2 25776.1 6428.56 9169.73 22496.2 3364.64 6291.32
internal_count=131417 114828 44761 70067 16589 27151 61608 8367 18351
shrinkage=0.02


Tree=45
num_leaves=10
num_cat=0
split_feature=0 0 0 0 0 20 1 0 0
split_gain=315.222 582.391 251.433 231.409 273.146 195.248 186.387 173.54 567.178
threshold=201.50000000000003 197.50000000000003 205.50000000000003 25.500000000000004 27.500000000000004 163.50000000000003 1.5000000000000002 458.50000000000006 374.50000000000006
decision_type=2 2 2 2 2 2 2 2 2
left_child=1 3 -2 -1 -5 7 -6 8 -4
right_child=2 -3 5 4 6 -7 -8 -9 -10
leaf_value=0.0044710722629343422 0.016462272496695261 -0.023190839128320217 0.0017319517083426647 -0.01811070379477641 -0.0029260020249289006 0.0052511446832582166 0.002882244349794871 0.0040482224068804735 -0.005556355155402112
leaf_weight=2293.7694565802813 427.32621049880981 504.09867325425148 15101.661638766527 423.89238356053829 12305.103267103434 3859.1386107206345 2690.0865660011768 4373.4605867564678 5951.5770152807236
leaf_count=5816 937 1828 40423 1461 35746 9682 7008 11158 17358
internal_value=0 -0.102837 0.0642218 -0.0725556 -0.11666 0.0530549 -0.0941627 0.0212187 -0.0164303
internal_weight=0 18217 29713.2 17712.9 15419.1 29285.8 14995.2 25426.7 21053.2
internal_count=131417 51859 79558 50031 44215 78621 42754 68939 57781
shrinkage=0.02


Tree=46
num_leaves=10
num_cat=0
split_feature=0 0 0 0 0 20 21 0 0
split_gain=302.836 561.051 241.571 222.301 262.962 187.603 182.164 166.699 544.763
threshold=201.50000000000003 197.50000000000003 205.50000000000003 25.500000000000004 27.500000000000004 163.50000000000003 58.500000000000007 458.50000000000006 374.50000000000006
decision_type=2 2 2 2 2 2 2 2 2
left_child=1 3 -2 -1 -5 7 -6 8 -4
right_child=2 -3 5 4 6 -7 -8 -9 -10
leaf_value=0.0043825412345720981 0.016136794442284851 -0.022785300977261613 0.0016973865236524044 -0.0177809264448032 -7.0928375155666861e-06 0.0051479697364733732 -0.004489401298134593 0.0039679256423876983 -0.0054456690699351161
leaf_weight=2293.3680299371481 427.28725573420525 502.87496258318424 15101.071666121483 423.18186102807522 8845.407794252038 3857.8267017751932 6147.4142437130213 4372.7914418876171 5951.1601869463921
leaf_count=5816 937 1828 40423 1461 24375 9682 18379 11158 17358
internal_value=0 -0.100814 0.0629465 -0.071121 -0.114354 0.052 -0.0922938 0.0207957 -0.0161027
internal_weight=0 18212.2 29710.1 17709.4 15416 29282.8 14992.8 25425 21052.2
internal_count=131417 51859 79558 50031 44215 78621 42754 68939 57781
shrinkage=0.02


Tree=47
num_leaves=10
num_cat=0
split_feature=1 18 0 0 0 0 0 0 0
split_gain=294.586 337.936 358.987 287.265 262.144 181.456 246.478 160.858 224.754
threshold=1.5000000000000002 1.5000000000000002 264.50000000000006 267.50000000000006 308.50000000000006 377.50000000000006 417.50000000000006 241.50000000000003 239.50000000000003
decision_type=2 2 2 2 2 2 2 2 2
left_child=1 2 7 -4 -5 -3 -7 8 -1
right_child=-2 5 3 4 -6 6 -8 -9 -10
leaf_value=-0.001775180255281087 0.0032858237647711455 -0.0023727417376238993 0.012756126846000812 -0.0051727246432762075 0.0031861314763493298 -0.018526852846548113 -0.0043177007343073674 -0.009081691695315388 0.0087963334344424559
leaf_weight=12740.845462754369 8947.8013677597046 8882.8591209948063 1072.5129102915525 1754.3557593226433 10266.435753211379 702.47265993058681 1600.7390915602446 1090.8290205746889 855.54056154191494
leaf_count=36100 23074 25679 2332 5157 26575 2392 4609 3488 2011
internal_value=0 -0.0368827 0.0222045 0.142593 0.0982363 -0.183619 -0.433626 -0.0851057 -0.0553871
internal_weight=0 38966.6 27780.5 13093.3 12020.8 11186.1 2303.21 14687.2 13596.4
internal_count=131417 108343 75663 34064 31732 32680 7001 41599 38111
shrinkage=0.02


Tree=48
num_leaves=10
num_cat=0
split_feature=0 0 0 0 0 20 1 18 0
split_gain=285.464 540.491 232.862 213.085 253.905 176.557 170.613 163.831 217.504
threshold=201.50000000000003 197.50000000000003 205.50000000000003 25.500000000000004 27.500000000000004 138.50000000000003 1.5000000000000002 1.5000000000000002 241.50000000000003
decision_type=2 2 2 2 2 2 2 2 2
left_child=1 3 -2 -1 -5 7 -6 -4 -9
right_child=2 -3 5 4 6 -7 -8 8 -10
leaf_value=0.0043080019211018932 0.015831606334000534 -0.022372535396825297 0.001601531253774437 -0.017462034418590889 -0.0027874045966652635 0.0044405954716790971 0.0027701513509261369 0.0035249900956198029 -0.0035314540380546561
leaf_weight=2292.8929195553064 427.16672646999359 501.4500836879015 14964.230621919036 422.37554049491882 12299.046170428395 4970.7930044978857 2689.7248743027449 2323.3333108574152 7012.3602738380432
leaf_count=5816 937 1828 39779 1461 35746 12610 7008 6028 20204
internal_value=0 -0.0979064 0.061118 -0.0687939 -0.11113 0.0503677 -0.0894675 0.015217 -0.0887068
internal_weight=0 18205.5 29697.9 17704 15411.1 29270.7 14988.8 24299.9 9335.69
internal_count=131417 51859 79558 50031 44215 78621 42754 66011 26232
shrinkage=0.02


Tree=49
num_leaves=10
num_cat=0
split_feature=1 0 0 0 0 0 0 0 0
split_gain=278.115 266.73 239.151 526.736 487.819 183.491 142.719 379.619 132.225
threshold=1.5000000000000002 222.50000000000003 241.50000000000003 264.50000000000006 276.50000000000006 25.500000000000004 46.500000000000007 52.500000000000007 459.50000000000006
decision_type=2 2 2 2 2 2 2 2 2
left_child=1 5 -3 -4 -5 -1 -7 -8 -2
right_child=8 2 3 4 -6 6 7 -9 -10
leaf_value=0.0035508210369970513 0.0023887002459610928 0.0059037804002581643 -0.0104687952616882 0.0097997680940123295 -0.0003177901745854909 -0.008785832700369622 0.018559333919105005 -0.0031766661648721696 0.010563987869016203
leaf_weight=1721.0285742729902 8069.4243621975183 3062.2341394126415 1779.0215611755848 2175.5864306986332 15237.261304885149 1703.3932648003101 326.55872093141079 12945.502263650298 875.62581311166286
leaf_count=4425 21063 7546 5929 5110 41483 5320 727 37803 2011
internal_value=0 -0.0358552 0.0358117 -0.00559833 0.0473719 -0.131384 -0.166936 -0.131866 0.159646
internal_weight=0 38950.6 22254.1 19191.9 17412.8 16696.5 14975.5 13272.1 8945.05
internal_count=131417 108343 60068 52522 46593 48275 43850 38530 23074
shrinkage=0.02


Tree=50
num_leaves=10
num_cat=0
split_feature=0 0 0 0 0 0 0 0 0
split_gain=292.237 606.967 447.083 269.428 601.301 246.477 316.549 226.438 216.479
threshold=264.50000000000006 267.50000000000006 263.50000000000006 316.50000000000006 317.50000000000006 288.50000000000006 287.50000000000006 294.50000000000006 374.50000000000006
decision_type=2 2 2 2 2 2 2 2 2
left_child=2 -2 -1 5 -5 6 -3 -7 -6
right_child=1 3 -4 4 8 7 -8 -9 -10
leaf_value=-0.00092752680336024261 0.012890757502980077 -0.0035567129445335977 -0.016729803610911725 0.025725701671167889 0.0052038106125569883 -0.02105977673079551 0.017566251916571098 -0.0047396876630506216 -0.00015654155485854019
leaf_weight=25663.536744251847 1796.5381800085306 1465.69208329916 733.80736142396927 406.98483720421791 4025.6961297392845 519.94348514080048 348.73380799591541 983.37357233464718 11952.227181717753
leaf_count=71845 3922 4209 2793 706 10059 1819 730 2902 32432
internal_value=0 0.0885919 -0.0684443 0.0377937 0.0904332 -0.221927 0.0261064 -0.520945 0.0597183
internal_weight=0 21499.2 26397.3 19702.7 16384.9 3317.74 1814.43 1503.32 15977.9
internal_count=131417 56779 74638 52857 43197 9660 4939 4721 42491
shrinkage=0.02


Tree=51
num_leaves=10
num_cat=0
split_feature=0 0 0 0 0 0 0 0 0
split_gain=280.805 585.391 431.633 258.89 581.634 236.99 304.386 218.116 207.983
threshold=264.50000000000006 267.50000000000006 263.50000000000006 316.50000000000006 317.50000000000006 288.50000000000006 287.50000000000006 294.50000000000006 374.50000000000006
decision_type=2 2 2 2 2 2 2 2 2
left_child=2 -2 -1 5 -5 6 -3 -7 -6
right_child=1 3 -4 4 8 7 -8 -9 -10
leaf_value=-0.00090900152434291446 0.012677105185218673 -0.0034860570782232225 -0.016468667309694256 0.025367977851472934 0.0051012234448765551 -0.020672501519168576 0.017235993944166417 -0.0046463535160933718 -0.0001534113281540047
leaf_weight=25662.89256708324 1790.3925288170576 1465.5531149059534 730.61402846872807 404.53636054694653 4024.5929490178823 519.15437513589859 348.36867259442806 983.12735339999199 11952.255833104253
leaf_count=71845 3922 4209 2793 706 10059 1819 730 2902 32432
internal_value=0 0.0868727 -0.0670884 0.037051 0.0886513 -0.217603 0.0256128 -0.510939 0.0585287
internal_weight=0 21488 26393.5 19697.6 16381.4 3316.2 1813.92 1502.28 15976.8
internal_count=131417 56779 74638 52857 43197 9660 4939 4721 42491
shrinkage=0.02


Tree=52
num_leaves=10
num_cat=0
split_feature=2 18 21 4 17 21 14 21 21
split_gain=202.445 86.8854 290.676 98.4608 66.1018 65.7647 64.3402 63.4528 60.5221
threshold=326.50000000000006 1.5000000000000002 61.500000000000007 30.500000000000004 9.5000000000000018 47.500000000000007 11.500000000000002 65.500000000000014 250.50000000000003
decision_type=2 2 2 2 2 2 2 2 2
left_child=1 7 4 -4 -3 -2 -6 -1 -7
right_child=5 2 3 -5 6 8 -8 -9 -10
leaf_value=-0.00027523596864570236 0.0062621150650574633 0.00094866360716201227 -0.0023897695853930738 -0.006740439718603523 0.022858075483369895 0.00047212736818444265 0.0042687068855833616 0.0019301634556660747 0.011323266011550035
leaf_weight=19224.806568026543 2424.8859566152096 7231.1989709734917 5933.5540948361158 3212.1845565438271 102.4549273699522 2089.9003430753946 264.09152464568615 7157.8096658736467 225.26550196111202
leaf_count=52877 6026 19436 16934 9766 201 5762 675 19213 527
internal_value=0 -0.0195969 -0.0759362 -0.196009 0.0685818 0.198064 0.481216 0.0161515 0.0771909
internal_weight=0 43126.1 16743.5 9145.74 7597.75 4740.05 366.546 26382.6 2315.17
internal_count=131417 119102 47012 26700 20312 12315 876 72090 6289
shrinkage=0.02


Tree=53
num_leaves=10
num_cat=0
split_feature=1 18 20 14 2 20 4 2 20
split_gain=244.236 345.216 112.378 106.548 96.4785 87.9028 49.1983 46.1669 51.1473
threshold=1.5000000000000002 1.5000000000000002 54.500000000000007 7.5000000000000009 723.50000000000011 327.50000000000006 323.50000000000006 11.500000000000002 152.50000000000003
decision_type=2 2 2 2 2 2 2 2 2
left_child=1 5 3 -3 -2 6 -1 -4 -9
right_child=4 2 7 -5 -6 -7 -8 8 -10
leaf_value=0.00015365867428708012 0.0022138453277148647 -0.0022458546919684979 -0.0025974733719253788 0.0091798758029768453 0.0083935346428347171 0.0067860755400400942 0.0041788848098187536 -0.0059014111013991925 0.0021375824894339394
leaf_weight=25619.109318062663 7777.7400969564915 982.9872948974371 3606.4767700731754 484.87347453832626 1160.5859624296427 872.21709355711937 1272.3365012407303 5754.5735294818878 332.4110649228096
leaf_count=70148 20330 2894 10371 1183 2775 2186 3284 17351 895
internal_value=0 -0.032301 -0.180809 0.0767657 0.150973 0.0274031 0.0172388 -0.219855 -0.273029
internal_weight=0 38925 11161.3 1467.86 8938.33 27763.7 26891.4 9693.46 6086.98
internal_count=131417 108312 32694 4077 23105 75618 73432 28617 18246
shrinkage=0.02


Tree=54
num_leaves=10
num_cat=0
split_feature=0 0 0 0 0 0 0 0 23
split_gain=272.407 233.672 563.38 562.668 249.119 190.001 231.01 145.401 141.671
threshold=229.50000000000003 241.50000000000003 264.50000000000006 267.50000000000006 316.50000000000006 25.500000000000004 27.500000000000004 263.50000000000006 54.500000000000007
decision_type=2 2 2 2 2 2 2 2 2
left_child=5 -2 7 -4 -5 -1 -7 -3 -8
right_child=1 2 3 4 -6 6 8 -9 -10
leaf_value=0.0037831861248585137 0.006594795320417836 -0.0052813361246315206 0.012447740372666993 -0.004273724120160795 0.0017364190636101932 -0.016954988351132766 -0.0003172744521355061 -0.016208657947278965 -0.0038297827870412749
leaf_weight=2284.9267470538616 3042.2287614494562 1486.0998306125402 1783.2573593854904 3314.1317705661058 16375.479340046644 418.91004292666912 9687.1440698057413 727.21803137660027 8739.5093080848455
leaf_count=5828 7390 4472 3922 9660 43197 1452 26841 2793 25862
internal_value=0 0.0689725 0.0354296 0.0849751 0.0361999 -0.0829493 -0.115982 -0.444573 -0.0991943
internal_weight=0 26728.4 23686.2 21472.9 19689.6 21130.5 18845.6 2213.32 18426.7
internal_count=131417 71434 64044 56779 52857 59983 54155 7265 52703
shrinkage=0.02


Tree=55
num_leaves=10
num_cat=0
split_feature=0 0 0 0 21 0 0 0 0
split_gain=251.764 257.736 514.032 545.22 227.738 215.516 160.756 154.111 151.945
threshold=229.50000000000003 241.50000000000003 264.50000000000006 267.50000000000006 32.500000000000007 316.50000000000006 25.500000000000004 27.500000000000004 263.50000000000006
decision_type=2 2 2 2 2 2 2 2 2
left_child=4 -2 8 -4 -1 -5 -6 -8 -3
right_child=1 2 3 5 6 -7 7 -9 -10
leaf_value=0.0013412367769076391 0.0067494961986802535 -0.0049009745314800681 0.012105269166177365 -0.004093258683265477 0.0030216350253809334 0.0014963845608748237 -0.017808482394062283 -0.0034831564540352172 -0.016025698138257417
leaf_weight=6841.6733301430941 3033.7466759830713 1503.5709423273802 1779.0630388110876 3317.4780061990023 1530.971161916852 16311.188509687781 305.27632220089436 12447.069159403443 731.34259893000126
leaf_count=18455 7346 4513 3935 9661 3953 43134 1079 36517 2824
internal_value=0 0.0632165 0.0279736 0.0756468 -0.0829091 0.0275441 -0.154765 -0.191533 -0.428033
internal_weight=0 26676.4 23642.6 21407.7 21125 19628.7 14283.3 12752.3 2234.91
internal_count=131417 71413 64067 56730 60004 52795 41549 37596 7337
shrinkage=0.02


Tree=56
num_leaves=10
num_cat=0
split_feature=20 21 18 20 16 5 8 16 21
split_gain=220.632 137.207 259.017 117.467 104.432 54.6235 53.9275 47.7822 35.3392
threshold=337.50000000000006 64.500000000000014 1.5000000000000002 149.50000000000003 7.5000000000000009 30.500000000000004 1.0000000180025095e-35 11.500000000000002 34.500000000000007
decision_type=2 2 2 2 2 2 2 2 2
left_child=1 4 -3 5 6 -4 -1 -2 -6
right_child=7 2 3 -5 8 -7 -8 -9 -10
leaf_value=0.003472838974607601 0.0040752055099841211 0.0011029799927715078 -0.0032987230540539652 0.0029350348569990247 0.0055769831869428386 -0.0065359104766122738 -0.00021434359292137417 0.010365462257318164 0.0015560853373831726
leaf_weight=1698.2594607174397 1880.962114289403 7029.0506714880466 4901.7114301770926 890.68144223093987 1882.7043637037277 3659.0654948651791 23542.403880044818 654.2229561060667 1645.6546342074871
leaf_count=4420 4826 19073 14232 2341 4722 11190 64692 1525 4396
internal_value=0 -0.0174285 -0.0901781 -0.198273 0.0242412 -0.234244 0.00169427 0.285557 0.185311
internal_weight=0 45249.5 16480.5 9451.46 28769 8560.78 25240.7 2535.19 3528.36
internal_count=131417 125066 46836 27763 78230 25422 69112 6351 9118
shrinkage=0.02


Tree=57
num_leaves=10
num_cat=0
split_feature=0 0 0 0 21 0 0 0 0
split_gain=242.173 249.409 494.189 524.68 215.64 207.139 154.052 149.244 147.272
threshold=229.50000000000003 241.50000000000003 264.50000000000006 267.50000000000006 32.500000000000007 316.50000000000006 25.500000000000004 27.500000000000004 263.50000000000006
decision_type=2 2 2 2 2 2 2 2 2
left_child=4 -2 8 -4 -1 -5 -6 -8 -3
right_child=1 2 3 5 6 -7 7 -9 -10
leaf_value=0.0012926769670560802 0.0066382655547761737 -0.0048049741845955733 0.011893809598554506 -0.0040138754683378937 0.0029637210061078988 0.0014666309014877328 -0.017517089581741977 -0.0034030917478916657 -0.015775349118107206
leaf_weight=6841.4854635447264 3032.1515673696995 1502.8670449703932 1772.4201663285494 3316.7304817140102 1530.7068234235048 16309.091153860092 304.5323166847229 12442.703245073557 727.92589776217937
leaf_count=18455 7346 4513 3935 9661 3953 43134 1079 36517 2824
internal_value=0 0.0620518 0.0273719 0.074097 -0.0812922 0.0269829 -0.151235 -0.187239 -0.420188
internal_weight=0 26661.2 23629 21398.2 21119.4 19625.8 14277.9 12747.2 2230.79
internal_count=131417 71413 64067 56730 60004 52795 41549 37596 7337
shrinkage=0.02


Tree=58
num_leaves=10
num_cat=0
split_feature=20 21 18 20 16 8 5 16 21
split_gain=211.645 131.118 249.334 112.657 100.521 51.4105 49.857 46.0313 33.3289
threshold=337.50000000000006 64.500000000000014 1.5000000000000002 148.50000000000003 7.5000000000000009 1.0000000180025095e-35 30.500000000000004 11.500000000000002 34.500000000000007
decision_type=2 2 2 2 2 2 2 2 2
left_child=1 4 -3 6 5 -1 -4 -2 -6
right_child=7 2 3 -5 8 -7 -8 -9 -10
leaf_value=0.003390074498112107 0.0039903744780908079 0.0010885536408628302 -0.0032746205662921345 0.0027615230314021917 0.0054525070191277425 -0.00021096132545628176 -0.0063737027545929751 0.010167558180615271 0.0015463579473551316
leaf_weight=1697.3584499806166 1879.6598878651857 7025.8307029157877 4881.3881129026413 917.69062651693821 1881.747882694006 23535.239233344793 3646.5205359011889 653.48838475346565 1644.907030493021
leaf_count=4420 4826 19073 14186 2418 4722 64692 11159 1525 4396
internal_value=0 -0.017045 -0.0881843 -0.194277 0.0236934 0.00157057 -0.230113 0.279822 0.181758
internal_weight=0 45230.7 16471.4 9445.6 28759.3 25232.6 8527.91 2533.15 3526.65
internal_count=131417 125066 46836 27763 78230 69112 25345 6351 9118
shrinkage=0.02


Tree=59
num_leaves=10
num_cat=0
split_feature=0 0 0 0 21 0 0 0 0
split_gain=232.954 241.351 475.127 504.931 204.178 199.096 147.627 144.546 142.755
threshold=229.50000000000003 241.50000000000003 264.50000000000006 267.50000000000006 32.500000000000007 316.50000000000006 25.500000000000004 27.500000000000004 263.50000000000006
decision_type=2 2 2 2 2 2 2 2 2
left_child=4 -2 8 -4 -1 -5 -6 -8 -3
right_child=1 2 3 5 6 -7 7 -9 -10
leaf_value=0.0012455966607509657 0.0065289223789219263 -0.0047109481092734978 0.011686271067755723 -0.0039361468958986614 0.0029068522984416006 0.0014374787032535238 -0.017232084419105391 -0.0033249177007481797 -0.015529743403550667
leaf_weight=6841.2611499726772 3030.5223858803511 1502.1550158262253 1765.7916702628136 3315.9573599249125 1530.436143502593 16306.955621927977 303.7603103518486 12438.289525523782 724.49179838597775
leaf_count=18455 7346 4513 3935 9661 3953 43134 1079 36517 2824
internal_value=0 0.0609089 0.026783 0.0725793 -0.0797086 0.0264327 -0.147788 -0.183045 -0.412497
internal_weight=0 26645.9 23615.4 21388.7 21113.7 19622.9 14272.5 12742 2226.65
internal_count=131417 71413 64067 56730 60004 52795 41549 37596 7337
shrinkage=0.02


Tree=60
num_leaves=10
num_cat=0
split_feature=0 0 0 0 0 0 21 0 0
split_gain=243.299 206.972 489.41 507.742 421.641 234.651 195.657 131.946 140.794
threshold=229.50000000000003 241.50000000000003 264.50000000000006 276.50000000000006 284.50000000000006 275.50000000000006 32.500000000000007 263.50000000000006 246.50000000000003
decision_type=2 2 2 2 2 2 2 2 2
left_child=6 -2 7 5 -5 -4 -1 8 -3
right_child=1 2 3 4 -6 -7 -8 -9 -10
leaf_value=0.0012682872072602943 0.0062975308546881492 -0.015630528354666294 0.0074004789592805476 -0.018931677966983751 0.00094289089186489026 0.024623036920971224 -0.0028459189751347076 -0.015405768900373965 -0.0013120214345373662
leaf_weight=6830.6205133795738 3007.657398506999 362.89989563822746 2329.2155647575855 434.11732645332813 18384.28876543045 364.92778912186623 14287.584446415305 704.70193432271481 1109.2477561831474
leaf_count=18412 7305 1217 5604 1467 49120 731 41579 2762 3220
internal_value=0 0.0678901 0.0364836 0.0822355 0.0240573 0.488017 -0.0757458 -0.41501 -0.243518
internal_weight=0 26697.1 23689.4 21512.5 18818.4 2694.14 21118.2 2176.85 1472.15
internal_count=131417 71426 64121 56922 50587 6335 59991 7199 4437
shrinkage=0.02


Tree=61
num_leaves=10
num_cat=0
split_feature=0 0 0 0 0 21 0 0 0
split_gain=233.714 198.922 470.824 489.473 195.656 187.947 128.024 135.52 120.128
threshold=229.50000000000003 241.50000000000003 264.50000000000006 267.50000000000006 458.50000000000006 32.500000000000007 263.50000000000006 246.50000000000003 25.500000000000004
decision_type=2 2 2 2 2 2 2 2 2
left_child=5 -2 6 -4 -5 -1 7 -3 -7
right_child=1 2 3 4 -6 8 -8 -9 -10
leaf_value=0.0012429236300925523 0.0061752360157507659 -0.015341085197279437 0.011668144691285113 -0.00043809810149577423 0.0041691726855095628 0.0025063428750914918 -0.015170562709525801 -0.0012860003352135798 -0.0034241160470583438
leaf_weight=6830.6699585616589 3005.9533690959215 362.41335318982601 1773.3660605251789 14832.350591808558 4902.684673294425 1526.6898754686117 701.39514300227165 1109.1205366551876 12758.430220752954
leaf_count=18412 7305 1217 3956 40538 12428 3963 2762 3220 37616
internal_value=0 0.0665544 0.0357623 0.0806089 0.035331 -0.0742395 -0.407506 -0.238788 -0.139475
internal_weight=0 26687.3 23681.3 21508.4 19735 21115.8 2172.93 1471.53 14285.1
internal_count=131417 71426 64121 56922 52966 59991 7199 4437 41579
shrinkage=0.02


Tree=62
num_leaves=10
num_cat=0
split_feature=0 0 0 0 0 0 0 0 0
split_gain=224.527 191.175 452.97 475.442 404.317 228.956 163.325 164.714 161.628
threshold=229.50000000000003 241.50000000000003 264.50000000000006 276.50000000000006 284.50000000000006 275.50000000000006 25.500000000000004 4.5000000000000009 27.500000000000004
decision_type=2 2 2 2 2 2 2 2 2
left_child=6 -2 -3 5 -5 -4 7 -1 -8
right_child=1 2 3 4 -6 -7 8 -9 -10
leaf_value=-0.0060778819878510104 0.0060553660625130273 -0.0080029394062053928 0.0071083960338809574 -0.018560664582214673 0.00090829895685957257 0.024116567915659481 -0.0143175317210388 0.006548519637722061 -0.0017882743162697555
leaf_weight=537.27972626686096 3004.226125895977 2168.9698930829763 2319.151829585433 433.79732419550419 18382.893163904548 365.33113066852093 418.51356379687786 1754.4429289549589 18402.187910467386
leaf_count=1544 7305 7199 5604 1467 49120 731 1439 4302 52706
internal_value=0 0.0652538 0.0350612 0.0790272 0.0228129 0.47248 -0.0727659 0.179082 -0.103472
internal_weight=0 26674.4 23670.1 21501.2 18816.7 2684.48 21112.4 2291.72 18820.7
internal_count=131417 71426 64121 56922 50587 6335 59991 5846 54145
shrinkage=0.02


Tree=63
num_leaves=10
num_cat=0
split_feature=1 18 0 0 0 0 0 0 20
split_gain=225.352 308.754 235.474 204.408 200.399 135.582 244.204 122.528 303.365
threshold=1.5000000000000002 1.5000000000000002 264.50000000000006 267.50000000000006 308.50000000000006 377.50000000000006 417.50000000000006 219.50000000000003 59.500000000000007
decision_type=2 2 2 2 2 2 2 2 2
left_child=1 2 -1 -4 -5 7 -7 8 -3
right_child=-2 5 3 4 -6 6 -8 -9 -10
leaf_value=-0.0011884957359254448 0.0029563145324230529 0.0064525317222799694 0.010968281355871759 -0.004464901686314914 0.0028282618759177085 -0.017671437790708337 -0.003455018826933024 0.00010700925522387256 -0.0070936366434942036
leaf_weight=14645.354423463345 8888.4327824562788 806.97058993577957 1046.3955198228359 1761.4731416255236 10315.704164713621 686.85489220917225 1626.3179149031639 4396.2959533929825 3600.9387042373419
leaf_count=41482 22998 2078 2355 5169 26727 2337 4650 12278 11343
internal_value=0 -0.0286475 0.0277265 0.124998 0.0881601 -0.169454 -0.384817 -0.112725 -0.230482
internal_weight=0 38886.3 27768.9 13123.6 12077.2 11117.4 2313.17 8804.21 4407.91
internal_count=131417 108419 75733 34251 31896 32686 6987 25699 13421
shrinkage=0.02


Tree=64
num_leaves=10
num_cat=0
split_feature=1 18 0 0 0 0 0 0 0
split_gain=216.472 296.662 226.238 197.395 192.503 133.122 338.868 128.314 117.482
threshold=1.5000000000000002 1.5000000000000002 264.50000000000006 267.50000000000006 308.50000000000006 276.50000000000006 275.50000000000006 304.50000000000006 219.50000000000003
decision_type=2 2 2 2 2 2 2 2 2
left_child=1 2 -1 -4 -5 6 8 -7 -3
right_child=-2 5 3 4 -6 7 -8 -9 -10
leaf_value=-0.0011647892708929375 0.0028976797131023053 -0.0045204616200319398 0.010789187466309674 -0.0043766482621800263 0.0027720458497001586 -0.020231763499020332 0.023884035936661659 -0.0054050664507563628 0.00071374845149886732
leaf_weight=14644.627024382353 8887.0005056709051 4404.9944556504488 1042.5782813578844 1761.1168003082275 10314.478232115507 248.40978261828423 197.34764811396599 3458.882915943861 2803.7700961083174
leaf_count=41482 22998 13421 2355 5169 26727 879 398 10138 7850
internal_value=0 -0.0280828 0.0271794 0.122552 0.0864074 -0.166132 -0.0885783 -0.320786 -0.12422
internal_weight=0 38876.2 27762.8 13118.2 12075.6 11113.4 7406.11 3707.29 7208.76
internal_count=131417 108419 75733 34251 31896 32686 21669 11017 21271
shrinkage=0.02


Tree=65
num_leaves=10
num_cat=0
split_feature=20 0 0 0 0 0 0 0 0
split_gain=222.707 166.752 429.35 275.827 209.436 461.098 233.073 153.328 1090.94
threshold=249.50000000000003 458.50000000000006 446.50000000000006 505.50000000000006 495.50000000000006 496.50000000000006 468.50000000000006 374.50000000000006 369.50000000000006
decision_type=2 2 2 2 2 2 2 2 2
left_child=1 2 7 4 6 -6 -3 8 -1
right_child=-2 3 -4 -5 5 -7 -8 -9 -10
leaf_value=-0.00057558374257291034 0.0045759150567594451 0.010550885434004812 -0.01775965347605122 -0.0043381821556948827 0.028452185194132347 0.0029484693533799052 -0.0032714571217952728 -0.0036329600795765929 0.027093927439321853
leaf_weight=32391.097423940897 3828.2424322068691 828.0521184951067 590.17710338532925 1368.0929769277573 466.7576185464859 718.93903540074825 1178.635669067502 5728.4033919423819 577.18480485677719
leaf_count=90626 9739 1914 2004 3900 814 1835 3246 16307 1032
internal_value=0 -0.0226153 -0.0436354 0.15831 0.319256 0.651985 0.121827 -0.0306824 -0.00442814
internal_weight=0 43847.3 39286.9 4560.48 3192.38 1185.7 2006.69 38696.7 32968.3
internal_count=131417 121678 109969 11709 7809 2649 5160 107965 91658
shrinkage=0.02


Tree=66
num_leaves=10
num_cat=0
split_feature=20 0 0 0 0 0 0 0 0
split_gain=213.942 160.224 413.02 265.058 201.488 444.233 224.028 147.266 1049.73
threshold=249.50000000000003 458.50000000000006 446.50000000000006 505.50000000000006 495.50000000000006 496.50000000000006 468.50000000000006 374.50000000000006 369.50000000000006
decision_type=2 2 2 2 2 2 2 2 2
left_child=1 2 7 4 6 -6 -3 8 -1
right_child=-2 3 -4 -5 5 -7 -8 -9 -10
leaf_value=-0.00056407772812935126 0.0044856668076374917 0.010348248994243863 -0.017428718304178196 -0.0042514374722336309 0.027938373214735392 0.0028903433310708778 -0.003205479744856533 -0.003560400774343866 0.026600403345943775
leaf_weight=32390.837936103344 3827.2291220724583 827.44625736773014 589.42021188139915 1368.1477383822203 465.89847593009472 718.79114790260792 1178.8963335156441 5728.305037483573 576.20090071856976
leaf_count=90626 9739 1914 2004 3900 814 1835 3246 16307 1032
internal_value=0 -0.0221615 -0.0427646 0.155214 0.313046 0.639581 0.11942 -0.0300677 -0.00433676
internal_weight=0 43843.9 39284.8 4559.18 3191.03 1184.69 2006.34 38695.3 32967
internal_count=131417 121678 109969 11709 7809 2649 5160 107965 91658
shrinkage=0.02


Tree=67
num_leaves=10
num_cat=0
split_feature=20 0 0 0 0 0 0 0 0
split_gain=205.523 153.958 397.367 254.725 193.89 428.236 215.343 141.445 1010.4
threshold=249.50000000000003 458.50000000000006 446.50000000000006 505.50000000000006 495.50000000000006 496.50000000000006 468.50000000000006 374.50000000000006 369.50000000000006
decision_type=2 2 2 2 2 2 2 2 2
left_child=1 2 7 4 6 -6 -3 8 -1
right_child=-2 3 -4 -5 5 -7 -8 -9 -10
leaf_value=-0.00055280169912689679 0.0043972186550509289 0.010149911143105417 -0.017106152017657264 -0.0041664678012967461 0.027443682998725835 0.0028333627765188057 -0.0031408637606621381 -0.0034893117008601487 0.026124377065934092
leaf_weight=32390.578858584166 3826.1987506747246 826.80810925364494 588.58894629776478 1368.1889422237873 464.87487825751305 718.64317531883717 1179.1457329839468 5728.1721271425486 575.03240063786507
leaf_count=90626 9739 1914 2004 3900 814 1835 3246 16307 1032
internal_value=0 -0.021717 -0.0419115 0.152186 0.306979 0.627504 0.117064 -0.0294654 -0.00424721
internal_weight=0 43840 39282.4 4557.66 3189.47 1183.52 2005.95 38693.8 32965.6
internal_count=131417 121678 109969 11709 7809 2649 5160 107965 91658
shrinkage=0.02


Tree=68
num_leaves=10
num_cat=0
split_feature=20 0 0 0 0 0 0 0 0
split_gain=197.436 151.624 482.246 239.92 148.551 231.938 136.306 877.698 763.263
threshold=249.50000000000003 201.50000000000003 200.50000000000003 205.50000000000003 15.500000000000002 8.5000000000000018 374.50000000000006 369.50000000000006 417.50000000000006
decision_type=2 2 2 2 2 2 2 2 2
left_child=1 2 4 -3 5 -1 7 -5 -8
right_child=-2 3 -4 6 -6 -7 8 -9 -10
leaf_value=-0.002387236207045903 0.004310532154387473 0.015631410058302174 -0.02430504946355808 0.00053015011022802534 -0.0019905066115263686 0.014107493161161902 -0.010552983985138153 0.025664747550896858 0.0016244412508894335
leaf_weight=773.44704011082649 3825.1531361341476 409.55573101341724 373.54892632365227 15312.206421136856 14916.410902604461 605.15094499289989 2755.105223685503 573.69109924137592 8116.5243058353662
leaf_count=2133 9739 904 1410 41828 43012 1339 8543 1032 21477
internal_value=0 -0.0212815 -0.0963596 0.0247777 -0.0704726 0.243194 0.0130966 0.0721447 -0.0731544
internal_weight=0 43835.6 16668.6 27167.1 16295 1378.6 26757.5 15885.9 10871.6
internal_count=131417 121678 47894 73784 46484 3472 72880 42860 30020
shrinkage=0.02


Tree=69
num_leaves=10
num_cat=0
split_feature=20 0 0 0 0 0 0 0 0
split_gain=190.097 158.175 467.98 248.884 139.64 219.699 123.984 846.279 766.043
threshold=337.50000000000006 201.50000000000003 197.50000000000003 205.50000000000003 15.500000000000002 8.5000000000000018 374.50000000000006 369.50000000000006 417.50000000000006
decision_type=2 2 2 2 2 2 2 2 2
left_child=1 2 4 -3 5 -1 7 -5 -8
right_child=-2 3 -4 6 -6 -7 8 -9 -10
leaf_value=-0.0022368818649941653 0.0052847302289741041 0.015807957849897986 -0.021357340577637988 0.00058733932722002363 -0.0018535517770008547 0.013633665323923058 -0.010303858089960278 0.025181575228294558 0.0017486588131048991
leaf_weight=794.38920617103577 2532.0853719860315 420.00408142805099 475.5620005428791 15748.121302574873 15252.392906636 617.45934754610062 2810.4307556003332 577.29636767506599 8425.3016934394836
leaf_count=2187 6349 920 1753 42956 43897 1371 8708 1042 22234
internal_value=0 -0.0171861 -0.092832 0.0291449 -0.0648013 0.235696 0.0174485 0.0730935 -0.0633744
internal_weight=0 45121 17139.8 27981.2 16664.2 1411.85 27561.2 16325.4 11235.7
internal_count=131417 125068 49208 75860 47455 3558 74940 43998 30942
shrinkage=0.02


Tree=70
num_leaves=10
num_cat=0
split_feature=1 18 20 16 15 21 3 6 3
split_gain=188.847 300.298 104.711 81.8612 79.5687 71.0368 44.8178 44.5609 40.055
threshold=1.5000000000000002 1.5000000000000002 58.500000000000007 5.5000000000000009 9.5000000000000018 334.50000000000006 121.50000000000001 70.500000000000014 72.500000000000014
decision_type=2 2 2 2 2 2 2 2 2
left_child=1 5 4 -2 7 8 -6 -3 -1
right_child=3 2 -4 -5 6 -7 -8 -9 -10
leaf_value=-2.2500757471870022e-05 0.0012835147485707452 0.00041936812454448409 -0.0042130009127431802 0.0053726815044752921 0.020644333422844108 0.0062371068685968976 0.0050579285775267388 -0.0091834725051531917 0.0020330077390032886
leaf_weight=22299.217195883393 5991.3872322440147 978.2334007024765 9389.5968972295523 2912.2310593277216 91.001027181744576 836.02137385308743 368.966736510396 237.52207036316395 4564.7109817564487
leaf_count=61340 15876 2791 27934 7227 186 2100 953 785 12225
