tree
version=v3
num_class=1
num_tree_per_iteration=1
label_index=0
max_feature_idx=23
objective=binary sigmoid:1
feature_names=Column_0 Column_1 Column_2 Column_3 Column_4 Column_5 Column_6 Column_7 Column_8 Column_9 Column_10 Column_11 Column_12 Column_13 Column_14 Column_15 Column_16 Column_17 Column_18 Column_19 Column_20 Column_21 Column_22 Column_23
feature_infos=[1:532] [1:1599] [0:1928985] [0:1928985] [0:1928985] [0:1928985] [0:1928600] [0:1928600] [0:1928600] [0:1928600] [0:971309] [0:959433] [0:971288] [0:959433] [0:9578] [0:300] [0:300] [0:300] [0:1599] [0:264] [0:406368] [0:24903] [0:65536] [0:24903]
tree_sizes=1189 1185 1183 1197 1198 1196 1192 1188 1190 1193 1187 1200 1188 1192 1179 1190 1192 1197 1186 1191 1182 1181 1192 1190 1189 1193 1193 1197 1190 1183 1198 1194 1184 1187 1193 1187 1193 1188 1189 1188 1192 1191 1195 1199 1194 1198 1192 1199 1192 1195 1200 1185 1200 1192 1185 1193 1192 1185 1188 1191 1190 1192 1195 1195 1192 1191 1190 1179 1192 1193 1211 1187 1189 1194 1192 1201 1189 1190 1179 1186 1193 1192 1191 1197 1191 1187 1189 1197 1187 1190 1197 1198 1191 1206 1197 1200 1197 1190 1199 1185 1193 1197 1213 1191 1190 1185 1186 1207 1186 1186 1181 1195 1188 1179 1189 1195 1194 1197 1190 1196 1194 1201 1197 1198 1189 1188 1184 1181 1199 1184 1183 1202 1197 1186 1198 1185 1180 1201 1192 1192 1191 1193 1193 1195 1199 1188 1182 1202 1191 1197 1196 1194 1185 1203 1194 1190 1185 1205 1187 1189 1196 1196 1197 1185 1199 1201 1191 1193 1203 1193 1187 1184 1185 1185 1187 1212 1189 1193 1193 1195 1198 1206 1196 1195 1191 1180 1189 1200 1192 1198 1193 1191 1196 1194 1197 1186 1212 1218 1183 1188 1211 1195 1186 1189 1215 1182 1191 1196 1195 1195 1210 1202 1191 1196 1185 1188 1187 1189 1193 1188 1208 1209 1192 1210 1193 1187 1218 1201 1193 1210 1192 1196 1198 1192 1193 1193 1186 1189 1193 1195 1192 1194 1194 1190 1187 1195 1187 1191 1209 1189 1205 1194 1197 1192 1194 1191 1196 1209 1192 1198 1183 1190 1180 1191 1187 1188 1188 1189 1188 1182 1184 1199 1192 1196 1178 1190 1197 1194 1211 1206 1188 1202 1192 1190 1192 1195 1192 1175 1181 1197 1187 1198 1203 1192 1190 1191 1201 1190 1195 1192 1194 1193 1184 1202 1189 1189 1191 1210 1187 1182 1193 1186 1193 1190 1188 1190 1188 1185 1198 1185 1187 1189 1193 1197 1196 1188 1183 1187 1197 1194 1192 1188 1187 1191 1185 1194 1190 1192 1193 1196 1192 1216 1205 1188 1197 1189 1189 1189 1195 1205 1191 1187 1197 1193 1191 1201 1189 1187 1209 1200 1198 1213 1201 1178 1178 1192 1187 1195 1187 1185 1198 1177 1196 1191 1200 1195 1200 1189 1203 1202 1199 1185 1193 1187 1191 1189 1211 1184 1182 1194 1202 1190 1193 1191 1194 1184 1189 1209 1189 1212 1182 1193 1178 1190 1195 1190 1180 1178 1180 1180 1196 1193 1198 1185 1196 1205 1195 1187 1198 1204 1192 1185 1195 1180 1192 1188 1188 1181 1179 1184 1191 1190 1199 1192 1194 1197 1196 1199 1195 1198 1190 1178 1176 1177 1191 1196 1200 1189 1200 1195 1198 1191 1190 1189 1191 1195 1193 1189 1188 1189 1197 1194 1193 1193 1194 1207 1190 1184 1194 1190 1195 1196 1204 1191 1197 1195 1186 1184 1196 1188 1194 1183 1184 1190 1188 1200 1199 1195 1198 1191 1179 1188 1188 1186 1190 1191 1193 1187 1192 1196 1195 1194 1192 1197 1194 1191 1191 1186 1194 1193 1195 1194 1170 1189 1188 1192 1169 1189 1185 1192 1172 1190 1190 1185 1189 1178 1196 1198 1191 1191 1205 1191 1192 1210 1194 1200 1193 1203 1198 1199 1186 1189 1181 1185 1180 1199 1193 1190 1200 1192 1191 1189 1194 1194 1198 1187 1182 1188 1182 1187 1188 1189 1197 1174 1198 1216 1188 1183 1188 1207 1185 1185 1185 1179 1185 1187 1185 1187 1193 1190 1186 1197 1198 1193 1191 1190 1196 1162 1177 1193 1196 1175 1190 1189 1195 1174 1195 1196 1191 1197 1191 1199 1191 1196 1193 1203 1203 1202 1196 1192 1192 1192 1186 1195 1193 1186 1190 1190 1189 1200 1177 1184 1172 1183 1194 1172 1186 1196 1175 1175 1194 1196 1194 1190 1197 1184 1183 1191 1186 1186 1188 1192 1195 1201 1192 1184 1183 1211 1191 1187 1184 1181 1186 1177 1187 1176 1183 1198 1185 1183 1190 1187 1184 1199 1194 1186 1185 1186 1182 1188 1193 1184 1191 1209 1188 1161 1179 1182 1175 1181 1196 1190 1190 1192 1196 1185 1187 1188 1182 1188 1203 1155 1200 1193 1181 1189 1192 1195 1193 1198 1161 1166 1167 1188 1198 1186 1193 1185 1192 1191 1164 1161 1166 1166 1166 1201 1201 1208 1207 1204 1187 1190 1193 1190 1195 1208 1179 1179 1194 1175 1190 1198 1192 1199 1200 1175 1183 1164 1153 1188 1191 1197 1190 1190 1199 1184 1181 1182 1170 1177 1189 1196 1203 1190 1193 1164 1176 1172 1194 1184 1170 1170 1171 1189 1190 1192 1194 1188 1193 1194 1184 1178 1178 1154 1180 1197 1194 1192 1192 1191 1193 1193 1199 1193 1198 1186 1187 1143 1173 1191 1192 1201 1201 1193 1204 1189 1191 1193 1195 1195 1169 1190 1195 1156 1199 1175 1173 1182 1168 1179 1193 1198 1210 1195 1205 1178 1180 1188 1188 1173 1182 1183 1171 1180 1197 1194 1179 1183 1193 1178 1182 1185 1158 1175 1185 1190 1191 1198 1188 1204 1173 1200 1188 1183 1195 1175 1177 1196 1198 1184 1199 1205 1204 1197 1195 1164 1193 1197 1187 1193 1169 1147 1194 1177 1166 1194 1201 1186 1196 1186 1179 1180 1185 1186 1188 1201 1208 1201 1197 1206 1193 1195 1194 1196 1193 1192 1182 1195 1157 1179 1188 1194 1194 1191 1198 1176 1157 1171 1177 1194 1172 1173 1167 1169 1169 1191 1182 1187 1193 1193 1194 1197 1194 1184 1191 1197 1183 1176 1198 1177 1183 1200 1174 1200 1185 1200 1189 1193 1190 1194 1180 1191 1196 1180 1182 1201 1199 1168 1164 1157 1180 1203 1172 1179 1185 1193 1190 1191 1189 1195 1186 1195 1204 1182 1182 1165 1192 1188 1177 1189 1171 1175 1175 1174 1173 1187 1182 1176 1176 1184 1193 1186 1180 1179 1184 1193 1192 1191 1190 1174 1189 1190 1185 1179 1185 1194 1202 1174 1168 1193 1191 1185 1185 1194 1188 1182 1179 1177 1176 1176 1177 1176 1183 1180 1181 1189 1188 1187 1183 1188 1194 1163 1166 1178 1178 1174 1183 1174 1181 1192 1188 1197 1190 1198 1191 1204 1183 1196 1192 1187 1192 1196 1201 1187 1195 1194 1190 1191 1179 1192 1193 1200 1186 1191 1195 1197 1175 1189 1204 1192 1179 1184 1182 1198 1184 1190 1201 1198 1196 1192 1182 1181 1178 1182 1169 1183 1180 1186 1189 1181 1177 1189 1183 1163 1183 1179 1185 1180 1153 1149 1161 1190 1177 1175 1184 1210 1191 1195 1200 1193 1185 1170 1191 1188 1166 1171 1166 1172 1169 1173 1181 1190 1185 1171 1178 1171 1198 1196 1176 1185 1189 1199 1192 1197 1193 1193 1189 1196 1181 1191 1197 1192 1198 1184 1185 1200 1188 1205 1190 1192 1181 1179 1182 1169 1200 1182 1178 1183 1183 1187 1181 1184 1180 1172 1181 1180 1190 1178 1176 1192 1148 1174 1185 1188 1179 1174 1179 1171 1174 1174 1186 1188 1175 1169 1174 1198 1190 1195 1174 1193 1172 1177 1173 1188 1176 1171 1194 1172 1202 1192 1181 1189 1185 1190 1185 1166 1163 1162 1211 1156 1185 1185 1183 1188 1174 1204 1211 1203 1195 1201 1181 1182 1166 1192 1163 1182 1168 1185 1191 1183 1188 1171 1186 1186 1178 1185 1177 1185 1184 1174 1206 1189 1168 1206 1175 1195 1191 1188 1203 1175 1176 1175 1182 1181 1186 1132 1172 1182 1164 1173 1191 1164 1164 1170 1186 1184 1165 1186 1182 1169 1176 1187 1190 1173 1192 1197 1196 1194 1199 1198 1195 1195 1190 1188 1178 1190 1192 1189 1180 1186 1171 1196 1183 1189 1192 1189 1193 1188 1187 1190 1192 1188 1195 1186 1196 1173 1177 1169 1175 1173 1182 1182 1179 1192 1182 1145 1178 1154 1172 1171 1202 1190 1201 1192 1188 1178 1187 1184 1183 1180 1183 1173 1196 1199 1188 1187 1183 1183 1184 1184 1193 1198 1183 1213 1204 1173 1183 1179 1177 1176 1178 1186 1181 1182 1175 1199 1198 1192 1193 1202 1186 1185 1182 1181 1184 1176 1192 1184 1189 1180 1185 1172 1162 1163 1159 1175 1193 1177 1188 1170 1176 1181 1177 1185 1177 1188 1183 1195 1181 1186 1186 1187 1181 1177 1188 1178 1176 1187 1179 1183 1200 1180 1184 1193 1181 1191 1178 1168 1178 1167 1183 1177 1184 1182 1183 1186 1163 1163 1174 1151 1162 1192 1189 1183 1161 1198 1180 1187 1190 1197 1156 1169 1176 1177 1180 1190 1180 1190 1186 1193 1196 1190 1190 1193 1180 1197 1178 1204 1188 1201 1197 1188 1196 1193 1191 1196 1204 1192 1202 1195 1193 1199 1189 1197 1192 1192 1207 1185 1205 1197 1171 1180 1175 1167 1170 1192 1197 1191 1188 1192 1189 1190 1193 1192 1191 1187 1191 1189 1183 1171 1202 1177 1159 1146 1203 1180 1187 1179 1175 1195 1185 1201 1186 1191 1185 1190 1195 1186 1192 1190 1182 1189 1182 1180 1186 1192 1172 1179 1186 1184 1176 1179 1176 1177 1181 1192 1193 1170 1191 1204 1193 1188 1189 1173 1190 1187 1176 1187 1182 1174 1179 1187 1188 1183 1174 1189 1188 1179 1188 1183 1177 1175 1166 1172 1163 1190 1192 1165 1181 1186 1189 1187 1189 1178 1183 1191 1184 1202 1186 1186 1201 1180 1188 1188 1181 1163 1179 1167 1172 1150 1172 1172 1171 1168 1175 1185 1191 1191 1195 1188 1186 1201 1201 1188 1196 1183 1183 1179 1188 1183 1193 1186 1188 1190 1165 1186 1188 1178 1186 1188 1176 1183 1185 1196 1189 1192 1199 1195 1171 1188 1202 1202 1171 1201 1195 1175 1169 1187 1195 1176 1185 1195 1195 1169 1197 1192 1192 1180 1197 1189 1198 1182 1197 1181 1193 1192 1192 1187 1186 1198 1183 1184 1187 1194 1190 1196 1189 1208 1168 1187 1188 1181 1186 1188 1188 1183 1204 1200 1190 1191 1177 1182 1163 1181 1181 1197 1196 1178 1191 1173 1197 1186 1184 1182 1183 1180 1190 1181 1189 1173 1194 1199 1189 1197 1199 1194 1182 1185 1167 1181 1184 1183 1170 1170 1185 1193 1189 1194 1189 1162 1183 1175 1180 1181 1184 1192 1186 1184 1185 1192 1200 1179 1190 1192 1195 1186 1196 1188 1183 1190 1186 1173 1176 1185 1180 1183 1189 1171 1183 1171 1163 1176 1181 1170 1172 1180 1166 1140 1175 1186 1201 1189 1184 1151 1201 1195 1192 1200 1197 1195 1197 1175 1199 1173 1189 1200 1192 1202 1200 1185 1185 1188 1189 1181 1182 1184 1176 1176 1177 1176 1195 1170 1172 1188 1186 1177 1195 1194 1189 1188 1177 1190 1191 1182 1189 1173 1168 1176 1174 1182 1195 1182 1200 1180 1196 1183 1183 1187 1182 1190 1188 1188 1196 1189 1191 1180 1170 1172 1171 1167 1193 1192 1171 1188 1160 1176 1172 1172 1172 1179 1191 1185 1199 1182 1198 1186 1187 1189 1192 1186 1190 1182 1190 1187 1192 1178 1184 1179 1175 1183 1179 1185 1183 1173 1196 1178 1173 1183 1170 1187 1198 1187 1178 1170 1184 1171 1165 1159 1161 1174 1196 1198 1188 1195 1195 1186 1181 1141 1159 1182 1185 1187 1186 1187 1192 1162 1199 1177 1199 1166 1193 1194 1186 1189 1183 1165 1178 1165 1181 1188 1196 1192 1198 1200 1188 1178 1173 1184 1182 1177 1208 1189 1194 1191 1194 1155 1185 1176 1186 1175 1187 1166 1174 1176 1185 1177 1170 1188 1190 1186 1188 1185 1190 1186 1186 1165 1177 1191 1186 1179 1195 1198 1192 1173 1162 1176 1181 1162 1170 1188 1184 1156 1162 1178 1183 1204 1203 1192 1181 1181 1180 1185 1182 1199 1186 1190 1190 1186 1185 1197 1192 1188 1181 1197 1187 1197 1182 1183 1195 1192 1174 1180 1196 1192 1188 1195 1169 1194 1167 1199 1202 1197 1201 1199 1159 1172 1177 1179 1193 1174 1197 1183 1185 1186 1192 1187 1186 1178 1181 1182 1185 1187 1158 1190 1183 1184 1185 1181 1188 1168 1189 1195 1172 1199 1168 1193 1196 1194 1179 1159 1177 1182 1180 1175 1166 1179 1189 1173 1139 1120 1180 1189 1184 1168 1182 1187 1195 1195 1194 1201 1198 1182 1194 1197 1194 1178 1172 1174 1181 1186 1177 1174 1172 1195 1173 1199 1188 1187 1199 1192 1190 1183 1182 1185 1183 1194 1186 1167 1176 1176 1192 1206 1166 1178 1191 1188 1195 1188 1179 1168 1192 1208 1189 1201 1196 1182 1178 1180 1171 1176 1181 1196 1188 1187 1206 1182 1176 1176 1188 1181 1173 1181 1177 1178 1192 1186 1187 1197 1185 1189 1198 1189 1183 1203 1179 1185 1201 1199 1187 1198 1198 1194 1186 1191 1200 1192 1179 1200 1173 1177 1200 1190 1202 1205 1202 1193 1189 1197 1185 1192 1175 1166 1173 1202 1178 1186 1187 1182 1177 1179 1201 1199 1196 1194 1198 1188 1190 1186 1192 1186 1193 1190 1201 1194 1175 1184 1185 1198 1179 1185 1153 1184 1152 1190 1161 1171 1174 1169 1187 1184 1189 1189 1190 1188 1201 1190 1177 1194 1192 1178 1175 1183 1171 1180 1170 1191 1196 1197 1196 1183 1181 1189 1179 1184 1192 1183 1187 1183 1186 1181 1187 1191 1195 1190 1189 1158 1176 1180 1183 1170 1195 1189 1195 1177 1199 1188 1188 1176 1186 1190 1181 1162 1187 1181 1160 1185 1206 1191 1183 1172 1177 1183 1186 1174 1176 1178 1190 1195 1180 1172 1192 1184 1191 1183 1180 1179 1181 1203 1190 1184 1177 1177 1182 1181 1194 1187 1184 1197 1187 1186 1178 1186 1182 1174 1188 1191 1190 1197 1175 1161 1197 1200 1149 1196 1162 1177 1173 1172 1175 1172 1168 1180 1177 1182 1185 1189 1179 1175 1191 1158 1179 1170 1180 1176 1174 1195 1196 1176 1188 1199 1167 1194 1177 1170 1173 1173 1166 1154 1154 1168 1179 1181 1196 1182 1179 1152 1156 1193 1182 1181 1173 1182 1182 1173 1196 1195 1183 1175 1175 1190 1191 1190 1181 1181 1195 1172 1176 1190 1153 1176 1183 1186 1189 1184 1195 1192 1202 1192 1195 1195 1197 1189 1184 1186 1162 1141 1170 1194 1176 1164 1200 1187 1197 1189 1203 1187 1204 1199 1186 1197 1175 1165 1169 1160 1177 1146 1174 1168 1169 1166 1187 1178 1187 1197 1174 1183 1175 1190 1176 1166 1184 1172 1186 1171 1169 1187 1188 1184 1181 1183 1176 1177 1172 1174 1182 1175 1138 1151 1173 1150 1193 1182 1190 1186 1194 1171 1176 1178 1189 1194 1161 1168 1170 1163 1182 1200 1176 1176 1179 1199 1167 1175 1175 1176 1174 1197 1195 1200 1178 1183 1179 1181 1178 1191 1185 1200 1180 1198 1201 1205 1186 1191 1176 1176 1182 1173 1180 1186 1191 1181 1187 1188 1194 1172 1189 1180 1173 1181 1168 1180 1196 1196 1189 1195 1186 1197 1212 1200 1208 1171 1178 1187 1204 1192 1193 1192 1176 1195 1178 1173 1188 1183 1170 1166 1191 1183 1181 1179 1194 1182 1189 1178 1186 1189 1195 1178 1181 1192 1187 1175 1189 1194 1187 1183 1187 1191 1191 1176 1187 1191 1171 1194 1186 1181 1184 1169 1189 1195 1183 1170 1186 1190 1191 1190 1188 1184 1191 1187 1189 1188 1191 1193 1192 1197 1192 1178 1175 1184 1179 1180 1187 1185 1188 1191 1203 1180 1183 1189 1185 1185 1155 1188 1166 1159 1178 1184 1183 1181 1205 1183 1193 1163 1184 1185 1174 1167 1178 1176 1168 1174 1173 1170 1177 1174 1177 1190 1199 1184 1187 1199 1186 1190 1179 1179 1179 1195 1184 1195 1194 1185 1188 1185 1182 1182 1190 1182 1178 1194 1188 1174 1168 1148 1148 1172 1176 1183 1180 1181 1182 1199 1181 1182 1184 1194 1197 1182 1180 1160 1166 1161 1177 1176 1180 1177 1179 1185 1192 1191 1191 1188 1191 1191 1185 1185 1196 1179 1158 1139 1165 1206 1193 1187 1191 1187 1190 1166 1170 1185 1169 1179 1190 1190 1198 1161 1183 1195 1192 1191 1181 1174 1177 1178 1178 1182 1180 1185 1187 1181 1180 1178 1169 1188 1196 1196 1200 1183 1182 1183 1166 1183 1186 1185 1188 1184 1178 1172 1156 1163 1171 1170 1196 1195 1189 1188 1202 1190 1191 1194 1176 1197 1168 1196 1191 1181 1201 1172 1163 1174 1155 1175 1185 1185 1187 1183 1186 1178 1176 1186 1175 1185 1176 1172 1168 1189 1193 1194 1200 1182 1180 1168 1202 1186 1194 1185 1181 1184 1186 1184 1178 1183 1173 1176 1176 1172 1177 1180 1177 1190 1191 1190 1197 1195 1193 1196 1202 1176 1169 1165 1163 1173 1190 1184 1187 1172 1175 1172 1175 1178 1171 1175 1196 1186 1184 1198 1179 1185 1180 1175 1185 1181 1187 1190 1204 1196 1176 1186 1192 1173 1186 1181 1161 1187 1185 1186 1162 1184 1178 1183 1170 1189 1184 1186 1188 1184 1184 1201 1172 1198 1166 1189 1192 1179 1184 1195 1178 1187 1192 1189 1195 1193 1188 1159 1194 1194 1178 1174 1171 1189 1177 1174 1186 1183 1174 1185 1186 1161 1161 1150 1195 1183 1166 1165 1163 1166 1149 1181 1184 1182 1183 1185 1172 1177 1189 1182 1180 1180 1179 1172 1181 1178 1182 1149 1137 1151 1171 1192 1178 1155 1180 1153 1177 1193 1183 1186 1183 1203 1185 1182 1187 1175 1211 1177 1207 1182 1190 1198 1164 1181 1163 1197 1177 1166 1184 1165 1182 1174 1174 1179 1174 1175 1194 1194 1187 1176 1190 1170 1172 1175 1179 1147 1180 1181 1170 1193 1189 1192 1191 1172 1166 1170 1200 1201 1202 1201 1205 1180 1164 1192 1190 1192 1187 1180 1173 1178 1177 1162 1189 1199 1185 1175 1189 1160 1185 1181 1190 1195 1180 1186 1185 1181 1194 1182 1179 1186 1178 1141 1152 1165 1166 1168 1194 1199 1193 1183 1198 1185 1190 1194 1182 1183 1181 1175 1186 1179 1182 1169 1182 1174 1167 1174 1183 1181 1202 1208 1196 1183 1195 1181 1187 1182

Tree=0
num_leaves=10
num_cat=0
split_feature=0 0 0 0 0 0 0 21 0
split_gain=1077.44 2224.59 959.544 456.291 1073.95 453.706 730.449 522.566 374.052
threshold=266.50000000000006 267.50000000000006 263.50000000000006 316.50000000000006 317.50000000000006 229.50000000000003 241.50000000000003 59.500000000000007 288.50000000000006
decision_type=2 2 2 2 2 2 2 2 2
left_child=2 -2 5 8 -5 7 -7 -1 -3
right_child=1 3 -4 4 -6 6 -8 -9 -10
leaf_value=-0.00057340473684973185 0.02462317841074697 0.00065045825315965581 -0.022432863291011317 0.033694475496024799 0.0019701173111983088 0.009510317264661507 -0.0074753715713187473 -0.0069663094677234584 -0.012797439542518427
leaf_weight=12872.77425134182 1805.3060818910599 1875.7004045844078 939.99695539474487 435.66295313835144 15904.648334085941 3030.3539644479752 1517.2408661842346 8486.3619387745857 1475.7459520101547
leaf_count=35253 3486 5063 3234 712 42261 7320 4491 24977 4620
internal_value=0 0.169666 -0.130737 0.0721621 0.141117 -0.0946454 0.192039 -0.155716 -0.263771
internal_weight=0 21497.1 26846.7 19691.8 16340.3 25906.7 4547.59 21359.1 3351.45
internal_count=131417 56142 75275 52656 42973 72041 11811 60230 9683
shrinkage=0.02


Tree=1
num_leaves=10
num_cat=0
split_feature=0 0 0 0 0 0 0 21 0
split_gain=1034.87 2137.02 921.815 438.264 1032.07 435.748 701.581 501.888 359.292
threshold=266.50000000000006 267.50000000000006 263.50000000000006 316.50000000000006 317.50000000000006 229.50000000000003 241.50000000000003 59.500000000000007 288.50000000000006
decision_type=2 2 2 2 2 2 2 2 2
left_child=2 -2 5 8 -5 7 -7 -1 -3
right_child=1 3 -4 4 -6 6 -8 -9 -10
leaf_value=-0.00056194006673947368 0.024135208762835113 0.00063747063931472714 -0.02198840917628124 0.033034567471699791 0.0019307239286655989 0.0093205113528047941 -0.0073262623281138148 -0.0068271164179930476 -0.012542526695661103
leaf_weight=12872.773317530751 1805.0325020551682 1875.7002127766609 939.87868967652321 435.5393323302269 15904.633243560791 3030.28552749753 1517.2196755707264 8486.2589385509491 1475.6855203211308
leaf_count=35253 3486 5063 3234 712 42261 7320 4491 24977 4620
internal_value=0 0.166284 -0.128127 0.0707235 0.138303 -0.0927541 0.188202 -0.152604 -0.25851
internal_weight=0 21496.6 26846.4 19691.6 16340.2 25906.5 4547.51 21359 3351.39
internal_count=131417 56142 75275 52656 42973 72041 11811 60230 9683
shrinkage=0.02


Tree=2
num_leaves=10
num_cat=0
split_feature=0 0 0 0 0 0 0 0 21
split_gain=994.018 2053.63 885.832 420.961 992.443 418.508 673.882 487.3 437.269
threshold=266.50000000000006 267.50000000000006 263.50000000000006 316.50000000000006 317.50000000000006 229.50000000000003 241.50000000000003 25.500000000000004 59.500000000000007
decision_type=2 2 2 2 2 2 2 2 2
left_child=2 -2 5 -3 -5 7 -7 -1 -9
right_child=1 3 -4 4 -6 6 -8 8 -10
leaf_value=0.0056449319626679243 0.023663857124169012 -0.0050672443299585035 -0.021558008640432415 0.032405312294264459 0.0018921223145146235 0.0091348932705001204 -0.0071803202346610428 -0.0015602137388331927 -0.0077435791525089382
leaf_weight=2325.6378783881664 1804.2335101366043 3351.208665728569 939.5333816409111 435.17834794521332 15904.58797198534 3030.0852722227573 1517.1577574461699 11380.854579284787 7652.2359610497952
leaf_count=5914 3486 9683 3234 712 42261 7320 4491 31535 22781
internal_value=0 0.162976 -0.125572 0.0693151 0.135547 -0.0909019 0.184448 -0.149555 -0.202369
internal_weight=0 21495.2 26845.5 19691 16339.8 25906 4547.24 21358.7 19033.1
internal_count=131417 56142 75275 52656 42973 72041 11811 60230 54316
shrinkage=0.02


Tree=3
num_leaves=10
num_cat=0
split_feature=20 23 18 14 14 4 20 2 10
split_gain=456.664 334.289 537.805 170.007 132.288 97.2631 52.3799 52.3274 52.1989
threshold=141.50000000000003 64.500000000000014 1.5000000000000002 7.5000000000000009 5.5000000000000009 30.500000000000004 65.500000000000014 1978.5000000000002 22.500000000000004
decision_type=2 2 2 2 2 2 2 2 2
left_child=1 3 -3 6 -2 8 -1 -6 -4
right_child=4 2 5 -5 7 -7 -8 -9 -10
leaf_value=-0.00039140516528988952 0.0019523312090003995 0.0019040988655218774 -0.0048451789311852655 0.004777064900151032 0.006233298399611357 -0.0088000125524657011 0.0029538679686355817 0.013452199350931377 0.0081541164207058359
leaf_weight=21224.925842136145 4155.2309516370296 5003.7853948920965 5040.9920615553856 3261.873887822032 3360.4282009899616 3656.9996773004532 2050.2153501361609 458.98936282098293 123.70843985676765
leaf_count=57985 11046 13316 14505 8369 8468 10996 5380 1049 303
internal_value=0 -0.0405244 -0.166593 0.0251558 0.221307 -0.315104 -0.00480664 0.355613 -0.226405
internal_weight=0 40362.5 13825.5 26537 7974.65 8821.7 23275.1 3819.42 5164.7
internal_count=131417 110854 39120 71734 20563 25804 63365 9517 14808
shrinkage=0.02


Tree=4
num_leaves=10
num_cat=0
split_feature=18 18 21 14 22 4 3 4 21
split_gain=365.879 273.222 495.085 159.224 136.73 103.284 97.9084 83.1115 75.8765
threshold=2.5000000000000004 1.5000000000000002 58.500000000000007 7.5000000000000009 136.50000000000003 100.50000000000001 326.50000000000006 30.500000000000004 71.500000000000014
decision_type=2 2 2 2 2 2 2 2 2
left_child=1 6 3 5 7 -3 8 -4 -1
right_child=-2 2 4 -5 -6 -7 -8 -9 -10
leaf_value=-0.00019502864752002811 0.005458178610476574 0.001160447320730373 -0.004406643797964062 0.0084303585419283865 0.00078928517310767753 -0.012528997388856669 0.0058232187333848821 -0.0083021659460813784 0.0023041111735049849
leaf_weight=20310.573125109076 4535.407773733139 3824.0058613270521 5212.2578766942024 1291.0493574142456 1338.6547555029392 230.9070091098547 1400.2238485515118 3810.4493226259947 6383.2510642260313
leaf_count=55352 11525 10257 14940 3157 3607 725 3541 11417 16896
internal_value=0 -0.0253706 -0.130987 0.116095 -0.258495 0.0185368 0.0336765 -0.302733 0.0201277
internal_weight=0 43801.4 15707.3 5345.96 10361.4 4054.91 28094 9022.71 26693.8
internal_count=131417 119892 44103 14139 29964 10982 75789 26357 72248
shrinkage=0.02


Tree=5
num_leaves=10
num_cat=0
split_feature=1 18 2 20 15 16 6 2 20
split_gain=634.4 632.483 119.306 117.083 160.971 113.556 91.6948 84.2436 73.5923
threshold=1.5000000000000002 1.5000000000000002 319.50000000000006 58.500000000000007 6.5000000000000009 5.5000000000000009 88.500000000000014 30.500000000000004 65.500000000000014
decision_type=2 2 2 2 2 2 2 2 2
left_child=1 2 8 4 6 -2 -3 -5 -1
right_child=5 3 -4 7 -6 -7 -8 -9 -10
leaf_value=-0.0003959031325223095 0.0032657795655036395 -0.0024355546300651736 0.006178028445245373 -0.0042680618400823944 0.0081512677650402241 0.008076319372186589 -0.019119097651957288 -0.0080648626881701588 0.0019725062230924162
leaf_weight=19469.904712304473 6060.8822023123503 993.35385398566723 1424.1401848345995 5368.4626104086637 592.56291584670544 2911.3548211604357 149.43505711853504 4174.1447871029377 7179.8915437012911
leaf_count=53188 15826 2784 3580 15377 1452 7141 504 12493 19072
internal_value=0 -0.0531452 0.0272035 -0.253136 -0.0139932 0.241479 -0.233337 -0.296575 0.0121055
internal_weight=0 39351.9 28073.9 11278 1735.35 8972.24 1142.79 9542.61 26649.8
internal_count=131417 108450 75840 32610 4740 22967 3288 27870 72260
shrinkage=0.02


Tree=6
num_leaves=10
num_cat=0
split_feature=0 0 0 0 0 0 0 0 0
split_gain=996.809 2023.22 856.174 469.857 703.475 425.418 616.693 460.297 416.809
threshold=266.50000000000006 267.50000000000006 263.50000000000006 311.50000000000006 327.50000000000006 222.50000000000003 241.50000000000003 25.500000000000004 458.50000000000006
decision_type=2 2 2 2 2 2 2 2 2
left_child=2 -2 5 -3 -5 7 -7 -1 -6
right_child=1 3 -4 4 8 6 -8 -9 -10
leaf_value=0.0052716506424458796 0.023577422369509181 -0.0057464631492275663 -0.021266708921009427 0.015110505595693623 -0.00097343176713906123 0.0079149895045257431 -0.0073189762227969411 -0.0041838008747135157 0.0061228670734342064
leaf_weight=2314.8235467523336 1789.4579609930515 3109.8310618102551 939.97126768529415 1647.9345444887877 10087.14514529705 3535.7008249312639 1516.2156427651644 18457.742464408278 4924.2190790623426
leaf_count=5903 3435 9061 3244 3661 27714 8681 4502 52804 12412
internal_value=0 0.161553 -0.127359 0.0692877 0.135915 -0.0931598 0.167003 -0.156461 0.0677373
internal_weight=0 21558.6 26764.5 19769.1 16659.3 25824.5 5051.92 20772.6 15011.4
internal_count=131417 56283 75134 52848 43787 71890 13183 58707 40126
shrinkage=0.02


Tree=7
num_leaves=10
num_cat=0
split_feature=0 0 0 0 0 0 0 0 0
split_gain=957.486 1945.7 823.255 452.915 893.192 408.585 592.362 442.095 375.274
threshold=266.50000000000006 267.50000000000006 263.50000000000006 316.50000000000006 317.50000000000006 222.50000000000003 241.50000000000003 25.500000000000004 374.50000000000006
decision_type=2 2 2 2 2 2 2 2 2
left_child=2 -2 5 -3 -5 7 -7 -1 -6
right_child=1 3 -4 4 8 6 -8 -9 -10
leaf_value=0.0051664180228547943 0.023130873875706382 -0.0053557607275250933 -0.020860669079695044 0.031368486910812531 0.0072059304209871992 0.0077575231888598294 -0.0071735560830566564 -0.004100243831682969 0.0001744717658717749
leaf_weight=2314.7952217459679 1787.5999117940664 3336.9629738032818 939.16810336709023 421.19821614027023 4069.1764114797115 3535.3848611116409 1516.0750977396965 18457.273218125105 11941.128903150558
leaf_count=5903 3435 9693 3244 692 10108 8681 4502 52804 32355
internal_value=0 0.158347 -0.124823 0.0679063 0.136135 -0.0912995 0.163677 -0.153335 0.0981488
internal_weight=0 21556.1 26762.7 19768.5 16431.5 25823.5 5051.46 20772.1 16010.3
internal_count=131417 56283 75134 52848 43155 71890 13183 58707 42463
shrinkage=0.02


Tree=8
num_leaves=10
num_cat=0
split_feature=0 0 0 0 0 0 0 21 0
split_gain=919.774 1871.69 791.799 435.037 860.184 392.424 569.007 450.693 360.444
threshold=266.50000000000006 267.50000000000006 263.50000000000006 316.50000000000006 317.50000000000006 222.50000000000003 241.50000000000003 60.500000000000007 374.50000000000006
decision_type=2 2 2 2 2 2 2 2 2
left_child=2 -2 5 -3 -5 7 -7 -1 -6
right_child=1 3 -4 4 8 6 -8 -9 -10
leaf_value=-0.0006553242537676873 0.02269849998003497 -0.0052490570984272608 -0.020466564014637419 0.030810036563148416 0.007062233145959892 0.0076034090231480349 -0.007031196291752799 -0.0066991262744599076 0.00017098314131300523
leaf_weight=12697.589089035988 1785.2978835105896 3336.7642883211374 938.17524905502796 420.31902578473091 4068.9962593317032 3534.9677739292383 1515.8979516327381 8073.8037760704756 11941.120296567678
leaf_count=34844 3435 9693 3244 692 10108 8681 4502 23863 32355
internal_value=0 0.155216 -0.122339 0.0665585 0.13343 -0.0894775 0.160421 -0.150273 0.0961887
internal_weight=0 21552.5 26760.4 19767.2 16430.4 25822.3 5050.87 20771.4 16010.1
internal_count=131417 56283 75134 52848 43155 71890 13183 58707 42463
shrinkage=0.02


Tree=9
num_leaves=10
num_cat=0
split_feature=0 0 0 0 0 0 0 21 0
split_gain=883.585 1801.01 761.72 417.872 828.821 376.913 546.587 432.932 346.211
threshold=266.50000000000006 267.50000000000006 263.50000000000006 316.50000000000006 317.50000000000006 222.50000000000003 241.50000000000003 60.500000000000007 374.50000000000006
decision_type=2 2 2 2 2 2 2 2 2
left_child=2 -2 5 -3 -5 7 -7 -1 -6
right_child=1 3 -4 4 8 6 -8 -9 -10
leaf_value=-0.00064222235435482306 0.022279488945205133 -0.0051445450965079591 -0.020083764219327224 0.030274866850895383 0.0069215714474030934 0.0074525586745589553 -0.0068918191167312371 -0.0065659647700992384 0.00016756479834029376
leaf_weight=12697.569170594215 1782.5799416005611 3336.5232007652521 937.00466959178448 419.25753946602345 4068.7171550840139 3534.4558897912502 1515.6865108758211 8072.8641700744629 11941.111750409007
leaf_count=34844 3435 9693 3244 692 10108 8681 4502 23863 32355
internal_value=0 0.152153 -0.119909 0.0652387 0.13078 -0.0876948 0.157235 -0.147276 0.0942685
internal_weight=0 21548.2 26757.6 19765.6 16429.1 25820.6 5050.14 20770.4 16009.8
internal_count=131417 56283 75134 52848 43155 71890 13183 58707 42463
shrinkage=0.02


Tree=10
num_leaves=10
num_cat=0
split_feature=0 0 0 0 0 0 21 0 0
split_gain=804.592 1748.27 727.972 406.693 636.823 484.48 376.051 343.666 842.884
threshold=266.50000000000006 267.50000000000006 263.50000000000006 229.50000000000003 241.50000000000003 25.500000000000004 59.500000000000007 316.50000000000006 317.50000000000006
decision_type=2 2 2 2 2 2 2 2 2
left_child=2 -2 3 5 -5 -1 -7 -3 -9
right_child=1 7 -4 4 -6 6 -8 8 -10
leaf_value=0.0057530788557294977 0.021824214452127316 -0.0047083073530606199 -0.019590802475117314 0.0089467748050303369 -0.0069617498366705234 -0.001632527586023425 -0.0073810718346013883 0.029885733760016252 0.0015794513299333542
leaf_weight=2317.0199271142483 1778.439036205411 3340.714207559824 941.67304189503193 3053.8022236377001 1497.5921508073807 11405.727098748088 7578.4656161516905 429.26684722304344 15920.043939545751
leaf_count=5866 3436 9670 3261 7331 4459 31679 22643 709 42363
internal_value=0 0.142537 -0.117266 -0.0857365 0.185489 -0.143721 -0.196423 0.0566826 0.116419
internal_weight=0 21468.5 26794.3 25852.6 4551.39 21301.2 18984.2 19690 16349.3
internal_count=131417 56178 75239 71978 11790 60188 54322 52742 43072
shrinkage=0.02


Tree=11
num_leaves=10
num_cat=0
split_feature=20 21 18 16 16 20 5 20 2
split_gain=448.187 306.351 499.274 127.073 119.85 62.5412 61.7231 51.1868 44.3136
threshold=141.50000000000003 64.500000000000014 1.5000000000000002 6.5000000000000009 5.5000000000000009 612.50000000000011 29.500000000000004 65.500000000000014 45.500000000000007
decision_type=2 2 2 2 2 2 2 2 2
left_child=1 3 -3 7 -2 -6 -4 -1 -5
right_child=4 2 6 8 5 -7 -8 -9 -10
leaf_value=-0.00050604174557128216 0.0025678703260646287 0.0016345598286214395 -0.0048282716276094716 -0.002668106984816389 0.0060741958219778999 0.013394326096639129 -0.0083016749616164221 0.0024894868307025865 0.004757270859268181
leaf_weight=20978.965034544468 5310.8281615376472 5006.2618838399649 4728.4931570291519 356.77709747850895 2032.5877085030079 611.46557986736298 3654.1052906960249 2556.8914238512516 3016.8737757652998
leaf_count=57425 13995 13362 13659 999 5114 1391 11017 6735 7720
internal_value=0 -0.0444843 -0.168076 0.0170097 0.215209 0.389129 -0.317276 -0.00900412 0.198428
internal_weight=0 40298.4 13388.9 26909.5 7954.88 2644.05 8382.6 23535.9 3373.65
internal_count=131417 110917 38038 72879 20500 6505 24676 64160 8719
shrinkage=0.02


Tree=12
num_leaves=10
num_cat=0
split_feature=0 0 0 0 0 0 21 0 0
split_gain=771.208 1679.29 699.955 392.867 613.717 464.301 355.172 330.231 812.033
threshold=266.50000000000006 267.50000000000006 263.50000000000006 229.50000000000003 241.50000000000003 25.500000000000004 59.500000000000007 316.50000000000006 317.50000000000006
decision_type=2 2 2 2 2 2 2 2 2
left_child=2 -2 3 5 -5 -1 -7 -3 -9
right_child=1 7 -4 4 -6 6 -8 8 -10
leaf_value=0.0056286217111200269 0.02140834497152682 -0.0046162636629439018 -0.019220410610740302 0.0087963521752258775 -0.0068226152554538445 -0.0016182504157830336 -0.0072054279327383253 0.029377843437137185 0.0015479867698542575
leaf_weight=2316.8940266519785 1774.743282392621 3340.3489660173655 940.11276577413082 3053.0387388318777 1497.2787221223116 11405.582046464086 7576.5008819848299 427.78759939968586 15919.522436544299
leaf_count=5866 3436 9670 3261 7331 4459 31679 22643 709 42363
internal_value=0 0.139607 -0.11478 -0.0838833 0.182726 -0.140874 -0.192471 0.0555331 0.114094
internal_weight=0 21462.4 26789.4 25849.3 4550.32 21299 18982.1 19687.7 16347.3
internal_count=131417 56178 75239 71978 11790 60188 54322 52742 43072
shrinkage=0.02


Tree=13
num_leaves=10
num_cat=0
split_feature=0 0 0 0 0 0 21 0 0
split_gain=740.915 1617.06 673.775 377.366 589.616 445.969 341.254 317.209 783.463
threshold=266.50000000000006 267.50000000000006 263.50000000000006 229.50000000000003 241.50000000000003 25.500000000000004 59.500000000000007 316.50000000000006 317.50000000000006
decision_type=2 2 2 2 2 2 2 2 2
left_child=2 -2 3 5 -5 -1 -7 -3 -9
right_child=1 7 -4 4 -6 6 -8 8 -10
leaf_value=0.0055164431450209815 0.021026439729501051 -0.0045244651490406575 -0.018870345761277735 0.0086231572050287017 -0.0066878301085919649 -0.0015859062952924541 -0.0070628879205816052 0.028902324272765876 0.0015170522200877632
leaf_weight=2316.7905183881521 1770.9311626851559 3340.0242708027363 938.47387135028839 3052.1407565027475 1496.9691114723682 11405.497475430369 7574.8948672562838 426.19455580413342 15919.321246415377
leaf_count=5866 3436 9670 3261 7331 4459 31679 22643 709 42363
internal_value=0 0.136862 -0.112507 -0.0822154 0.179119 -0.138068 -0.18864 0.0544335 0.111832
internal_weight=0 21456.5 26784.8 25846.3 4549.11 21297.2 18980.4 19685.5 16345.5
internal_count=131417 56178 75239 71978 11790 60188 54322 52742 43072
shrinkage=0.02


Tree=14
num_leaves=10
num_cat=0
split_feature=0 0 0 0 0 0 0 0 0
split_gain=711.829 1557.48 648.689 362.483 566.478 428.364 330.936 304.704 756.205
threshold=266.50000000000006 267.50000000000006 263.50000000000006 229.50000000000003 241.50000000000003 25.500000000000004 27.500000000000004 316.50000000000006 317.50000000000006
decision_type=2 2 2 2 2 2 2 2 2
left_child=2 -2 3 5 -5 -1 -7 -3 -9
right_child=1 7 -4 4 -6 6 -8 8 -10
leaf_value=0.0054065799993943718 0.020655144185624332 -0.0044345296998200201 -0.018529386497515048 0.008453642556953158 -0.0065558293576046369 -0.020933558475329114 -0.0032920612759175356 0.028444588490281784 0.0014867372737358
leaf_weight=2316.6534633040428 1766.805353179574 3339.6716011613607 936.70084305107594 3051.146294221282 1496.6318977028131 432.60580649971962 18545.924571335316 424.45753747224808 15919.105616763234
leaf_count=5866 3436 9670 3261 7331 4459 1477 52845 709 42363
internal_value=0 0.134175 -0.110281 -0.0805817 0.175589 -0.13532 -0.184888 0.0533562 0.109616
internal_weight=0 21450 26779.7 25843 4547.78 21295.2 18978.5 19683.2 16343.6
internal_count=131417 56178 75239 71978 11790 60188 54322 52742 43072
shrinkage=0.02


Tree=15
num_leaves=10
num_cat=0
split_feature=0 0 0 1 0 0 0 0 0
split_gain=728.346 1469.21 653.979 331.4 355.433 447.09 318.08 295.428 661.886
threshold=266.50000000000006 267.50000000000006 263.50000000000006 1.5000000000000002 222.50000000000003 241.50000000000003 25.500000000000004 458.50000000000006 446.50000000000006
decision_type=2 2 2 2 2 2 2 2 2
left_child=2 -2 3 4 6 -6 -1 8 -3
right_child=1 7 -4 -5 5 -7 -8 -9 -10
leaf_value=0.0040052263051446949 0.020192369390765425 0.00059955503622935013 -0.018836175281386713 0.0031226140424593135 0.0065183586390319091 -0.0077469244803089112 -0.0049976079341817721 0.0053584018410928833 -0.020178649707760496
leaf_weight=1749.2606015205383 1754.8934460282326 14186.393869370222 917.91176913678646 4692.5282550603151 3038.9290500581264 1232.7277291566133 15071.19178006053 4914.9474686235189 637.9263151884079
leaf_count=4509 3427 38242 3221 12286 7504 3729 43883 12471 2145
internal_value=0 0.133573 -0.113721 -0.0841238 -0.137604 0.119884 -0.203022 0.0555322 -0.0149039
internal_weight=0 21494.2 26702.5 25784.6 21092.1 4271.66 16820.5 19739.3 14824.3
internal_count=131417 56285 75132 71911 59625 11233 48392 52858 40387
shrinkage=0.02


Tree=16
num_leaves=10
num_cat=0
split_feature=0 0 0 0 0 0 0 0 0
split_gain=699.687 1415.7 629.911 296.95 455.026 395.105 292.847 283.762 635.788
threshold=266.50000000000006 267.50000000000006 263.50000000000006 222.50000000000003 241.50000000000003 25.500000000000004 27.500000000000004 458.50000000000006 446.50000000000006
decision_type=2 2 2 2 2 2 2 2 2
left_child=2 -2 3 5 -5 -1 -7 8 -3
right_child=1 7 -4 4 -6 6 -8 -9 -10
leaf_value=0.0050325300359025304 0.019842200810768578 0.00058756897317590966 -0.018502283709502736 0.0066202291712969376 -0.0064901800195073401 -0.019659692908155797 -0.0032923634645264238 0.0052515949918730551 -0.01977680754611702
leaf_weight=2337.0920722186565 1750.2456848174334 14186.337804093957 915.86159373819828 3538.2236288040876 1507.5205289423466 445.51285257935524 17953.170387610793 4914.6729706376791 637.93115527927876
leaf_count=5933 3427 38242 3221 8708 4502 1510 51258 12471 2145
internal_value=0 0.130935 -0.111471 -0.0824509 0.135025 -0.135397 -0.184608 0.0544204 -0.0146094
internal_weight=0 21489.2 26697.4 25781.5 5045.74 20735.8 18398.7 19738.9 14824.3
internal_count=131417 56285 75132 71911 13210 58701 52768 52858 40387
shrinkage=0.02


Tree=17
num_leaves=10
num_cat=0
split_feature=1 18 16 20 14 4 20 6 2
split_gain=524.881 586.758 128.102 118.859 149.643 87.2426 66.9539 53.0043 52.607
threshold=1.5000000000000002 1.5000000000000002 5.5000000000000009 58.500000000000007 6.5000000000000009 225.50000000000003 65.500000000000014 88.500000000000014 58.500000000000007
decision_type=2 2 2 2 2 2 2 2 2
left_child=1 5 -2 4 7 6 -1 -3 -5
right_child=2 3 -4 8 -6 -7 -8 -9 -10
leaf_value=-0.00043392902801110429 0.0026455895706251793 -0.002579694369881055 0.007768585511745898 -0.0047621559128298062 0.0080379555653037841 0.0045365730955408759 0.001850748887451199 -0.015038200456771367 -0.0079553349338534109
leaf_weight=19073.827088579535 5972.9701733589172 968.69451026618481 2905.8582860529423 6447.114821344614 592.01559871435165 1975.7225821018219 7014.7249199002981 156.89003491401672 3067.9605300575495
leaf_count=52178 15701 2745 7132 18662 1455 5071 18693 522 9258
internal_value=0 -0.0529196 0.216249 -0.246035 -0.00373196 0.0243819 0.00901452 -0.217845 -0.289728
internal_weight=0 39297 8878.83 11232.7 1717.6 28064.3 26088.6 1125.58 9515.08
internal_count=131417 108584 22833 32642 4722 75942 70871 3267 27920
shrinkage=0.02


Tree=18
num_leaves=10
num_cat=0
split_feature=0 0 0 1 0 0 0 0 0
split_gain=670.276 1361.68 604.268 307.258 331.496 415.293 293.27 280.51 759.357
threshold=266.50000000000006 267.50000000000006 263.50000000000006 1.5000000000000002 222.50000000000003 241.50000000000003 25.500000000000004 316.50000000000006 327.50000000000006
decision_type=2 2 2 2 2 2 2 2 2
left_child=2 -2 3 4 6 -6 -1 -3 -9
right_child=1 7 -4 -5 5 -7 -8 8 -10
leaf_value=0.0038380866058869358 0.019483496273036204 -0.0042268970232765476 -0.018141384444101318 0.0030136419704329251 0.0063032827461346188 -0.0074495879863886181 -0.004807098602213242 0.016095202643256298 0.00081299011425387706
leaf_weight=1749.022776350379 1745.0441179722548 3326.5316519588232 913.4012760668993 4691.9699800908566 3037.5641878843307 1231.8782472759485 15066.939360663295 1421.3060507178307 14989.989511415362
leaf_count=4509 3427 9617 3221 12286 7504 3729 43883 3045 40196
internal_value=0 0.128233 -0.109055 -0.0806643 -0.132172 0.116563 -0.195352 0.0532907 0.106979
internal_weight=0 21482.9 26690.8 25777.4 21085.4 4269.44 16816 19737.8 16411.3
internal_count=131417 56285 75132 71911 59625 11233 48392 52858 43241
shrinkage=0.02


Tree=19
num_leaves=10
num_cat=0
split_feature=0 0 0 1 0 0 0 0 0
split_gain=644.43 1196.94 719.733 295.134 318.405 399.003 281.709 273.762 610.147
threshold=264.50000000000006 267.50000000000006 263.50000000000006 1.5000000000000002 222.50000000000003 241.50000000000003 25.500000000000004 458.50000000000006 446.50000000000006
decision_type=2 2 2 2 2 2 2 2 2
left_child=2 -2 3 4 6 -6 -1 8 -3
right_child=1 7 -4 -5 5 -7 -8 -9 -10
leaf_value=0.0037616978267634529 0.01772196875847995 0.00055035146481575623 -0.02119347132473472 0.0029534617781674438 0.0061790441423245955 -0.0073036824628157368 -0.0047116392526995923 0.0051340249653614072 -0.019401232139973485
leaf_weight=1748.9113004505634 1883.0598842799664 14183.800364032388 767.9673674851656 4691.8845980763435 3036.7348380684853 1231.4222304672003 15064.838580131531 4914.1480842977762 637.79623748362064
leaf_count=4509 3850 38242 2798 12286 7504 3729 43883 12471 2145
internal_value=0 0.124992 -0.107563 -0.0790616 -0.129551 0.114264 -0.19147 0.0522329 -0.0155772
internal_weight=0 21618.8 26541.8 25773.8 21081.9 4268.16 16813.7 19735.7 14821.6
internal_count=131417 56708 74709 71911 59625 11233 48392 52858 40387
shrinkage=0.02


Tree=20
num_leaves=10
num_cat=0
split_feature=0 0 0 0 0 0 0 0 0
split_gain=621.761 1179.75 639.902 300.985 496.416 1187.84 750.242 438.74 315.112
threshold=264.50000000000006 267.50000000000006 263.50000000000006 308.50000000000006 374.50000000000006 417.50000000000006 369.50000000000006 288.50000000000006 286.50000000000006
decision_type=2 2 2 2 2 2 2 2 2
left_child=2 -2 -1 7 6 -6 -5 8 -3
right_child=1 3 -4 4 5 -7 -8 -9 -10
leaf_value=-0.0015279905060362534 0.01745886380083931 -0.0030463631472741597 -0.020044590916209262 0.0044543955908566109 -0.011279814263254802 0.003459566555517473 0.027963570535815038 -0.014712118483884897 0.017283207102905367
leaf_weight=25772.515165895224 1919.3249686062336 1479.7450255006552 765.91962710022926 4191.5864160209894 2880.7426041960716 9049.6403362601995 621.34171260893345 1115.549632832408 380.91312199831009
leaf_count=71901 3931 4219 2780 10671 8857 23492 1118 3615 833
internal_value=0 0.125135 -0.103241 0.0522127 0.104319 -0.00504412 0.375308 -0.240634 0.05667
internal_weight=0 21638.8 26538.4 19719.5 16743.3 11930.4 4812.93 2976.21 1860.66
internal_count=131417 56736 74681 52805 44138 32349 11789 8667 5052
shrinkage=0.02


Tree=21
num_leaves=10
num_cat=0
split_feature=0 0 0 0 0 0 0 0 0
split_gain=597.336 1136.65 617.019 289.125 476.948 1140.83 721.394 421.73 302.655
threshold=264.50000000000006 267.50000000000006 263.50000000000006 308.50000000000006 374.50000000000006 417.50000000000006 369.50000000000006 288.50000000000006 286.50000000000006
decision_type=2 2 2 2 2 2 2 2 2
left_child=2 -2 -1 7 6 -6 -5 8 -3
right_child=1 3 -4 4 5 -7 -8 -9 -10
leaf_value=-0.0014974655830468739 0.017154265470531976 -0.0029857898459954915 -0.01970777182886578 0.0043660185449753922 -0.011054088681302523 0.0033905422232027105 0.027425930086343375 -0.014426902177379519 0.016936141054994889
leaf_weight=25771.979117691517 1914.4397959858179 1479.6315889954567 763.50508074462414 4190.9705297797918 2880.836116746068 9049.2610735595226 620.91442896425724 1114.9172329604626 381.00509062409401
leaf_count=71901 3931 4219 2780 10671 8857 23492 1118 3615 833
internal_value=0 0.122679 -0.101191 0.0511775 0.102246 -0.00494468 0.367905 -0.235875 0.0555564
internal_weight=0 21632 26535.5 19717.5 16742 11930.1 4811.88 2975.55 1860.64
internal_count=131417 56736 74681 52805 44138 32349 11789 8667 5052
shrinkage=0.02


Tree=22
num_leaves=10
num_cat=0
split_feature=0 0 0 1 0 0 0 0 0
split_gain=573.883 1095.24 595.052 279.231 278.951 402.328 277.745 459.551 405.423
threshold=264.50000000000006 267.50000000000006 263.50000000000006 1.5000000000000002 222.50000000000003 241.50000000000003 308.50000000000006 327.50000000000006 288.50000000000006
decision_type=2 2 2 2 2 2 2 2 2
left_child=2 -2 3 4 -1 -6 8 -8 -3
right_child=1 6 -4 -5 5 -7 7 -9 -10
leaf_value=-0.0036096635811890643 0.016856644455835939 0.0010893322034578237 -0.019379300018504856 0.0029366881759077075 0.0060213914287989261 -0.0075502083850956907 0.011660178548007051 0.00086668384174358763 -0.014148554808513765
leaf_weight=16809.614598378539 1909.3803541064262 1860.5538065284491 760.99346031248569 4703.2545085996389 3035.2611572295427 1223.2946358472109 1760.9849059134722 14979.189206197858 1114.1805823147297
leaf_count=48346 3931 5052 2780 12319 7512 3724 4042 40096 3615
internal_value=0 0.120276 -0.0991825 -0.0733776 -0.122566 0.105945 0.0501644 0.100218 -0.231224
internal_weight=0 21624.3 26532.4 25771.4 21068.2 4258.56 19714.9 16740.2 2974.73
internal_count=131417 56736 74681 71901 59582 11236 52805 44138 8667
shrinkage=0.02


Tree=23
num_leaves=10
num_cat=0
split_feature=0 0 0 1 0 0 0 0 0
split_gain=551.968 1163.08 462.687 268.211 267.928 386.563 266.822 448.581 1095.72
threshold=266.50000000000006 267.50000000000006 263.50000000000006 1.5000000000000002 222.50000000000003 241.50000000000003 308.50000000000006 374.50000000000006 417.50000000000006
decision_type=2 2 2 2 2 2 2 2 2
left_child=2 -2 3 4 -1 -6 -3 -8 -9
right_child=1 6 -4 -5 5 -7 7 8 -10
leaf_value=-0.0035378643768660899 0.017955718305830308 -0.0045334510702727052 -0.015956466497307274 0.002878054865301558 0.0059027888467260746 -0.0074028710573372444 0.0071189827841142495 -0.010850829033155976 0.0033056253681884086
leaf_weight=16807.82138723135 1756.3365644961596 2973.9443120807409 906.21681731939316 4703.1522789001465 3034.391533151269 1222.7539101690054 4809.2963878363371 2880.7631116956472 9048.719938158989
leaf_count=48346 3503 8667 3208 12319 7512 3724 11789 8857 23492
internal_value=0 0.11872 -0.096679 -0.0719194 -0.120134 0.103858 0.0491668 0.0982244 -0.00571392
internal_weight=0 21469.1 26674.3 25768.1 21065 4257.15 19712.7 16738.8 11929.5
internal_count=131417 56308 75109 71901 59582 11236 52805 44138 32349
shrinkage=0.02


Tree=24
num_leaves=10
num_cat=0
split_feature=0 0 0 1 0 0 0 0 0
split_gain=530.73 1021.23 557.229 257.628 258.162 416.294 256.645 615.75 491.883
threshold=264.50000000000006 267.50000000000006 263.50000000000006 1.5000000000000002 229.50000000000003 241.50000000000003 458.50000000000006 446.50000000000006 505.50000000000006
decision_type=2 2 2 2 2 2 2 2 2
left_child=2 -2 3 4 -1 -6 7 -3 -8
right_child=1 6 -4 -5 5 -7 8 -9 -10
leaf_value=-0.0033965242960358748 0.016314810896516922 0.00052601753112121498 -0.018796620917518617 0.0028206028678599911 0.0068850305795870401 -0.0072585471636716038 0.0089994879548802344 -0.019368800731544972 -0.00495125339212693
leaf_weight=17246.412038609385 1897.7862555533648 14172.392110466957 756.15438665449619 4703.0324524492025 2593.0320179313421 1222.1902861744165 3466.0096817165613 647.83824446797371 1423.8613907843828
leaf_count=49547 3931 38229 2780 12319 6311 3724 8332 2182 4062
internal_value=0 0.11572 -0.0953918 -0.0704906 -0.11775 0.117524 0.048189 -0.0173493 0.246773
internal_weight=0 21607.9 26520.8 25764.7 21061.6 3815.22 19710.1 14820.2 4889.87
internal_count=131417 56736 74681 71901 59582 10035 52805 40411 12394
shrinkage=0.02


Tree=25
num_leaves=10
num_cat=0
split_feature=0 0 0 0 0 21 0 0 0
split_gain=519.951 1071.86 465.336 279.199 414.331 344.15 264.465 571.299 453.627
threshold=266.50000000000006 267.50000000000006 263.50000000000006 229.50000000000003 241.50000000000003 56.500000000000007 458.50000000000006 446.50000000000006 505.50000000000006
decision_type=2 2 2 2 2 2 2 2 2
left_child=2 -2 3 5 -5 -1 7 -3 -8
right_child=1 6 -4 4 -6 -7 8 -9 -10
leaf_value=-0.00022209496220393306 0.017328838974078598 0.00043685375965451129 -0.016042101952992889 0.0073479689681616167 -0.0054284502596777832 -0.005380571611594445 0.0088686382939180252 -0.018788855740234027 -0.0045039072248795678
leaf_weight=12296.524901047349 1732.2729544937611 14136.40036265552 899.37218108773232 3024.957302942872 1524.3299997150898 8930.893463075161 3465.2944578975439 643.4976459890604 1431.4635010063648
leaf_count=33736 3482 38173 3218 7306 4545 26399 8327 2164 4067
internal_value=0 0.113018 -0.0962004 -0.0714686 0.153245 -0.119656 0.0465513 -0.0201723 0.247893
internal_weight=0 21408.9 26676.1 25776.7 4549.29 21227.4 19676.7 14779.9 4896.76
internal_count=131417 56213 75204 71986 11851 60135 52731 40337 12394
shrinkage=0.02


Tree=26
num_leaves=10
num_cat=0
split_feature=0 0 0 0 0 0 0 0 0
split_gain=499.547 1034.04 448.637 268.202 398.129 339.082 326.967 254.049 549.12
threshold=266.50000000000006 267.50000000000006 263.50000000000006 229.50000000000003 241.50000000000003 25.500000000000004 27.500000000000004 458.50000000000006 446.50000000000006
decision_type=2 2 2 2 2 2 2 2 2
left_child=2 -2 3 5 -5 -1 -7 8 -3
right_child=1 7 -4 4 -6 6 -8 -9 -10
leaf_value=0.0048625942675086468 0.017045345747762893 0.00042812056212981046 -0.015769994416522218 0.0072045973118684973 -0.0053218696820158734 -0.020349692277673474 -0.0028266219280329952 0.0048595527091395479 -0.018426233741923224
leaf_weight=2321.4976067394018 1725.9755229055882 14136.347403675318 896.67188188433647 3023.525263696909 1523.8256264030933 433.22738473117352 18470.477967083454 4895.9563283771276 643.10112223029137
leaf_count=5904 3482 38173 3218 7306 4545 1488 52743 12394 2164
internal_value=0 0.110799 -0.0943042 -0.0700513 0.150245 -0.117277 -0.161585 0.0456207 -0.019773
internal_weight=0 21401.4 26669.2 25772.6 4547.35 21225.2 18903.7 19675.4 14779.4
internal_count=131417 56213 75204 71986 11851 60135 54231 52731 40337
shrinkage=0.02


Tree=27
num_leaves=10
num_cat=0
split_feature=0 0 0 0 0 21 0 0 0
split_gain=479.953 997.654 432.571 257.642 382.567 330.291 244.039 527.887 435.879
threshold=266.50000000000006 267.50000000000006 263.50000000000006 229.50000000000003 241.50000000000003 56.500000000000007 458.50000000000006 446.50000000000006 505.50000000000006
decision_type=2 2 2 2 2 2 2 2 2
left_child=2 -2 3 5 -5 -1 7 -3 -8
right_child=1 6 -4 4 -6 -7 8 -9 -10
leaf_value=-0.00017219642315890492 0.016767846495259621 0.00041956137094956625 -0.015503588110503603 0.0070641430250054814 -0.0052174226107141938 -0.0052264044905047371 0.0085980392385840397 -0.018073504812792938 -0.0045110370049969489
leaf_weight=12295.640871331096 1719.5631797164679 14136.294137060642 893.91765882074833 3022.042936861515 1523.3096447587013 8927.2589813172817 3463.8135642409325 642.60251224040985 1431.4535904675722
leaf_count=33736 3482 38173 3218 7306 4545 26399 8327 2164 4067
internal_value=0 0.108625 -0.0924473 -0.0686637 0.147305 -0.114947 0.044709 -0.0193818 0.238155
internal_weight=0 21393.7 26662.2 25768.3 4545.35 21222.9 19674.2 14778.9 4895.27
internal_count=131417 56213 75204 71986 11851 60135 52731 40337 12394
shrinkage=0.02


Tree=28
num_leaves=10
num_cat=0
split_feature=0 0 0 0 0 0 0 0 0
split_gain=461.128 962.628 417.114 247.497 367.618 325.375 314.515 234.437 507.553
threshold=266.50000000000006 267.50000000000006 263.50000000000006 229.50000000000003 241.50000000000003 25.500000000000004 27.500000000000004 458.50000000000006 446.50000000000006
decision_type=2 2 2 2 2 2 2 2 2
left_child=2 -2 3 5 -5 -1 -7 8 -3
right_child=1 7 -4 4 -6 6 -8 -9 -10
leaf_value=0.0048078928702662187 0.016496099907778256 0.00041117351054182803 -0.015242667745646477 0.0069265352918719963 -0.0051150622231342889 -0.019919636925063003 -0.0027243081298397899 0.0046688101146487365 -0.017730197408987763
leaf_weight=2321.3173531591892 1713.0476937443018 14136.240792632103 891.11483344435692 3020.514505147934 1522.7831153720617 432.75104913115501 18466.50433036685 4894.2930995970964 642.00819011032581
leaf_count=5904 3482 38173 3218 7306 4545 1488 52743 12394 2164
internal_value=0 0.106496 -0.0906262 -0.0673026 0.144425 -0.112661 -0.156073 0.043816 -0.0189985
internal_weight=0 21385.6 26655 25763.9 4543.3 21220.6 18899.3 19672.5 14778.2
internal_count=131417 56213 75204 71986 11851 60135 54231 52731 40337
shrinkage=0.02


Tree=29
num_leaves=10
num_cat=0
split_feature=0 0 0 0 0 21 0 0 0
split_gain=443.05 928.907 402.236 237.756 353.258 317 229.111 694.856 339.751
threshold=266.50000000000006 267.50000000000006 263.50000000000006 229.50000000000003 241.50000000000003 56.500000000000007 316.50000000000006 317.50000000000006 288.50000000000006
decision_type=2 2 2 2 2 2 2 2 2
left_child=2 -2 3 5 -5 -1 8 -8 -3
right_child=1 6 -4 4 -6 -7 7 -9 -10
leaf_value=-0.00012510579233595271 0.016229877726397734 0.0017589267602929699 -0.014987030579442971 0.0067917059665810135 -0.0050147413513047636 -0.0050772640411824721 0.027591831546106876 0.0011765938251386281 -0.011036569218743754
leaf_weight=12294.67816272378 1706.4402385503054 1876.374245300889 888.26846776902676 3018.9438923150301 1522.2471078187227 8923.4248248338699 405.61130723357201 15905.412874564528 1483.6355781704187
leaf_count=33736 3482 5057 3218 7306 4545 26399 682 42330 4662
internal_value=0 0.104409 -0.0888431 -0.0659702 0.141603 -0.110424 0.0429409 0.0919395 -0.194702
internal_weight=0 21377.5 26647.6 25759.3 4541.19 21218.1 19671 16311 3360.01
internal_count=131417 56213 75204 71986 11851 60135 52731 43012 9719
shrinkage=0.02


Tree=30
num_leaves=10
num_cat=0
split_feature=1 18 20 14 16 5 20 6 20
split_gain=468.669 557.036 144.8 140.82 108.385 87.5716 60.1199 44.8185 43.544
threshold=1.5000000000000002 1.5000000000000002 58.500000000000007 7.5000000000000009 5.5000000000000009 238.50000000000003 65.500000000000014 91.500000000000014 142.50000000000003
decision_type=2 2 2 2 2 2 2 2 2
left_child=1 5 3 7 -2 6 -1 -3 -4
right_child=4 2 8 -5 -6 -7 -8 -9 -10
leaf_value=-0.00035824645513077936 0.0025516823821490268 -0.0018127464865787147 -0.0060955290015770073 0.0087760300301488094 0.0072567886174831307 0.0047115810841400988 0.001812195851420041 -0.013197125691023609 -0.00074091798841436794
leaf_weight=19058.893132820725 6015.6229099780321 1006.6624268442392 8823.5235837101936 561.08625401556492 2909.7598375976086 1860.2347504645586 6967.9388823956251 158.06097911298275 656.10254576802254
leaf_count=52255 15828 2875 26149 1372 7167 4775 18648 534 1814
internal_value=0 -0.049519 -0.237803 0.0284194 0.204409 0.0261431 0.0111369 -0.169638 -0.286296
internal_weight=0 39092.5 11205.4 1725.81 8925.38 27887.1 26026.8 1164.72 9479.63
internal_count=131417 108422 32744 4781 22995 75678 70903 3409 27963
shrinkage=0.02


Tree=31
num_leaves=10
num_cat=0
split_feature=1 18 20 14 16 20 3 20 20
split_gain=450.17 535.094 139.072 135.558 104.149 85.3141 59.0052 41.8313 39.6201
threshold=1.5000000000000002 1.5000000000000002 58.500000000000007 6.5000000000000009 5.5000000000000009 335.50000000000006 326.50000000000006 142.50000000000003 631.50000000000011
decision_type=2 2 2 2 2 2 2 2 2
left_child=1 5 3 -3 -2 6 -1 -4 -6
right_child=4 2 7 -5 8 -7 -8 -9 -10
leaf_value=0.00011152986177660102 0.002500785835507256 -0.0035482043229108137 -0.0059746565780942184 0.008182664328756549 0.0060489482937308402 0.0068840442836202399 0.0045044745444959159 -0.00072616745364299242 0.012333580895112897
leaf_weight=25792.66006885469 6015.356051042676 1122.2119734287262 8822.0656578093767 603.26009249687195 2422.6695799976587 813.08632624149323 1281.1447961479425 656.10226042568684 486.4175450950861
leaf_count=70350 15828 3296 26149 1485 6055 2039 3289 1814 1112
internal_value=0 -0.0485319 -0.23309 0.0278379 0.200347 0.025621 0.0160052 -0.280616 0.355673
internal_weight=0 39090.5 11203.6 1725.47 8924.44 27886.9 27073.8 9478.17 2909.09
internal_count=131417 108422 32744 4781 22995 75678 73639 27963 7167
shrinkage=0.02


Tree=32
num_leaves=10
num_cat=0
split_feature=0 0 0 0 0 0 20 0 0
split_gain=452.39 934.776 374.374 265.513 632.082 315.58 272.764 271.324 260.567
threshold=266.50000000000006 267.50000000000006 263.50000000000006 316.50000000000006 317.50000000000006 288.50000000000006 139.50000000000003 286.50000000000006 294.50000000000006
decision_type=2 2 2 2 2 2 2 2 2
left_child=2 -2 -1 5 -5 7 -6 -3 -7
right_child=1 3 -4 4 6 8 -8 -9 -10
leaf_value=-0.0013471587950258032 0.016203717093573759 -0.0026224848966964875 -0.014562493310137916 0.026412969798225171 0.00014255742366919941 -0.022628698358804763 0.0072229406770129671 0.016379332857122574 -0.004988483172361443
leaf_weight=25676.031886070967 1728.9292139858007 1479.6572986096144 884.26271861791611 408.0764711946249 13386.982733845711 513.09001150727272 2596.351416349411 373.96555604040623 964.57959040999413
leaf_count=71824 3529 4206 3212 700 36099 1815 6367 819 2846
internal_value=0 0.105787 -0.0894477 0.0439086 0.0962327 -0.213314 0.0647109 0.0614071 -0.557559
internal_weight=0 21451.6 26560.3 19722.7 16391.4 3331.29 15983.3 1853.62 1477.67
internal_count=131417 56381 75036 52852 43166 9686 42466 5025 4661
shrinkage=0.02


Tree=33
num_leaves=10
num_cat=0
split_feature=0 0 0 0 0 0 0 0 0
split_gain=434.675 902.218 361.083 255.111 611.022 303.422 260.68 252.992 250.981
threshold=266.50000000000006 267.50000000000006 263.50000000000006 316.50000000000006 317.50000000000006 288.50000000000006 286.50000000000006 374.50000000000006 294.50000000000006
decision_type=2 2 2 2 2 2 2 2 2
left_child=2 -2 -1 5 -5 6 -3 -6 -7
right_child=1 3 -4 4 7 8 -8 -9 -10
leaf_value=-0.0013202557828712025 0.015945372162861692 -0.0025703342376903575 -0.014319409169332867 0.026030388637449532 0.0055879057185509451 -0.02221226476615136 0.016055778332746816 -0.00019662412407280808 -0.0048902404455735812
leaf_weight=25675.30909371376 1721.9217207580805 1479.5472399145365 881.36855809390545 405.85907766222954 4046.8311003446579 512.31906360387802 373.93235290050507 11935.837683320045 964.34113162755966
leaf_count=71824 3529 4206 3212 700 10113 1815 819 32353 2846
internal_value=0 0.103733 -0.0876734 0.0430434 0.0943334 -0.209137 0.0602027 0.0634212 -0.546846
internal_weight=0 21440.6 26556.7 19718.7 16388.5 3330.14 1853.48 15982.7 1476.66
internal_count=131417 56381 75036 52852 43166 9686 5025 42466 4661
shrinkage=0.02


Tree=34
num_leaves=10
num_cat=0
split_feature=1 18 0 0 0 0 0 0 20
split_gain=428.61 505.685 446.246 325.259 255.489 160 297.838 173.123 316.457
threshold=1.5000000000000002 1.5000000000000002 264.50000000000006 267.50000000000006 308.50000000000006 377.50000000000006 417.50000000000006 222.50000000000003 61.500000000000007
decision_type=2 2 2 2 2 2 2 2 2
left_child=1 2 -1 -4 -5 7 -7 8 -3
right_child=-2 5 3 4 -6 6 -8 -9 -10
leaf_value=-0.0019012406168749292 0.0039130512362785478 0.0047789842737888623 0.013575455802402034 -0.0047537707642891268 0.0034298559273674527 -0.020265918711054789 -0.0045396101779799445 -0.00040345046385982443 -0.008527955793932309
leaf_weight=14684.407487809658 8917.5016891807318 880.63166087865829 1098.0231572836637 1788.0416929870844 10298.878344774246 684.42312505841255 1623.3453280478716 4261.645152375102 3745.1968508958817
leaf_count=41493 22995 2294 2358 5244 26583 2331 4650 11826 11643
internal_value=0 -0.0472848 0.0248209 0.158352 0.110893 -0.22677 -0.461323 -0.165695 -0.299596
internal_weight=0 39064.6 27869.4 13184.9 12086.9 11195.2 2307.77 8887.47 4625.83
internal_count=131417 108422 75678 34185 31827 32744 6981 25763 13937
shrinkage=0.02


Tree=35
num_leaves=10
num_cat=0
split_feature=1 0 0 0 0 0 0 0 0
split_gain=413.639 302.282 275.803 944.27 744.551 230.273 226.518 206.407 147.442
threshold=1.5000000000000002 222.50000000000003 374.50000000000006 369.50000000000006 417.50000000000006 505.50000000000006 25.500000000000004 27.500000000000004 413.50000000000006
decision_type=2 2 2 2 2 2 2 2 2
left_child=1 6 3 -3 8 -6 -1 -8 -4
right_child=-2 2 4 -5 5 -7 7 -9 -10
leaf_value=0.0039525306667242107 0.0039061916154796007 0.0014312262780466715 -0.00935596008511194 0.02807079172086616 0.0029376540783752204 -0.0066609114106557458 -0.020517029184153532 -0.0033530638164014511 -0.023318954598407875
leaf_weight=1731.1769983619452 8905.8773676156998 12041.722104921937 2094.5606316626072 553.91868779063225 6036.833428144455 1194.8871045708656 282.95724074542522 14804.758791461587 354.16752851009369
leaf_count=4468 22950 32307 6361 973 15720 3481 992 42925 1240
internal_value=0 -0.043457 0.0329374 0.130482 -0.0939518 0.0674381 -0.144645 -0.183969 -0.570199
internal_weight=0 39095 22276.1 12595.6 9680.45 7231.72 16818.9 15087.7 2448.73
internal_count=131417 108467 60082 33280 26802 19201 48385 43917 7601
shrinkage=0.02


Tree=36
num_leaves=10
num_cat=0
split_feature=1 18 0 0 0 0 0 0 0
split_gain=397.316 423.848 355.29 326.73 202.925 174.379 247.081 245.498 132.166
threshold=1.5000000000000002 1.5000000000000002 264.50000000000006 267.50000000000006 308.50000000000006 374.50000000000006 365.50000000000006 417.50000000000006 25.500000000000004
decision_type=2 2 2 2 2 2 2 2 2
left_child=1 2 8 -4 -5 6 -3 -7 -1
right_child=-2 5 3 4 -6 7 -8 -9 -10
leaf_value=0.0042397100347826211 0.0038285145886457284 -0.0032929685676387245 0.013418870996527277 -0.0042534582576646083 0.0030094089215845971 -0.018273964734590722 0.021755516470092964 -0.0045062056290397961 -0.0022663328548192083
leaf_weight=1374.0791625529528 8904.9090276360512 8670.9402014762163 1073.9205755293369 1807.5679918080568 10238.415562823415 762.75938980281353 157.41712376475334 1616.2088315933943 13388.455439940095
leaf_count=3519 22950 25188 2311 5275 26544 2566 308 4632 38124
internal_value=0 -0.0425956 0.0234162 0.143149 0.0959144 -0.206814 -0.141921 -0.447024 -0.0829807
internal_weight=0 39089.8 27882.4 13119.9 12046 11207.3 8828.36 2378.97 14762.5
internal_count=131417 108467 75773 34130 31819 32694 25496 7198 41643
shrinkage=0.02


Tree=37
num_leaves=10
num_cat=0
split_feature=1 18 0 0 0 0 0 0 0
split_gain=381.633 407.15 341.334 315.329 194.924 167.583 237.669 236.204 128.151
threshold=1.5000000000000002 1.5000000000000002 264.50000000000006 267.50000000000006 308.50000000000006 374.50000000000006 365.50000000000006 417.50000000000006 357.50000000000006
decision_type=2 2 2 2 2 2 2 2 2
left_child=1 2 -1 -4 -5 6 8 -7 -3
right_child=-2 5 3 4 -6 7 -8 -9 -10
leaf_value=-0.0016265372203873815 0.0037524015232264468 -0.0029320008572583964 0.013195656354768746 -0.0041692979423639106 0.0029495213461857134 -0.017924734378653009 0.021352737098468792 -0.0044162468557565121 -0.023366569942684552
leaf_weight=14761.343686059117 8903.8951497823 8548.0702457427979 1070.3321392387152 1807.2379473149776 10237.441587805748 762.13254483044147 157.23713512718678 1616.2093506902456 121.71829818189144
leaf_count=41643 22950 24765 2311 5275 26544 2566 308 4632 423
internal_value=0 -0.041751 0.0229552 0.140343 0.0940056 -0.202715 -0.139096 -0.438232 -0.161378
internal_weight=0 39081.7 27876.4 13115 12044.7 11205.4 8827.03 2378.34 8669.79
internal_count=131417 108467 75773 34130 31819 32694 25496 7198 25188
shrinkage=0.02


Tree=38
num_leaves=10
num_cat=0
split_feature=1 18 20 15 16 2 2 6 23
split_gain=366.578 391.135 111.704 118.251 90.503 69.9686 40.7513 37.2735 34.8972
threshold=1.5000000000000002 1.5000000000000002 51.500000000000007 9.5000000000000018 7.5000000000000009 72.500000000000014 121.50000000000001 46.500000000000007 336.50000000000006
decision_type=2 2 2 2 2 2 2 2 2
left_child=1 5 3 7 -2 -1 -5 -3 -7
right_child=4 2 -4 6 -6 8 -8 -9 -10
leaf_value=-1.3273734880938576e-05 0.0025268229880846013 0.00019359151243954789 -0.004680719809225917 0.022544853741196549 0.007220486340658157 0.0021679646122804474 0.0071141032267659256 -0.0089686749815616369 0.0090135569702926802
leaf_weight=22959.477142587304 6724.8125704228878 622.75504985451698 9956.8971517831087 89.937798917293549 2178.0267948359251 4594.4179410934448 289.03466613590717 244.72293953597546 316.77367573976517
leaf_count=62784 17616 1753 29264 179 5334 12222 720 778 767
internal_value=0 -0.0409252 -0.198706 0.0831657 0.183891 0.0225025 0.547007 -0.120314 0.130798
internal_weight=0 39074 11203.3 1246.45 8902.84 27870.7 378.972 867.478 4911.19
internal_count=131417 108467 32694 3430 22950 75773 899 2531 12989
shrinkage=0.02


Tree=39
num_leaves=10
num_cat=0
split_feature=0 0 0 0 0 0 0 0 0
split_gain=319.074 735.503 438.293 218.343 481.98 434.418 227.004 199.842 365.706
threshold=264.50000000000006 267.50000000000006 263.50000000000006 458.50000000000006 446.50000000000006 505.50000000000006 374.50000000000006 25.500000000000004 27.500000000000004
decision_type=2 2 2 2 2 2 2 2 2
left_child=2 -2 7 4 6 -5 -3 -1 -9
right_child=1 3 -4 5 -6 -7 -8 8 -10
leaf_value=0.0046079790191386576 0.01399896703671592 0.002543682116320676 -0.016650340489863275 0.0081805816503569845 -0.017476823482094887 -0.0048425033918497373 -0.002553384710382509 -0.01965620645926739 -0.0012243355426645043
leaf_weight=2296.7146537601948 1814.560732588172 7778.730050355196 735.07846687734127 3475.7626142650843 638.05071195960045 1449.351221755147 6341.2712754905224 435.86992973089218 23008.038485631347
leaf_count=5849 3898 20458 2780 8360 2150 4135 17743 1507 64537
internal_value=0 0.0912867 -0.0726961 0.0350618 -0.0257727 0.217317 0.0127058 -0.0508917 -0.0784874
internal_weight=0 21497.7 26475.7 19683.2 14758.1 4925.11 14120 25740.6 23443.9
internal_count=131417 56744 74673 52846 40351 12495 38201 71893 66044
shrinkage=0.02


Tree=40
num_leaves=10
num_cat=0
split_feature=0 0 0 20 0 0 0 0 0
split_gain=359.761 658.058 349.917 260.481 213.056 303.975 169.75 869.166 650.963
threshold=201.50000000000003 197.50000000000003 205.50000000000003 139.50000000000003 25.500000000000004 27.500000000000004 374.50000000000006 369.50000000000006 417.50000000000006
decision_type=2 2 2 2 2 2 2 2 2
left_child=1 4 -2 6 -1 -6 7 -4 -8
right_child=2 -3 3 -5 5 -7 8 -9 -10
leaf_value=0.004175171751906826 0.019242127072562596 -0.024780291856143406 0.00067825927958417218 0.0053166137083492234 -0.018942072771505752 -0.0018892795672137057 -0.010424829713973143 0.025879643408010366 0.0013039897637001985
leaf_weight=2284.0237360745668 430.69574505090714 497.38144752383232 13940.249982520938 4966.9320228248835 427.27171121537685 15006.282965600491 2550.7936950027943 566.82924450933933 7308.8655565977097
leaf_count=5842 925 1782 37895 12519 1475 42679 7870 1024 19406
internal_value=0 -0.108036 0.0703829 0.0571828 -0.0760648 -0.118268 0.0146121 0.0834252 -0.0866007
internal_weight=0 18215 29764.4 29333.7 17717.6 15433.6 24366.7 14507.1 9859.66
internal_count=131417 51778 79639 78714 49996 44154 66195 38919 27276
shrinkage=0.02


Tree=41
num_leaves=10
num_cat=0
split_feature=0 0 0 20 0 0 18 0 1
split_gain=345.614 633.07 335.943 250.246 204.657 292.599 181.753 185.306 162.149
threshold=201.50000000000003 197.50000000000003 205.50000000000003 139.50000000000003 25.500000000000004 27.500000000000004 1.5000000000000002 241.50000000000003 1.5000000000000002
decision_type=2 2 2 2 2 2 2 2 2
left_child=1 4 -2 6 -1 -6 -4 -8 -7
right_child=2 -3 3 -5 5 8 7 -9 -10
leaf_value=0.0040922250245967948 0.01884975374972046 -0.024318057846423748 0.0016476707460765 0.0052117377979846707 -0.01859499959504967 -0.0028191236929182894 0.0029786387033296216 -0.0035301065546207546 0.0026137027194997149
leaf_weight=2283.7766628265381 430.92775988578796 496.76195667684078 15031.883703827858 4965.617627799511 426.60441164672375 12334.990043848753 2328.4375024288893 7004.2186639904976 2670.0625154227018
leaf_count=5842 925 1782 39936 12519 1475 35669 6084 20175 7010
internal_value=0 -0.105899 0.0689881 0.0560491 -0.0745557 -0.115922 0.014324 -0.0952569 -0.0925827
internal_weight=0 18212.2 29761.1 29330.2 17715.4 15431.7 24364.5 9332.66 15005.1
internal_count=131417 51778 79639 78714 49996 44154 66195 26259 42679
shrinkage=0.02


Tree=42
num_leaves=10
num_cat=0
split_feature=0 21 20 0 0 0 0 0 0
split_gain=332.094 280.113 232.032 237.94 772.55 603.946 202.994 181.598 175.674
threshold=222.50000000000003 58.500000000000007 131.50000000000003 374.50000000000006 369.50000000000006 417.50000000000006 413.50000000000006 241.50000000000003 519.50000000000011
decision_type=2 2 2 2 2 2 2 2 2
left_child=1 -1 3 4 7 6 -5 -2 -7
right_child=2 -3 -4 5 -6 8 -8 -9 -10
leaf_value=4.8013836832217788e-05 0.0059224788753930255 -0.0046967915839290766 0.00530215621321946 -0.0078169927895491084 0.025350649881016655 0.0021002117627760665 -0.023930924601791692 9.7384076979065989e-06 -0.009807950705617503
leaf_weight=12375.495442941785 2683.6825251579285 8318.8731012493372 5195.0611896216869 2137.9511365443468 558.93022020161152 6622.9565002322197 365.48813797533512 9176.2656688690186 532.51137790083885
leaf_count=33953 6612 24745 13066 6425 1013 17408 1299 25289 1607
internal_value=0 -0.0929726 0.075017 0.0302437 0.121795 -0.0874383 -0.509888 0.0674673 0.0604713
internal_weight=0 20694.4 27272.8 22077.8 12418.9 9658.91 2503.44 11859.9 7155.47
internal_count=131417 58698 72719 59653 32914 26739 7724 31901 19015
shrinkage=0.02


Tree=43
num_leaves=10
num_cat=0
split_feature=20 21 18 14 14 8 20 5 6
split_gain=287.059 197.032 290.984 161.728 68.9887 58.3555 47.7192 45.5334 32.8603
threshold=236.50000000000003 64.500000000000014 1.5000000000000002 7.5000000000000009 5.5000000000000009 1.5000000000000002 141.50000000000003 30.500000000000004 18.500000000000004
decision_type=2 2 2 2 2 2 2 2 2
left_child=1 3 -3 5 -2 -1 7 -4 -6
right_child=4 2 6 -5 8 -7 -8 -9 -10
leaf_value=0.0013519375146625275 0.0020238249368905678 0.0010455015571786189 -0.0036637880711792741 0.004277998338743769 0.016198706602716197 -0.00073460264269379022 5.8982077165978785e-05 -0.0066488000911361636 0.0066744945138417387
leaf_weight=8017.379041954875 1689.1311789005995 6427.2109043747187 4789.5443842858076 4041.4641444087029 155.08981797099113 16168.85489359498 834.34047444164753 3606.865638718009 2229.6317690163851
leaf_count=21535 4490 17380 13892 10379 334 44674 2283 10938 5512
internal_value=0 -0.0210881 -0.111047 0.028808 0.256314 -0.00213077 -0.224777 -0.247435 0.365799
internal_weight=0 43885.7 15658 28227.7 4073.85 24186.2 9230.75 8396.41 2384.72
internal_count=131417 121081 44493 76588 10336 66209 27113 24830 5846
shrinkage=0.02


Tree=44
num_leaves=10
num_cat=0
split_feature=20 21 18 14 14 8 4 3 2
split_gain=275.793 189.766 273.982 155.169 66.3176 50.2359 48.9675 31.6404 41.458
threshold=236.50000000000003 58.500000000000007 1.5000000000000002 7.5000000000000009 5.5000000000000009 1.5000000000000002 35.500000000000007 21.500000000000004 851.50000000000011
decision_type=2 2 2 2 2 2 2 2 2
left_child=1 3 -3 5 -2 -1 -4 -6 -9
right_child=4 2 6 -5 7 -7 -8 8 -10
leaf_value=0.0013682261451872929 0.001983501345302242 0.00076196248067040727 -0.0030898172242329646 0.0044589628259346769 0.014985621426592875 -0.00063176475023159814 -0.0059826679622477612 0.004642603666452123 0.010659624251360609
leaf_weight=7577.0184250771999 1689.0623637288809 7891.1915096193552 5915.3320253193378 3704.7216534465551 190.5870755314827 14891.682600542903 3903.0881694406271 1532.0337350815535 661.29623809456825
leaf_count=20332 4490 21415 17032 9468 417 41079 11755 3888 1541
internal_value=0 -0.0206677 -0.100607 0.0334153 0.251264 0.00212544 -0.212095 0.358637 0.323578
internal_weight=0 43883 17709.6 26173.4 4072.98 22468.7 9818.42 2383.92 2193.33
internal_count=131417 121081 50202 70879 10336 61411 28787 5846 5429
shrinkage=0.02


Tree=45
num_leaves=10
num_cat=0
split_feature=1 18 0 0 0 0 0 0 20
split_gain=299.252 327.093 301.489 307.273 208.781 152.469 236.959 176.656 274.952
threshold=1.5000000000000002 1.5000000000000002 264.50000000000006 267.50000000000006 308.50000000000006 375.50000000000006 417.50000000000006 222.50000000000003 59.500000000000007
decision_type=2 2 2 2 2 2 2 2 2
left_child=1 2 -1 -4 -5 7 -7 8 -3
right_child=-2 5 3 4 -6 6 -8 -9 -10
leaf_value=-0.0015166542912762721 0.0033418174405270128 0.0056160287052560622 0.012828141631999116 -0.0045992171145865686 0.0028273164273296654 -0.01769049268386225 -0.0038918440040790173 0.00054473914870262034 -0.0073417932798886358
leaf_weight=14729.670627012849 8942.7853642404079 788.24565801024437 1085.7733895033598 1773.3772637397051 10246.065654650331 717.47180911898613 1624.1149729639292 4238.6991881877184 3804.9629629850388
leaf_count=41563 23103 2031 2358 5195 26575 2444 4647 11681 11820
internal_value=0 -0.035696 0.0223149 0.132643 0.0865107 -0.180204 -0.40698 -0.119928 -0.255728
internal_weight=0 39008.4 27834.9 13105.2 12019.4 11173.5 2341.59 8831.91 4593.21
internal_count=131417 108314 75691 34128 31770 32623 7091 25532 13851
shrinkage=0.02


Tree=46
num_leaves=10
num_cat=0
split_feature=1 18 0 0 0 0 0 0 20
split_gain=287.452 314.278 289.653 296.586 200.553 146.561 228.233 169.793 264.272
threshold=1.5000000000000002 1.5000000000000002 264.50000000000006 267.50000000000006 308.50000000000006 375.50000000000006 417.50000000000006 222.50000000000003 59.500000000000007
decision_type=2 2 2 2 2 2 2 2 2
left_child=1 2 -1 -4 -5 7 -7 8 -3
right_child=-2 5 3 4 -6 6 -8 -9 -10
leaf_value=-0.0014864025462193395 0.0032754392773493373 0.0055033770328856216 0.01261646157599149 -0.0045082865510764798 0.0027710773655485253 -0.017363506523294228 -0.0038143072897773305 0.00053384999952702948 -0.0072002922037119966
leaf_weight=14728.929446354508 8941.6072846204042 788.3533930182457 1081.9993859827518 1773.0267624109983 10245.000645011663 716.43034833669662 1624.0487523525953 4238.7161301523447 3802.2306572198868
leaf_count=41563 23103 2031 2358 5195 26575 2444 4647 11681 11820
internal_value=0 -0.0349916 0.0218749 0.130046 0.0847896 -0.176666 -0.399063 -0.117564 -0.250759
internal_weight=0 38998.7 27829 13100 12018 11169.8 2340.48 8829.3 4590.58
internal_count=131417 108314 75691 34128 31770 32623 7091 25532 13851
shrinkage=0.02


Tree=47
num_leaves=10
num_cat=0
split_feature=1 18 0 0 0 0 0 0 0
split_gain=276.118 301.969 278.282 286.275 192.649 146.256 159.226 140.893 219.879
threshold=1.5000000000000002 1.5000000000000002 264.50000000000006 267.50000000000006 308.50000000000006 243.50000000000003 239.50000000000003 375.50000000000006 417.50000000000006
decision_type=2 2 2 2 2 2 2 2 2
left_child=1 2 5 -4 -5 6 -1 -3 -9
right_child=-2 7 3 4 -6 -7 -8 8 -10
leaf_value=-0.0015126733764947433 0.0032103882031586377 -0.0023049546601179873 0.012408459895749003 -0.0044191820969596077 0.0027159620378694859 -0.0088839734974309331 0.0069144559209866879 -0.017044693226259091 -0.0037383396710884958
leaf_weight=12780.295971244574 8940.4052239656448 8826.6336926817894 1078.2226649671793 1772.6651678085327 10243.917577400804 986.52034261822701 961.37037709355354 715.30167472362518 1623.9719583392143
leaf_count=36063 23103 25532 2358 5195 26575 3162 2338 2444 4647
internal_value=0 -0.0343013 0.0214437 0.127501 0.0831029 -0.0728377 -0.0460646 -0.173201 -0.391316
internal_weight=0 38988.9 27823 13094.8 12016.6 14728.2 13741.7 11165.9 2339.27
internal_count=131417 108314 75691 34128 31770 41563 38401 32623 7091
shrinkage=0.02


Tree=48
num_leaves=10
num_cat=0
split_feature=1 18 0 0 0 0 0 0 0
split_gain=265.232 290.1 267.366 276.325 185.058 140.671 152.993 135.482 211.876
threshold=1.5000000000000002 1.5000000000000002 264.50000000000006 267.50000000000006 308.50000000000006 243.50000000000003 239.50000000000003 375.50000000000006 417.50000000000006
decision_type=2 2 2 2 2 2 2 2 2
left_child=1 2 5 -4 -5 6 -1 -3 -9
right_child=-2 7 3 4 -6 -7 -8 8 -10
leaf_value=-0.0014825089230924369 0.0031466368729697759 -0.0022591347448569395 0.012204035956612923 -0.0043318639586771533 0.0026619473556866802 -0.0087158308723411602 0.0067798635086218292 -0.016733691473883764 -0.003663908292370691
leaf_weight=12779.595699191093 8939.1815720796585 8825.6139690279961 1074.4462896585464 1772.2933951318264 10242.818320587277 985.50899548828602 960.91040760278702 714.09178490936756 1623.8852889537811
leaf_count=36063 23103 25532 2358 5195 26575 3162 2338 2444 4647
internal_value=0 -0.033625 0.0210217 0.125005 0.08145 -0.0713924 -0.0451454 -0.16978 -0.383736
internal_weight=0 38979.2 27815.6 13089.6 12015.1 14726 13740.5 11163.6 2337.98
internal_count=131417 108314 75691 34128 31770 41563 38401 32623 7091
shrinkage=0.02


Tree=49
num_leaves=10
num_cat=0
split_feature=1 0 0 0 0 0 0 0 0
split_gain=254.776 226.397 220.253 731.984 626.364 215.521 197.124 179.458 155.724
threshold=1.5000000000000002 222.50000000000003 374.50000000000006 369.50000000000006 417.50000000000006 505.50000000000006 25.500000000000004 241.50000000000003 407.50000000000006
decision_type=2 2 2 2 2 2 2 2 2
left_child=1 6 3 7 8 -6 -1 -3 -4
right_child=-2 2 4 -5 5 -7 -8 -9 -10
leaf_value=0.0039773454263701113 0.0030841583669653158 0.0056033270173678944 -0.0074377249576639427 0.025338851196303618 0.0028941352886328281 -0.0064223068660698643 -0.0031504747123222493 -2.5800709078872489e-05 -0.019194854455170069
leaf_weight=1727.4232021123171 8937.9385533928871 3027.2042864412069 1860.9710147678852 530.52694249153137 6048.6221114695072 1185.0757053792477 15025.590535387397 8967.0011170953512 596.87769159674644
leaf_count=4452 23103 7482 5601 955 15713 3454 43826 24779 2052
internal_value=0 -0.0329621 0.0332155 0.120799 -0.0799431 0.0682495 -0.120729 0.0697737 -0.515762
internal_weight=0 38969.3 22216.3 12524.7 9691.55 7233.7 16753 11994.2 2457.85
internal_count=131417 108314 60036 33216 26820 19167 48278 32261 7653
shrinkage=0.02


Tree=50
num_leaves=10
num_cat=0
split_feature=1 18 0 0 0 0 0 0 20
split_gain=257.625 318.169 270.632 268.534 197.379 130.904 190.402 131.188 284.577
threshold=1.5000000000000002 1.5000000000000002 264.50000000000006 267.50000000000006 308.50000000000006 377.50000000000006 417.50000000000006 222.50000000000003 59.500000000000007
decision_type=2 2 2 2 2 2 2 2 2
left_child=1 2 -1 -4 -5 7 -7 8 -3
right_child=-2 5 3 4 -6 6 -8 -9 -10
leaf_value=-0.0013924192778862984 0.0030885643034154536 0.0059473933067775023 0.012222981045819243 -0.0044519639308202305 0.0027747365860111245 -0.016819451752932632 -0.0040860294377768336 9.0875943755031955e-05 -0.0070651295380994928
leaf_weight=14739.058786123991 8912.0941700488329 813.53810268640518 1054.6385878026485 1770.0583773106337 10244.485045522451 662.07394951581955 1616.0831507593393 4276.2314994037151 3803.6589984595776
leaf_count=41619 23015 2086 2317 5202 26529 2287 4650 11855 11857
internal_value=0 -0.0340026 0.0232547 0.128012 0.0854354 -0.176522 -0.390324 -0.121607 -0.238434
internal_weight=0 38979.8 27808.2 13069.2 12014.5 11171.6 2278.16 8893.43 4617.2
internal_count=131417 108402 75667 34048 31731 32735 6937 25798 13943
shrinkage=0.02


Tree=51
num_leaves=10
num_cat=0
split_feature=20 0 0 0 0 0 0 0 0
split_gain=248.011 214.252 381.88 309.998 236.869 423.779 251.84 167.264 599.3
threshold=249.50000000000003 458.50000000000006 446.50000000000006 505.50000000000006 495.50000000000006 496.50000000000006 468.50000000000006 264.50000000000006 267.50000000000006
decision_type=2 2 2 2 2 2 2 2 2
left_child=1 2 7 4 6 -6 -3 -1 -9
right_child=-2 3 -4 -5 5 -7 -8 8 -10
leaf_value=-0.0016446021785944929 0.0048890687861202382 0.011131319275532332 -0.016724622479420494 -0.0042202843836029406 0.028889867618739282 0.004583806971854276 -0.0032048693786786713 0.01284358738824992 -0.00033987589138791477
leaf_weight=24425.001943990588 3846.5675591975451 846.66228803992271 596.29967427253723 1383.9591598659754 468.90985295176506 737.42850039899349 1155.072118550539 1541.574229195714 12878.738638430834
leaf_count=69389 9753 1948 2001 3932 814 1849 3190 3380 35161
internal_value=0 -0.0202301 -0.0440412 0.184117 0.354707 0.704244 0.143171 -0.0318092 0.0535719
internal_weight=0 44033.6 39441.6 4592.03 3208.07 1206.34 2001.73 38845.3 14420.3
internal_count=131417 121664 109931 11733 7801 2663 5138 107930 38541
shrinkage=0.02


Tree=52
num_leaves=10
num_cat=0
split_feature=14 21 21 18 21 15 8 4 21
split_gain=189.147 124.029 144.496 100.627 132.526 82.6913 57.6879 51.8269 49.1495
threshold=7.5000000000000009 63.500000000000007 152.50000000000003 1.5000000000000002 58.500000000000007 5.5000000000000009 91.500000000000014 48.500000000000007 65.500000000000014
decision_type=2 2 2 2 2 2 2 2 2
left_child=3 -2 5 8 6 -3 -5 -6 -1
right_child=1 2 -4 4 7 -7 -8 -9 -10
leaf_value=-0.0003218287642848937 0.0045786324069911743 0.0063577380123062219 0.007673196613866346 0.00084355444253098131 -0.002590244974592577 -0.0047344360365933072 -0.010716300174902056 -0.0062632936930235097 0.0016682970601400822
leaf_weight=18564.943880438805 5351.9986918121576 311.8077584207058 642.91195836663246 5533.3307554721832 6683.0717538446188 1834.7735559642315 175.19774051010609 2001.7261478155851 6770.9248558729887
leaf_count=51025 13602 767 1588 14869 19242 5455 585 6103 18181
internal_value=0 0.139858 -0.0309964 -0.0274273 -0.0941913 -0.15569 0.0241142 -0.17197 0.0104962
internal_weight=0 8141.49 2789.49 39729.2 14393.3 2146.58 5708.53 8684.8 25335.9
internal_count=131417 21412 7810 110005 40799 6222 15454 25345 69206
shrinkage=0.02


Tree=53
num_leaves=10
num_cat=0
split_feature=1 18 20 14 16 20 6 20 2
split_gain=237.787 294.336 95.7917 87.071 86.3823 61.3546 45.9799 45.1237 49.7188
threshold=1.5000000000000002 1.5000000000000002 58.500000000000007 7.5000000000000009 7.5000000000000009 335.50000000000006 283.50000000000006 149.50000000000003 53.500000000000007
decision_type=2 2 2 2 2 2 2 2 2
left_child=1 5 3 -3 -2 6 -1 8 -4
right_child=4 2 7 -5 -6 -7 -8 -9 -10
leaf_value=0.00012511431473937319 0.0018454300763670701 -0.0021324495239623312 -0.0034492915148904017 0.0075205162140324494 0.0064316118157993355 0.0058504481184036864 0.0045817533313218034 0.0018151224122489721 -0.0066186666617707203
leaf_weight=26025.387598976493 6732.9761279225349 1165.7600834965706 6001.3839560002089 546.31290499866009 2174.8284076154232 813.18687938153744 957.3608174175024 473.26430214941502 2976.355720937252
leaf_count=71145 17683 3403 17545 1353 5332 2062 2460 1288 9146
internal_value=0 -0.032695 -0.169831 0.0476013 0.14838 0.0223816 0.0141976 -0.209254 -0.225128
internal_weight=0 38959 11163.1 1712.07 8907.8 27795.9 26982.7 9451 8977.74
internal_count=131417 108402 32735 4756 23015 75667 73605 27979 26691
shrinkage=0.02


Tree=54
num_leaves=10
num_cat=0
split_feature=0 0 0 0 0 0 0 0 0
split_gain=235.646 686.139 384.468 218.549 608.729 300.218 257.068 216.16 190.17
threshold=266.50000000000006 267.50000000000006 263.50000000000006 316.50000000000006 317.50000000000006 288.50000000000006 286.50000000000006 294.50000000000006 374.50000000000006
decision_type=2 2 2 2 2 2 2 2 2
left_child=2 -2 -1 5 -5 6 -3 -7 -6
right_child=1 3 -4 4 8 7 -8 -9 -10
leaf_value=-0.00078855152747076549 0.013994057011879189 -0.002564986961957086 -0.014202128756681608 0.025603461540084266 0.0046498065528614773 -0.021305408661931265 0.01583162530592715 -0.0052016352718998494 -0.00038812581186024045
leaf_weight=25720.959007427096 1642.6446710675955 1471.6092293709517 881.22685331106186 405.66304737329483 4003.0446041822433 513.64297112822533 379.63149017095566 952.09934869408607 11891.629329517484
leaf_count=71914 3489 4202 3245 704 10046 1817 831 2822 32347
internal_value=0 0.0794741 -0.0617334 0.0274253 0.075058 -0.206417 0.0611928 -0.544049 0.0440464
internal_weight=0 21260 26602.2 19617.3 16300.3 3316.98 1851.24 1465.74 15894.7
internal_count=131417 56258 75159 52769 43097 9672 5033 4639 42393
shrinkage=0.02


Tree=55
num_leaves=10
num_cat=0
split_feature=0 0 0 0 0 20 0 0 0
split_gain=245.485 584.714 337.251 212.304 265.606 175.499 162.69 153.213 731.201
threshold=201.50000000000003 197.50000000000003 205.50000000000003 25.500000000000004 27.500000000000004 141.50000000000003 4.5000000000000009 374.50000000000006 369.50000000000006
decision_type=2 2 2 2 2 2 2 2 2
left_child=1 3 -2 6 -5 7 -1 8 -4
right_child=2 -3 5 4 -6 -7 -8 -9 -10
leaf_value=-0.0050089471993544467 0.018650121213206191 -0.022790731590543074 0.00070239734926373003 -0.017359889215454831 -0.0015144197141574178 0.0044406864504773595 0.0074477430255667863 -0.0016405617406962977 0.02441872750493403
leaf_weight=545.61874532699585 434.93203139305115 509.11743997037411 13985.219316780567 432.64680813252926 14912.783159330487 4850.8131811618805 1778.2371047437191 9906.3057439476252 537.12588813900948
leaf_count=1558 933 1819 38095 1486 42455 12286 4357 27451 977
internal_value=0 -0.0861234 0.0613974 -0.0555654 -0.0982431 0.048353 0.225888 0.0138297 0.0792424
internal_weight=0 18178.4 29714.4 17669.3 15345.4 29279.5 2323.86 24428.7 14522.3
internal_count=131417 51675 79742 49856 43941 78809 5915 66523 39072
shrinkage=0.02


Tree=56
num_leaves=10
num_cat=0
split_feature=1 18 3 20 14 6 21 6 8
split_gain=208.233 273.778 79.0065 73.6157 123.918 68.9951 59.246 36.1673 32.8901
threshold=1.5000000000000002 1.5000000000000002 512.50000000000011 58.500000000000007 6.5000000000000009 74.500000000000014 334.50000000000006 83.500000000000014 1.0000000180025095e-35
decision_type=2 2 2 2 2 2 2 2 2
left_child=1 6 8 4 5 -3 7 -1 -2
right_child=2 3 -4 -5 -6 -7 -8 -9 -10
leaf_value=0.00012074577710882232 0.0053499344861555852 -0.0011874031835910227 0.008007256513052053 -0.003858486335884525 0.0079422951034375869 -0.015070739241149125 0.005829214500660893 0.0024735704722796312 0.0016426481589992706
leaf_weight=24086.972641646862 1117.2439553141594 938.4530987739563 1052.8901158422232 9460.0706658363342 600.83564108610153 166.3891346603632 818.50336675345898 2929.4715356975794 6715.6706771701574
leaf_count=65877 2800 2693 2527 27951 1482 589 2072 7768 17658
internal_value=0 -0.0261832 0.143419 -0.158451 0.032573 -0.16594 0.0268755 0.0188169 0.108702
internal_weight=0 39000.7 8885.8 11165.7 1705.68 1104.84 27834.9 27016.4 7832.91
internal_count=131417 108432 22985 32715 4764 3282 75717 73645 20458
shrinkage=0.02


Tree=57
num_leaves=10
num_cat=0
split_feature=0 0 0 0 0 0 0 0 0
split_gain=237.985 684.533 382.651 202.358 470.966 364.483 201.716 171.101 168.342
threshold=266.50000000000006 267.50000000000006 263.50000000000006 458.50000000000006 446.50000000000006 505.50000000000006 495.50000000000006 417.50000000000006 25.500000000000004
decision_type=2 2 2 2 2 2 2 2 2
left_child=2 -2 8 4 7 6 -5 -3 -1
right_child=1 3 -4 5 -6 -7 -8 -9 -10
leaf_value=0.0044184772172139106 0.014037750833633098 -0.0010232833130332979 -0.014046922026704486 0.0040162967232342129 -0.017199873844786554 -0.004312678831169022 0.014078241871347827 0.0040740482192914186 -0.0012229260883818247
leaf_weight=2323.3047381639481 1650.3770036995411 10648.730033814907 887.69085469841957 2192.222657084465 644.97403487563133 1429.16935326159 1254.7680109888315 3496.2743810117245 23354.446301683784
leaf_count=5915 3508 29393 3282 5537 2180 4067 2763 8918 65854
internal_value=0 0.0838866 -0.0579582 0.0319097 -0.0263253 0.208513 0.384491 0.0118408 -0.0355903
internal_weight=0 21316.5 26565.4 19666.1 14790 4876.16 3446.99 14145 25677.8
internal_count=131417 56366 75051 52858 40491 12367 8300 38311 71769
shrinkage=0.02


Tree=58
num_leaves=10
num_cat=0
split_feature=1 18 16 20 14 6 21 6 20
split_gain=199.602 259.63 76.5252 71.4207 118.518 65.8819 56.666 34.7717 32.4048
threshold=1.5000000000000002 1.5000000000000002 5.5000000000000009 58.500000000000007 6.5000000000000009 74.500000000000014 334.50000000000006 83.500000000000014 33.500000000000007
decision_type=2 2 2 2 2 2 2 2 2
left_child=1 6 -2 4 5 -3 7 -1 -6
right_child=2 3 -4 -5 8 -7 -8 -9 -10
leaf_value=0.00011049633301241123 0.0015175965885034781 -0.0011318965213404826 0.0054848031067420882 -0.0037707184192412851 0.013239933509081521 -0.0147229536406887 0.0056958160135943134 0.0024178566067211641 0.0037762454058133544
leaf_weight=24080.18184389174 5999.2254685610533 937.55708958208561 2882.1492404639721 9455.5360611379147 252.07006712257862 165.6965616941452 817.92467086017132 2928.4927645474672 348.42627611756325
leaf_count=65877 15834 2693 7151 27951 574 589 2072 7768 908
internal_value=0 -0.0257339 0.140356 -0.154581 0.0336856 -0.160647 0.025938 0.0180571 0.390241
internal_weight=0 38985.9 8881.37 11159.3 1703.75 1103.25 27826.6 27008.7 600.496
internal_count=131417 108432 22985 32715 4764 3282 75717 73645 1482
shrinkage=0.02


Tree=59
num_leaves=10
num_cat=0
split_feature=0 0 0 0 0 20 0 0 0
split_gain=234.091 561.516 324.364 196.078 257.386 159.061 155.929 152.079 703.866
threshold=201.50000000000003 197.50000000000003 205.50000000000003 25.500000000000004 27.500000000000004 141.50000000000003 4.5000000000000009 374.50000000000006 369.50000000000006
decision_type=2 2 2 2 2 2 2 2 2
left_child=1 3 -2 6 -5 7 -1 8 -4
right_child=2 -3 5 4 -6 -7 -8 -9 -10
leaf_value=-0.0050051215107899021 0.018279354405975192 -0.022356499775083877 0.0007194127986325891 -0.017078103375700589 -0.0014666953690839039 0.0042472763017234304 0.0071912922624190303 -0.0016297409585430223 0.02402221129258086
leaf_weight=545.52688419818878 434.96005211770535 508.03369289636612 13974.862546265125 431.89903101325035 14907.821228593588 4844.1789260804653 1777.2358219474554 9902.5376343876123 535.50788612663746
leaf_count=1558 933 1819 38095 1486 42455 12286 4357 27451 977
internal_value=0 -0.0844004 0.0596959 -0.0544738 -0.0954944 0.046893 0.216074 0.0140248 0.0792304
internal_weight=0 18170.5 29692 17662.5 15339.7 29257.1 2322.76 24412.9 14510.4
internal_count=131417 51675 79742 49856 43941 78809 5915 66523 39072
shrinkage=0.02


Tree=60
num_leaves=10
num_cat=0
split_feature=0 0 0 0 0 0 0 21 0
split_gain=233.94 223.491 242.3 212.645 527.128 598.231 190.418 188.702 117.108
threshold=222.50000000000003 25.500000000000004 27.500000000000004 241.50000000000003 264.50000000000006 267.50000000000006 308.50000000000006 32.500000000000007 263.50000000000006
decision_type=2 2 2 2 2 2 2 2 2
left_child=1 -1 -3 -2 8 -6 -7 -4 -5
right_child=3 2 7 4 5 6 -8 -9 -10
leaf_value=0.0042109531158458701 0.0057505733725493674 -0.017212161078544695 0.00093416847369145323 -0.0055136939175610212 0.012534509854657396 -0.0041905034969151028 0.0012912549775759739 -0.0034442848553107265 -0.015295320386052262
leaf_weight=2317.8001357465982 3548.3677992373705 427.15053415298462 5833.5248927026987 1486.0583638697863 1786.4260817021132 2989.2612788230181 16566.248295858502 12090.511134281754 734.20312625169754
leaf_count=5906 8740 1479 15866 4487 3949 8747 43929 35510 2804
internal_value=0 -0.0818166 -0.118788 0.0594095 0.0250107 0.0732858 0.0226245 -0.100951 -0.438364
internal_weight=0 20669 18351.2 27110.6 23562.2 21341.9 19555.5 17924 2220.26
internal_count=131417 58761 52855 72656 63916 56625 52676 51376 7291
shrinkage=0.02


Tree=61
num_leaves=10
num_cat=0
split_feature=0 0 0 0 0 0 0 21 0
split_gain=224.753 214.693 233.372 204.314 507.076 577.021 182.911 181.288 113.613
threshold=222.50000000000003 25.500000000000004 27.500000000000004 241.50000000000003 264.50000000000006 267.50000000000006 308.50000000000006 32.500000000000007 263.50000000000006
decision_type=2 2 2 2 2 2 2 2 2
left_child=1 -1 -3 -2 8 -6 -7 -4 -5
right_child=3 2 7 4 5 6 -8 -9 -10
leaf_value=0.0041274682287141913 0.0056379944640870963 -0.016904007675586467 0.00091547852815882598 -0.0054060351690682663 0.012328981058475691 -0.0041075997549989626 0.001265490565521121 -0.0033762214466809466 -0.015054938740319355
leaf_weight=2317.4520413428545 3546.911816328764 426.30180537700653 5833.6276199221611 1485.4058136790991 1779.9975635707378 2988.6681914627552 16565.523636028171 12087.656097352505 731.08705605566502
leaf_count=5906 8740 1479 15866 4487 3949 8747 43929 35510 2804
internal_value=0 -0.0801981 -0.116439 0.058249 0.0245212 0.0718494 0.0221728 -0.098948 -0.430369
internal_weight=0 20665 18347.6 27097.6 23550.7 21334.2 19554.2 17921.3 2216.49
internal_count=131417 58761 52855 72656 63916 56625 52676 51376 7291
shrinkage=0.02


Tree=62
num_leaves=10
num_cat=0
split_feature=0 0 0 0 0 0 0 20 23
split_gain=215.927 206.242 224.804 196.311 487.792 556.567 175.701 131.546 168.631
threshold=222.50000000000003 25.500000000000004 27.500000000000004 241.50000000000003 264.50000000000006 267.50000000000006 308.50000000000006 295.50000000000006 53.500000000000007
decision_type=2 2 2 2 2 2 2 2 2
left_child=1 -1 -3 -2 -5 -6 -7 8 -4
right_child=3 2 7 4 5 6 -8 -9 -10
leaf_value=0.0040456610942527609 0.0055276625190594066 -0.016603130165480467 -0.00050593481034892629 -0.0084504998854685962 0.012126907999376296 -0.0040263547337580745 0.0012402398370666865 0.0049247701341705976 -0.0045161209276402122
leaf_weight=2317.0911144763231 3545.4285486936569 425.40994118154049 9043.6410160809755 2212.7011476010084 1773.5799050033092 2988.0617060810328 16564.8002756387 1047.9588502496481 7826.9153251498938
leaf_count=5906 8740 1479 25140 7291 3949 8747 43929 2694 23542
internal_value=0 -0.0786119 -0.114136 0.0571113 0.0240412 0.0704411 0.02173 -0.0969843 -0.118362
internal_weight=0 20661 18343.9 27084.6 23539.1 21326.4 19552.9 17918.5 16870.6
internal_count=131417 58761 52855 72656 63916 56625 52676 51376 48682
shrinkage=0.02


Tree=63
num_leaves=10
num_cat=0
split_feature=0 0 0 0 0 0 0 0 21
split_gain=207.455 198.128 216.576 188.623 469.037 543.031 421.516 235.218 170.962
threshold=222.50000000000003 25.500000000000004 27.500000000000004 241.50000000000003 264.50000000000006 276.50000000000006 301.50000000000006 275.50000000000006 60.500000000000007
decision_type=2 2 2 2 2 2 2 2 2
left_child=1 -1 -3 -2 -5 7 -7 -6 -4
right_child=3 2 8 4 5 6 -8 -9 -10
leaf_value=0.0039654959069827019 0.005419528788787438 -0.016309222358868024 -0.00034250201503574588 -0.0082925319479664975 0.0073597112550893851 -0.0091609187268029899 0.0011376162582728364 0.024345381424087181 -0.0043508538333766793
leaf_weight=2316.718337148428 3543.9207702577114 424.47815525531769 10951.999194830656 2209.8409682810307 2310.9222165495157 1751.989379376173 16877.279657065868 378.50804123282433 6963.2002059966326
leaf_count=5906 8740 1479 30340 7291 5591 5419 44850 765 21036
internal_value=0 -0.0770594 -0.111884 0.0559959 0.0235719 0.0690605 0.00837248 0.488848 -0.0950626
internal_weight=0 20656.4 18339.7 27072.5 23528.5 21318.7 18629.3 2689.43 17915.2
internal_count=131417 58761 52855 72656 63916 56625 50269 6356 51376
shrinkage=0.02


Tree=64
num_leaves=10
num_cat=0
split_feature=0 0 0 0 0 0 2 21 0
split_gain=199.311 190.335 208.674 181.243 450.995 526.115 173.747 166.663 111.59
threshold=222.50000000000003 25.500000000000004 27.500000000000004 241.50000000000003 264.50000000000006 267.50000000000006 325.50000000000006 32.500000000000007 4.5000000000000009
decision_type=2 2 2 2 2 2 2 2 2
left_child=1 8 -3 -2 -5 -6 -7 -4 -1
right_child=3 2 7 4 5 6 -8 -9 -10
leaf_value=-0.0039424220531134634 0.0053135446208899774 -0.016021998418902561 0.00091128594283781657 -0.0081375881153982321 0.011807623473707987 -0.0002189492244873522 0.0060644109987374462 -0.0032041655281130794 0.0063401014952577973
leaf_weight=551.6039651632309 3542.3911284357309 423.50950975716114 5833.5721970647573 2206.9655079096556 1763.2491803914309 17597.873970329762 1952.8122883588076 12078.463915124536 1764.730752453208
leaf_count=1553 8740 1479 15866 7291 3949 47821 4855 35510 4353
internal_value=0 -0.0755382 -0.109675 0.054897 0.0231096 0.0676982 0.0204594 -0.0931793 0.194347
internal_weight=0 20651.9 18335.5 27063.3 23520.9 21313.9 19550.7 17912 2316.33
internal_count=131417 58761 52855 72656 63916 56625 52676 51376 5906
shrinkage=0.02


Tree=65
num_leaves=10
num_cat=0
split_feature=20 0 0 0 0 0 0 0 0
split_gain=212.493 173.803 411.254 270.459 213.598 426.822 208.049 163.168 842.423
threshold=165.50000000000003 458.50000000000006 446.50000000000006 505.50000000000006 495.50000000000006 496.50000000000006 468.50000000000006 374.50000000000006 369.50000000000006
decision_type=2 2 2 2 2 2 2 2 2
left_child=1 2 7 4 6 -6 -3 8 -1
right_child=-2 3 -4 -5 5 -7 -8 -9 -10
leaf_value=-0.00059706819410774406 0.0034379280205627644 0.010050908069891356 -0.017713567210784424 -0.0043438142344079883 0.028281870557296168 0.0035922395313871787 -0.0033530488537304132 -0.0039192112292515107 0.023477538698606394
leaf_weight=30566.289562031627 6265.010842397809 799.80770793557167 573.88705095648766 1310.9672993570566 455.01069538295269 725.32716247439384 1091.5555231571198 5349.8086165934801 589.66473145782948
leaf_count=85603 16206 1864 1962 3740 790 1836 3021 15313 1082
internal_value=0 -0.025653 -0.0479215 0.162586 0.324821 0.658127 0.115945 -0.0346717 -0.00695088
internal_weight=0 41462.3 37079.6 4382.67 3071.7 1180.34 1891.36 36505.8 31156
internal_count=131417 115211 103960 11251 7511 2626 4885 101998 86685
shrinkage=0.02


Tree=66
num_leaves=10
num_cat=0
split_feature=20 0 0 0 0 0 0 0 0
split_gain=206.646 199.173 526.934 294.456 180.492 161.193 132.442 122.85 260.444
threshold=335.50000000000006 201.50000000000003 197.50000000000003 205.50000000000003 25.500000000000004 27.500000000000004 4.5000000000000009 519.50000000000011 495.50000000000006
decision_type=2 2 2 2 2 2 2 2 2
left_child=1 2 4 -3 6 -6 -1 8 -5
right_child=-2 3 -4 7 5 -7 -8 -9 -10
leaf_value=-0.0047235827590741295 0.0055673179439648824 0.017357414203808371 -0.022771202625942275 0.00011570037055760136 -0.015188181844666264 -0.0018678300770503143 0.0068007906690814761 -0.0085326342957378742 0.0075367002450287858
leaf_weight=524.84683801233768 2527.6087502539158 416.85112047195435 472.12822960317135 24966.350813284516 370.19073843955994 14180.946545153856 1629.6842420995235 588.82958017289639 2043.9532723128796
leaf_count=1493 6327 905 1713 68198 1296 40771 3995 1761 4958
internal_value=0 -0.0152847 -0.10006 0.0366892 -0.0704936 -0.110509 0.1994 0.0240314 0.0339134
internal_weight=0 45193.8 17177.8 28016 16705.7 14551.1 2154.53 27599.1 27010.3
internal_count=131417 125090 49268 75822 47555 42067 5488 74917 73156
shrinkage=0.02


Tree=67
num_leaves=10
num_cat=0
split_feature=0 0 0 0 0 0 0 0 0
split_gain=201.209 481.735 395.904 383.665 250.03 377.754 200.422 581.103 138.331
threshold=264.50000000000006 276.50000000000006 284.50000000000006 263.50000000000006 275.50000000000006 267.50000000000006 288.50000000000006 298.50000000000006 232.50000000000003
decision_type=2 2 2 2 2 2 2 2 2
left_child=3 4 -3 8 5 -2 -4 -8 -1
right_child=1 2 6 -5 -6 -7 7 -9 -10
leaf_value=-0.00142430301948749 0.01144693938387872 -0.018284565963958613 0.013116310707943375 -0.015584526510986454 0.024410452174794605 -0.0076352976217509833 -0.018345916045036471 0.0011110183091489509 0.0024967417704073185
leaf_weight=21269.822543606162 1732.1906998604536 443.80428346991539 508.27594834566116 715.07050701975822 378.77249002456665 542.67440512776375 633.75762748718262 17162.925249785185 4328.1181552559137
leaf_count=60437 3902 1494 1168 2800 757 1639 2199 45632 11389
internal_value=0 0.0722754 0.0157857 -0.058284 0.470811 0.344407 0.0384964 0.0207413 -0.038044
internal_weight=0 21402.4 18748.8 26313 2653.64 2274.87 18305 17796.7 25597.9
internal_count=131417 56791 50493 74626 6298 5541 48999 47831 71826
shrinkage=0.02


Tree=68
num_leaves=10
num_cat=0
split_feature=20 0 0 0 0 0 0 0 0
split_gain=199.014 160.455 397.567 257.688 200.092 411.847 199.975 160.703 808.918
threshold=165.50000000000003 458.50000000000006 446.50000000000006 505.50000000000006 495.50000000000006 496.50000000000006 468.50000000000006 374.50000000000006 369.50000000000006
decision_type=2 2 2 2 2 2 2 2 2
left_child=1 2 7 4 6 -6 -3 8 -1
right_child=-2 3 -4 -5 5 -7 -8 -9 -10
leaf_value=-0.00056201710634994897 0.0033283176519773041 0.0098334167718623806 -0.017410521370071388 -0.0042915037814566315 0.027628634732412265 0.0033514503478165782 -0.0033102507995842849 -0.0038654593252336138 0.023071831183450252
leaf_weight=30551.458204999566 6260.1591511666775 799.22498905658722 573.06713134050369 1310.9501769095659 453.69285307824612 724.69766162335873 1091.683075517416 5349.7151094526052 587.48183988034725
leaf_count=85603 16206 1864 1962 3740 790 1836 3021 15313 1082
internal_value=0 -0.0248356 -0.0462366 0.15608 0.314546 0.637496 0.112438 -0.0332122 -0.00568788
internal_weight=0 41442 37061.7 4380.25 3069.3 1178.39 1890.91 36488.7 31138.9
internal_count=131417 115211 103960 11251 7511 2626 4885 101998 86685
shrinkage=0.02


Tree=69
num_leaves=10
num_cat=0
split_feature=20 0 0 0 0 0 0 0 0
split_gain=193.974 184.581 507.774 284.525 173.276 155.596 127.194 116.08 241.313
threshold=335.50000000000006 201.50000000000003 197.50000000000003 205.50000000000003 25.500000000000004 27.500000000000004 4.5000000000000009 519.50000000000011 495.50000000000006
decision_type=2 2 2 2 2 2 2 2 2
left_child=1 2 4 -3 6 -6 -1 8 -5
right_child=-2 3 -4 7 5 -7 -8 -9 -10
leaf_value=-0.0045957122058774757 0.005396522655665383 0.017045752939854334 -0.022346170710435792 0.00010644460910178198 -0.014901590171880051 -0.0017971951484371269 0.0066976717545521635 -0.0083055063569191599 0.0072535809194397517
leaf_weight=524.92655783891678 2525.1049788594246 416.84166549146175 470.83176696300507 24951.381782323122 369.17796175181866 14177.722752556205 1629.2501325309277 588.83886975049973 2041.6437395513058
leaf_count=1493 6327 905 1713 68198 1296 40771 3995 1761 4958
internal_value=0 -0.0148157 -0.0964367 0.0352376 -0.0674431 -0.106659 0.197019 0.0227874 0.0323997
internal_weight=0 45170.6 17171.9 27998.7 16701.1 14546.9 2154.18 27581.9 26993
internal_count=131417 125090 49268 75822 47555 42067 5488 74917 73156
shrinkage=0.02


Tree=70
num_leaves=10
num_cat=0
split_feature=20 1 18 20 15 16 6 3 20
split_gain=194.998 108.653 194.647 92.6123 80.7896 55.7487 45.2443 31.3176 30.9818
threshold=335.50000000000006 1.5000000000000002 1.5000000000000002 51.500000000000007 6.5000000000000009 2.5000000000000004 199.50000000000003 30.500000000000004 65.500000000000014
decision_type=2 2 2 2 2 2 2 2 2
left_child=1 2 6 4 -4 -3 8 -5 -1
right_child=-2 5 3 7 -6 -7 -8 -9 -10
leaf_value=-0.00046191837459637255 0.0053444581962490715 -2.0942180965939913e-05 -0.0017967101821992479 -0.0026609885726212924 0.0088031879398704424 0.0035178264797348889 0.0037240148222721227 -0.0049392540084509211 0.0011435892363719493
leaf_weight=19134.483311891556 2524.5433165878057 3284.8711350858212 766.71812127530575 5515.5118399560452 455.93204581737518 3877.0164429843426 1327.7656609266996 4337.9255549758673 6417.3030923902988
leaf_count=52833 6324 8871 2284 16063 1112 9924 3459 13141 17406
