tree
version=v3
num_class=1
num_tree_per_iteration=1
label_index=0
max_feature_idx=23
objective=binary sigmoid:1
feature_names=Column_0 Column_1 Column_2 Column_3 Column_4 Column_5 Column_6 Column_7 Column_8 Column_9 Column_10 Column_11 Column_12 Column_13 Column_14 Column_15 Column_16 Column_17 Column_18 Column_19 Column_20 Column_21 Column_22 Column_23
feature_infos=[1:532] [1:1599] [0:1928985] [0:1928985] [0:1928985] [0:1928985] [0:1928600] [0:1928600] [0:1928600] [0:1928600] [0:1073409] [0:1073409] [0:1073409] [0:1073409] [0:9578] [0:300] [0:300] [0:300] [0:1599] [0:264] [0:406368] [0:24903] [0:65536] [0:24903]
tree_sizes=1183 1189 1187 1205 1193 1196 1191 1189 1191 1187 1186 1198 1182 1190 1184 1189 1183 1193 1192 1184 1193 1189 1189 1195 1186 1196 1191 1194 1189 1193 1187 1195 1185 1197 1188 1193 1196 1191 1199 1195 1190 1192 1190 1206 1210 1193 1196 1191 1192 1193 1196 1189 1202 1192 1187 1194 1205 1193 1200 1192 1188 1193 1190 1191 1197 1182 1193 1190 1199 1194 1198 1174 1178 1193 1175 1191 1195 1196 1192 1195 1197 1193 1196 1189 1190 1177 1176 1180 1188 1180 1205 1196 1189 1208 1203 1182 1192 1190 1206 1183 1188 1200 1207 1189 1191 1195 1192 1203 1190 1190 1192 1205 1192 1196 1185 1195 1188 1198 1190 1189 1192 1204 1191 1199 1189 1195 1188 1200 1194 1194 1193 1204 1206 1183 1208 1181 1199 1205 1186 1197 1195 1192 1187 1193 1191 1199 1186 1203 1189 1198 1202 1196 1201 1203 1187 1184 1187 1196 1185 1191 1198 1198 1198 1187 1190 1208 1190 1212 1211 1192 1195 1194 1194 1197 1193 1206 1190 1187 1182 1191 1192 1187 1186 1199 1188 1195 1187 1193 1191 1188 1189 1192 1192 1193 1200 1196 1206 1210 1194 1186 1214 1188 1182 1186 1220 1189 1186 1192 1194 1194 1210 1202 1200 1201 1197 1199 1193 1189 1197 1187 1193 1192 1197 1195 1193 1194 1206 1197 1201 1207 1193 1187 1192 1188 1190 1188 1186 1197 1188 1191 1198 1204 1211 1208 1208 1186 1192 1185 1199 1189 1210 1199 1207 1198 1198 1185 1169 1200 1179 1173 1194 1201 1211 1188 1190 1189 1202 1190 1192 1202 1195 1188 1203 1200 1197 1198 1198 1181 1205 1204 1186 1206 1192 1186 1210 1191 1186 1190 1186 1194 1192 1196 1196 1205 1203 1185 1208 1186 1184 1191 1198 1181 1177 1195 1197 1190 1179 1192 1194 1193 1201 1200 1197 1189 1195 1193 1190 1194 1185 1192 1196 1214 1197 1207 1199 1194 1203 1185 1197 1187 1188 1189 1199 1195 1190 1183 1183 1185 1185 1186 1187 1202 1204 1188 1193 1178 1185 1188 1180 1185 1185 1182 1186 1179 1186 1162 1209 1167 1212 1171 1199 1202 1188 1189 1192 1192 1190 1169 1191 1190 1201 1198 1200 1183 1180 1198 1193 1203 1189 1195 1190 1191 1191 1193 1192 1188 1197 1181 1184 1190 1198 1192 1190 1193 1182 1186 1180 1177 1194 1195 1179 1197 1186 1186 1203 1199 1192 1189 1187 1181 1194 1198 1198 1194 1190 1194 1189 1189 1194 1203 1207 1198 1201 1186 1204 1190 1193 1197 1189 1203 1186 1186 1197 1187 1196 1197 1188 1181 1190 1189 1195 1199 1207 1185 1209 1181 1196 1170 1190 1165 1180 1198 1181 1198 1193 1184 1185 1181 1185 1187 1199 1202 1190 1188 1197 1203 1188 1181 1180 1183 1189 1191 1194 1187 1194 1196 1191 1184 1195 1199 1206 1191 1190 1203 1190 1198 1195 1194 1208 1199 1187 1188 1184 1199 1196 1190 1191 1189 1187 1191 1198 1170 1193 1179 1203 1163 1166 1170 1169 1166 1194 1199 1183 1188 1199 1189 1188 1191 1189 1194 1198 1171 1170 1178 1216 1198 1196 1195 1203 1199 1181 1193 1200 1197 1195 1189 1194 1207 1197 1206 1197 1186 1204 1188 1211 1191 1190 1181 1189 1191 1188 1195 1192 1198 1197 1186 1183 1177 1193 1179 1200 1190 1196 1197 1191 1179 1160 1193 1194 1199 1187 1198 1194 1192 1190 1193 1193 1189 1195 1188 1196 1193 1192 1187 1195 1189 1197 1187 1200 1195 1186 1187 1182 1192 1191 1194 1189 1194 1193 1192 1194 1190 1194 1193 1202 1187 1192 1190 1193 1186 1196 1199 1190 1193 1197 1186 1189 1179 1171 1172 1190 1197 1189 1188 1196 1194 1176 1191 1173 1189 1191 1178 1188 1189 1196 1187 1193 1165 1172 1174 1201 1203 1191 1201 1185 1193 1197 1193 1177 1194 1182 1185 1183 1183 1193 1191 1174 1201 1174 1185 1197 1189 1190 1193 1198 1191 1187 1200 1182 1189 1156 1176 1180 1183 1182 1189 1187 1189 1193 1207 1167 1188 1167 1184 1172 1191 1183 1189 1187 1188 1181 1198 1184 1185 1170 1193 1193 1192 1192 1187 1186 1192 1181 1186 1190 1187 1197 1186 1200 1197 1186 1192 1188 1194 1185 1202 1204 1202 1209 1197 1183 1184 1205 1187 1188 1191 1189 1177 1187 1189 1206 1202 1206 1199 1209 1162 1196 1182 1198 1184 1195 1193 1190 1188 1187 1191 1187 1180 1200 1197 1170 1160 1163 1164 1186 1188 1185 1188 1186 1178 1191 1187 1191 1176 1179 1186 1191 1192 1192 1190 1200 1192 1201 1180 1180 1199 1194 1193 1186 1198 1183 1187 1188 1187 1171 1199 1179 1197 1197 1180 1196 1196 1190 1191 1195 1204 1195 1182 1197 1193 1187 1203 1188 1195 1190 1187 1189 1186 1186 1170 1184 1179 1169 1186 1174 1189 1181 1197 1193 1182 1192 1194 1194 1186 1194 1194 1185 1184 1185 1182 1177 1183 1177 1179 1209 1168 1172 1166 1178 1184 1197 1187 1186 1189 1202 1188 1189 1190 1190 1189 1185 1182 1176 1179 1185 1195 1180 1194 1180 1181 1188 1190 1188 1188 1188 1187 1189 1188 1195 1190 1185 1183 1188 1191 1189 1194 1204 1193 1200 1181 1184 1176 1186 1184 1185 1179 1180 1186 1165 1163 1187 1206 1194 1198 1175 1201 1189 1194 1197 1194 1191 1188 1192 1189 1198 1197 1196 1170 1195 1201 1199 1189 1189 1186 1191 1202 1192 1181 1158 1185 1174 1205 1168 1173 1199 1183 1156 1133 1176 1188 1192 1195 1192 1196 1199 1184 1179 1190 1188 1189 1167 1166 1172 1198 1167 1202 1196 1194 1187 1206 1188 1170 1193 1181 1185 1186 1200 1184 1194 1195 1188 1175 1187 1210 1204 1198 1176 1180 1173 1182 1181 1183 1189 1196 1176 1195 1190 1187 1184 1181 1165 1168 1188 1189 1164 1186 1187 1179 1174 1186 1174 1158 1171 1172 1174 1167 1190 1193 1194 1192 1167 1191 1162 1180 1163 1177 1185 1184 1182 1187 1172 1193 1185 1154 1198 1189 1175 1172 1187 1178 1179 1182 1183 1179 1178 1191 1184 1188 1190 1184 1194 1191 1193 1155 1188 1193 1183 1175 1186 1173 1192 1190 1197 1197 1197 1198 1174 1197 1174 1192 1192 1197 1180 1189 1178 1194 1191 1188 1190 1196 1178 1174 1169 1182 1189 1189 1182 1187 1195 1192 1178 1179 1169 1176 1176 1188 1185 1182 1185 1167 1194 1178 1197 1197 1179 1201 1180 1192 1185 1186 1194 1190 1203 1190 1199 1188 1186 1190 1181 1195 1208 1192 1182 1183 1181 1182 1197 1193 1194 1191 1153 1196 1154 1199 1189 1186 1188 1196 1190 1189 1187 1186 1181 1187 1179 1201 1183 1207 1184 1189 1190 1191 1187 1187 1175 1183 1173 1187 1191 1190 1165 1177 1172 1185 1176 1167 1156 1181 1169 1157 1185 1195 1193 1191 1188 1183 1181 1179 1192 1187 1202 1181 1201 1183 1200 1182 1203 1178 1193 1187 1198 1191 1198 1181 1191 1197 1204 1178 1199 1178 1195 1187 1201 1198 1169 1189 1191 1192 1191 1190 1164 1192 1175 1189 1194 1183 1157 1176 1178 1181 1198 1197 1173 1174 1200 1192 1198 1186 1194 1182 1199 1191 1186 1189 1194 1166 1179 1187 1191 1193 1178 1195 1194 1184 1179 1196 1169 1174 1174 1171 1192 1192 1191 1186 1192 1188 1196 1197 1193 1186 1195 1193 1184 1182 1161 1182 1200 1184 1189 1172 1157 1182 1193 1194 1186 1171 1170 1173 1176 1171 1179 1184 1184 1175 1178 1184 1178 1186 1191 1180 1192 1176 1171 1191 1186 1194 1187 1199 1192 1192 1182 1192 1181 1190 1194 1196 1190 1200 1192 1197 1191 1177 1177 1182 1184 1189 1181 1186 1182 1178 1178 1175 1195 1192 1185 1156 1174 1161 1165 1153 1208 1174 1199 1186 1207 1195 1191 1186 1201 1194 1202 1182 1186 1165 1186 1178 1183 1188 1180 1175 1179 1196 1195 1193 1195 1187 1193 1194 1197 1194 1184 1184 1193 1189 1194 1195 1143 1165 1192 1169 1168 1190 1166 1178 1188 1203 1172 1195 1187 1193 1172 1186 1186 1183 1194 1194 1186 1184 1187 1194 1166 1161 1171 1171 1164 1198 1194 1198 1195 1182 1189 1172 1201 1184 1191 1202 1191 1186 1203 1199 1183 1178 1172 1183 1181 1185 1176 1181 1193 1187 1172 1165 1184 1182 1178 1180 1196 1187 1186 1192 1150 1148 1185 1175 1185 1188 1208 1186 1191 1177 1173 1182 1187 1192 1181 1187 1194 1176 1191 1192 1165 1168 1202 1189 1173 1193 1188 1186 1186 1186 1196 1201 1179 1185 1184 1191 1200 1200 1196 1187 1186 1189 1182 1192 1189 1185 1181 1188 1186 1186 1189 1195 1203 1188 1200 1175 1176 1172 1172 1169 1186 1190 1207 1183 1190 1203 1202 1191 1186 1177 1191 1184 1198 1197 1171 1180 1183 1174 1184 1177 1186 1195 1189 1186 1198 1192 1178 1177 1183 1171 1187 1194 1179 1191 1194 1191 1181 1189 1170 1167 1167 1188 1182 1183 1179 1191 1196 1202 1179 1191 1181 1182 1194 1190 1188 1189 1181 1201 1146 1189 1188 1184 1187 1182 1192 1185 1186 1199 1180 1184 1184 1186 1186 1195 1184 1194 1190 1198 1189 1186 1178 1172 1181 1172 1171 1188 1176 1176 1180 1186 1178 1181 1184 1177 1179 1180 1186 1187 1190 1190 1179 1189 1186 1190 1182 1184 1179 1153 1178 1168 1187 1186 1181 1199 1193 1187 1194 1182 1185 1177 1172 1195 1172 1194 1197 1192 1178 1195 1194 1198 1169 1184 1166 1183 1175 1187 1186 1184 1186 1141 1174 1195 1187 1184 1189 1174 1174 1186 1173 1171 1195 1194 1189 1188 1190 1187 1194 1188 1191 1186 1185 1185 1172 1192 1177 1148 1192 1172 1185 1180 1210 1207 1209 1184 1183 1187 1175 1191 1187 1161 1186 1183 1174 1185 1185 1186 1200 1193 1192 1190 1190 1179 1188 1190 1187 1179 1184 1179 1181 1175 1190 1187 1193 1193 1191 1192 1182 1193 1188 1194 1183 1180 1186 1187 1208 1198 1204 1201 1189 1168 1167 1161 1180 1176 1164 1170 1171 1192 1175 1176 1183 1190 1189 1182 1179 1176 1172 1177 1198 1178 1184 1174 1177 1193 1177 1182 1175 1189 1158 1172 1182 1173 1171 1186 1170 1188 1181 1175 1184 1176 1201 1186 1199 1190 1179 1175 1170 1176 1159 1186 1191 1200 1192 1185 1194 1178 1174 1173 1192 1165 1181 1184 1185 1163 1181 1181 1183 1168 1182 1171 1175 1201 1191 1169 1170 1157 1183 1190 1199 1171 1173 1158 1187 1161 1190 1182 1176 1174 1184 1176 1188 1186 1196 1195 1194 1168 1178 1170 1178 1180 1179 1190 1181 1195 1191 1183 1195 1180 1189 1182 1188 1177 1190 1177 1184 1189 1199 1184 1151 1187 1180 1187 1175 1177 1180 1193 1185 1195 1188 1193 1179 1177 1185 1161 1159 1200 1197 1201 1201 1200 1187 1186 1174 1191 1187 1189 1188 1190 1188 1184 1168 1165 1181 1161 1159 1179 1188 1187 1193 1191 1166 1170 1199 1166 1178 1188 1190 1187 1197 1193 1188 1191 1182 1167 1189 1189 1205 1201 1204 1191 1184 1191 1160 1199 1202 1187 1167 1188 1195 1197 1190 1202 1195 1183 1158 1177 1181 1193 1174 1201 1197 1195 1165 1192 1166 1199 1199 1200 1195 1196 1170 1132 1174 1167 1166 1184 1172 1173 1182 1184 1183 1185 1191 1186 1168 1182 1176 1195 1188 1186 1180 1196 1184 1184 1185 1196 1169 1203 1184 1192 1192 1151 1178 1182 1185 1172 1182 1170 1179 1179 1176 1184 1180 1198 1175 1184 1178 1189 1203 1162 1181 1178 1181 1194 1201 1191 1190 1191 1186 1191 1184 1184 1185 1181 1183 1185 1188 1189 1187 1186 1187 1172 1174 1181 1168 1175 1180 1186 1175 1176 1188 1188 1199 1173 1196 1182 1157 1177 1177 1175 1177 1174 1187 1195 1176 1191 1185 1166 1192 1174 1180 1184 1185 1182 1175 1188 1183 1182 1184 1188 1190 1174 1194 1190 1182 1178 1187 1173 1180 1185 1196 1193 1178 1196 1187 1184 1183 1184 1183 1195 1190 1192 1171 1187 1170 1174 1178 1179 1198 1173 1184 1186 1180 1187 1183 1188 1176 1187 1182 1181 1194 1192 1189 1189 1170 1201 1190 1175 1175 1200 1181 1187 1171 1169 1173 1178 1182 1180 1176 1192 1162 1187 1191 1177 1175 1183 1178 1174 1198 1172 1159 1171 1163 1158 1172 1196 1188 1194 1199 1191 1203 1189 1171 1178 1191 1180 1195 1163 1192 1170 1186 1188 1166 1189 1180 1181 1147 1146 1198 1203 1180 1178 1176 1165 1185 1188 1181 1189 1191 1188 1195 1177 1182 1191 1176 1192 1175 1188 1188 1166 1191 1182 1194 1189 1181 1173 1161 1179 1156 1176 1184 1183 1188 1187 1179 1190 1185 1185 1149 1182 1170 1182 1178 1176 1180 1189 1189 1174 1195 1188 1179 1194 1191 1192 1200 1190 1184 1192 1185 1188 1192 1189 1196 1190 1199 1179 1178 1181 1170 1155 1178 1187 1181 1180 1179 1197 1180 1182 1182 1180 1186 1189 1186 1202 1187 1190 1186 1193 1169 1190 1165 1170 1163 1172 1172 1158 1180 1183 1174 1181 1194 1189 1191 1183 1193 1188 1189 1187 1188 1189 1178 1185 1168 1182 1166 1173 1177 1191 1170 1197 1188 1174 1193 1178 1184 1187 1184 1175 1176 1178 1187 1193 1162 1179 1165 1196 1212 1190 1194 1195 1180 1182 1183 1180 1180 1193 1188 1194 1192 1191 1177 1184 1178 1187 1174 1179 1177 1182 1185 1193 1193 1189 1167 1182 1188 1188 1188 1187 1191 1190 1184 1190 1182 1182 1174 1194 1179 1190 1198 1193 1186 1198 1176 1187 1183 1181 1185 1186 1188 1190 1184 1179 1184 1183 1188 1189 1186 1194 1190 1183 1184 1193 1183 1178 1188 1186 1192 1194 1172 1175 1192 1169 1195 1192 1175 1180 1180 1172 1179 1193 1175 1177 1174 1175 1192 1189 1193 1187 1190 1192 1171 1160 1167 1174 1180 1178 1182 1185 1178 1184 1187 1196 1198 1205 1191 1188 1186 1174 1186 1179 1209 1205 1210 1208 1207 1186 1179 1162 1161 1169 1173 1185 1186 1190 1182 1179 1181 1180 1169 1185 1189 1168 1177 1193 1179 1187 1201 1206 1185 1197 1192 1188 1190 1192 1188 1188 1196 1176 1168 1168 1187 1205 1190 1198 1196 1188 1186 1190 1191 1190 1171 1191 1197 1187 1188 1192 1173 1174 1168 1175 1190 1150 1188 1186 1181 1190 1185 1197 1184 1185 1176 1180 1180 1164 1166 1176 1192 1186 1184 1176 1180 1169 1183 1179 1167 1181 1175 1187 1194 1174 1188 1187 1185 1186 1189 1169 1169 1168 1168 1178 1173 1183 1183 1178 1185 1197 1167 1172 1165 1167 1175 1192 1190 1180 1192 1193 1188 1191 1188 1195 1185 1192 1190 1186 1192 1174 1181 1185 1185 1177 1181 1198 1169 1174 1192 1198 1192 1192 1181 1193 1193 1182 1188 1176 1202 1181 1182 1176 1180 1171 1197 1191 1200 1191 1199 1177 1186 1180 1174 1173 1178 1182 1185 1176 1183 1181 1191 1182 1179 1192 1188 1187 1195 1174 1194 1188 1180 1183 1195 1200 1181 1189 1165 1176 1179 1195 1198 1195 1177 1184 1175 1177 1173 1171 1161 1177 1178 1196 1184 1190 1206 1195 1211 1168 1179 1175 1185 1195 1194 1201 1148 1145 1187 1145 1162 1177 1173 1186 1178 1171 1190 1181 1194 1168 1189 1171 1171 1171 1187 1164 1186 1186 1194 1192 1193 1178 1176 1170 1162 1178 1199 1178 1174 1187 1185 1179 1177 1179 1172 1171 1178 1185 1186 1186 1175 1174 1170 1150 1155 1187 1171 1191 1181 1195 1196 1181 1192 1181 1192 1171 1200 1199 1184 1180 1198 1180 1190 1183 1187 1180 1191 1190 1196 1177 1192 1192 1188 1190 1191 1185 1192 1183 1195 1191 1189 1187 1188 1191 1178 1184 1187 1188 1197 1188 1186 1173 1174 1148 1180 1173 1176 1199 1183 1185 1194 1192 1172 1188 1189 1190 1168 1182 1172 1193 1182 1179 1176 1166 1171 1166 1196 1194 1197 1193 1191 1183 1181 1184 1182 1182 1193 1168 1196 1172 1190 1187 1187 1170 1171 1192 1200 1190 1190 1194 1193 1175 1173 1154 1171 1175 1165 1188 1179 1185 1180 1167 1145 1203 1184 1180 1181 1184 1187 1194 1187 1182 1192 1198 1188 1197 1177 1180 1174 1177 1163 1194 1165 1180 1165 1168 1182 1183 1177 1193 1164 1168 1168 1174 1173 1170 1188 1193 1168 1193 1155 1204 1163 1154 1189 1149 1194 1194 1197 1153 1193 1176 1169 1168 1176 1172 1195 1175 1167 1187 1186 1181 1178 1177 1163 1176 1174 1184 1190 1173 1184 1180 1168 1188 1183 1177 1183 1185 1174 1192 1186 1171 1176 1172 1154 1125 1173 1187 1190 1192 1173 1194 1189 1186 1190 1188 1188 1192 1195 1199 1191 1182 1180 1179 1182 1180 1176 1184 1177 1187 1179 1179 1179 1188 1194 1193 1157 1163 1187 1140 1160 1179 1184 1180 1179 1182 1195 1188 1176 1186 1189 1189 1195 1191 1199 1193 1191 1196 1194 1201 1202 1171 1165 1182 1176 1176 1190 1171 1181 1172 1168 1190 1185 1204 1181 1184 1185 1196 1191 1196 1190 1169 1188 1153 1179 1193 1170 1170 1173 1182 1188 1185 1182 1190 1176 1176 1201 1197 1193 1197 1198 1171 1186 1166 1168 1176 1192 1186 1192 1188 1185 1177 1200 1177 1191 1163 1144 1168 1155 1171 1175 1184 1182 1186 1186 1173 1186 1180 1148 1179 1177 1178 1178 1174 1175 1175 1185 1189 1186 1196 1146 1165 1179 1155 1192 1167 1169 1159 1174 1167 1171 1181 1195 1152 1178 1180 1172 1172 1183 1153 1166 1188 1187 1163 1182 1184 1169 1185 1168 1181 1151 1175 1185 1149 1168 1170 1149 1156 1160 1179 1174 1198 1187 1190 1188 1174 1189 1184 1197 1188 1200 1182 1181 1183 1184 1192

Tree=0
num_leaves=10
num_cat=0
split_feature=0 0 0 0 0 0 0 21 0
split_gain=988.155 2343.52 947.614 461.222 1060 455.906 702.155 541.488 362.421
threshold=266.50000000000006 267.50000000000006 263.50000000000006 316.50000000000006 317.50000000000006 222.50000000000003 241.50000000000003 60.500000000000007 288.50000000000006
decision_type=2 2 2 2 2 2 2 2 2
left_child=2 -2 5 8 -5 7 -7 -1 -3
right_child=1 3 -4 4 -6 6 -8 -9 -10
leaf_value=-0.00054481514705885124 0.02503747109561115 0.00034408182790089095 -0.021951974465522814 0.033673503778354631 0.0017669719300636415 0.0084271660035246526 -0.0078504753195165443 -0.0071596924342632066 -0.012895389634751848
leaf_weight=12731.402614176273 1800.5721215605736 1857.1511048078537 966.36377763748169 424.72490572929382 15928.931912004948 3551.5114516019821 1507.4134184122086 8098.7067813277245 1486.6194270253181
leaf_count=34833 3448 5028 3309 693 42401 8695 4478 23875 4657
internal_value=0 0.160816 -0.126847 0.0608898 0.130101 -0.0904769 0.178697 -0.155881 -0.27733
internal_weight=0 21498 26855.4 19697.4 16353.7 25889 5058.92 20830.1 3343.77
internal_count=131417 56227 75190 52779 43094 71881 13173 58708 9685
shrinkage=0.02


Tree=1
num_leaves=10
num_cat=0
split_feature=0 0 0 0 0 0 0 21 0
split_gain=949.116 2251.28 910.343 443.001 1018.66 437.858 674.402 520.061 348.121
threshold=266.50000000000006 267.50000000000006 263.50000000000006 316.50000000000006 317.50000000000006 222.50000000000003 241.50000000000003 60.500000000000007 288.50000000000006
decision_type=2 2 2 2 2 2 2 2 2
left_child=2 -2 5 8 -5 7 -7 -1 -3
right_child=1 3 -4 4 -6 6 -8 -9 -10
leaf_value=-0.00053392229403812321 0.024541421666763003 0.00033721097593253309 -0.021516895896086883 0.033014110606935397 0.0017316402617407779 0.0082589121742022518 -0.0076938976385140792 -0.0070166418049994383 -0.012638529048255728
leaf_weight=12731.401691764593 1800.2899032980204 1857.1510245800018 966.24735675752163 424.60452671349049 15928.919602364302 3551.4482532441616 1507.3902133703232 8098.6028864085674 1486.5576243102551
leaf_count=34833 3448 5028 3309 693 42401 8695 4478 23875 4657
internal_value=0 0.15761 -0.124315 0.0596764 0.127507 -0.0886691 0.175125 -0.152765 -0.271798
internal_weight=0 21497.5 26855.1 19697.2 16353.5 25888.8 5058.84 20830 3343.71
internal_count=131417 56227 75190 52779 43094 71881 13173 58708 9685
shrinkage=0.02


Tree=2
num_leaves=10
num_cat=0
split_feature=0 0 0 0 0 0 0 0 21
split_gain=911.653 2163.45 874.786 425.512 979.544 420.532 647.767 506.766 491.426
threshold=266.50000000000006 267.50000000000006 263.50000000000006 316.50000000000006 317.50000000000006 222.50000000000003 241.50000000000003 25.500000000000004 60.500000000000007
decision_type=2 2 2 2 2 2 2 2 2
left_child=2 -2 5 -3 -5 7 -7 -1 -9
right_child=1 3 -4 4 -6 6 -8 8 -10
leaf_value=0.005810129183609492 0.024062501994760569 -0.0053277142915403412 -0.02109535561710672 0.032385324764482089 0.0016970185247446429 0.0080942962410499638 -0.0075406668349912451 -0.00147906875804496 -0.0081537955935820014
leaf_weight=2320.3541070967913 1799.4660203158855 3343.5279831886292 965.90740419924259 424.25303055346012 15928.883127182722 3551.2641620635986 1507.3223975896835 11247.281542792916 7262.0626311004162
leaf_count=5884 3448 9685 3309 693 42401 8695 4478 31117 21707
internal_value=0 0.154476 -0.121837 0.0584885 0.124967 -0.0868987 0.17163 -0.149714 -0.204955
internal_weight=0 21496.1 26854.2 19696.7 16353.1 25888.3 5058.59 20829.7 18509.3
internal_count=131417 56227 75190 52779 43094 71881 13173 58708 52824
shrinkage=0.02


Tree=3
num_leaves=10
num_cat=0
split_feature=20 23 18 14 14 4 2 20 18
split_gain=505.36 320.183 483.435 155.11 120.408 105.059 84.1083 59.1458 59.387
threshold=155.50000000000003 68.500000000000014 1.5000000000000002 6.5000000000000009 14.500000000000002 26.500000000000004 26.500000000000004 68.500000000000014 1.5000000000000002
decision_type=2 2 2 2 2 2 2 2 2
left_child=1 3 -3 7 -2 6 -4 8 -1
right_child=4 2 5 -5 -6 -7 -8 -9 -10
leaf_value=-0.00012040345349348393 0.0034836613257331274 0.0018002454776192692 -0.0047569777110529014 0.0039867031807966184 0.0095737070688550491 -0.0086089631724327771 0.0078123270390659588 0.0030251199805671042 -0.0032234842720630036
leaf_weight=18918.753649041057 5259.4453160762787 4718.1110258698463 4645.9642982780933 4110.5220005065203 1727.4344823211432 3860.9120648801327 220.18766510486603 2050.5976330190897 2834.8194490522146
leaf_count=51481 13713 12564 13348 10643 4164 11579 542 5373 8010
internal_value=0 -0.0410328 -0.167794 0.0200229 0.249684 -0.30719 -0.209127 -0.0109495 -0.0262723
internal_weight=0 41359.9 13445.2 27914.7 6986.88 8727.06 4866.15 23804.2 21753.6
internal_count=131417 113540 38033 75507 17877 25469 13890 64864 59491
shrinkage=0.02


Tree=4
num_leaves=10
num_cat=0
split_feature=18 18 21 22 14 2 4 4 14
split_gain=372.113 298.296 501.629 159.425 147.569 113.921 102.364 97.731 77.2961
threshold=2.5000000000000004 1.5000000000000002 58.500000000000007 208.50000000000003 7.5000000000000009 326.50000000000006 35.500000000000007 100.50000000000001 17.500000000000004
decision_type=2 2 2 2 2 2 2 2 2
left_child=1 5 4 6 7 -1 -4 -3 -2
right_child=8 2 3 -5 -6 -7 -8 -9 -10
leaf_value=0.00039419926177554354 0.0036819202870545776 0.001103751200506646 -0.0041882973175740058 0.0070356345171051771 0.008088606941912423 0.00625119083485261 -0.0083529495808604502 -0.012125059732030923 0.009299651247996428
leaf_weight=26725.180807158351 3118.9652359783649 3832.4442696720362 6002.9188720881939 397.67308922111988 1290.9909309744835 1395.1346991509199 3913.696600034833 234.17464517056942 1435.1895750910044
leaf_count=72293 8101 10283 17154 990 3169 3506 11725 732 3464
internal_value=0 -0.0273239 -0.137868 -0.266793 0.110288 0.0342816 -0.291728 0.0166062 0.272928
internal_weight=0 43792.2 15671.9 10314.3 5357.61 28120.3 9916.62 4066.62 4554.15
internal_count=131417 119852 44053 29869 14184 75799 28879 11015 11565
shrinkage=0.02


Tree=5
num_leaves=10
num_cat=0
split_feature=1 18 20 15 16 2 6 20 2
split_gain=596.139 688.444 150.909 116.659 114.861 89.9684 79.0215 64.8948 57.296
threshold=1.5000000000000002 1.5000000000000002 58.500000000000007 6.5000000000000009 5.5000000000000009 241.50000000000003 74.500000000000014 65.500000000000014 54.500000000000007
decision_type=2 2 2 2 2 2 2 2 2
left_child=1 5 3 6 -2 7 -3 -1 -4
right_child=4 2 8 -5 -6 -7 -8 -9 -10
leaf_value=-0.00030876527363723398 0.0030458689046173439 -0.0013057999822087569 -0.0051440418991918445 0.0071970923581078294 0.0078696647134376078 0.0048802989840005919 -0.015563259154920191 0.0019342801203658475 -0.0084452118260578499
leaf_weight=19200.343909606338 6050.9099381864071 961.66492594778538 6313.9849138855934 607.35789728164673 2938.5153087973595 1827.2729879319668 182.95635662972927 7050.5022249519825 3189.446074411273
leaf_count=52356 15837 2660 18260 1506 7219 4668 595 18733 9583
internal_value=0 -0.054118 -0.263042 0.0064689 0.231273 0.0296398 -0.181233 0.01468 -0.312745
internal_weight=0 39333.5 11255.4 1751.98 8989.43 28078.1 1144.62 26250.8 9503.43
internal_count=131417 108361 32604 4761 23056 75757 3255 71089 27843
shrinkage=0.02


Tree=6
num_leaves=10
num_cat=0
split_feature=0 0 0 0 0 0 0 0 21
split_gain=971.304 2011.28 897.629 430.644 719.064 409.935 590.743 475.545 439.317
threshold=266.50000000000006 267.50000000000006 263.50000000000006 311.50000000000006 327.50000000000006 222.50000000000003 241.50000000000003 25.500000000000004 59.500000000000007
decision_type=2 2 2 2 2 2 2 2 2
left_child=2 -2 5 -3 -5 7 -7 -1 -9
right_child=1 3 -4 4 -6 6 -8 8 -10
leaf_value=0.0054596412948108245 0.023487039299897986 -0.005488535061604469 -0.021635590388226753 0.015157361604931162 0.0012114285180914132 0.0076923655730686616 -0.0071902330121513692 -0.0016622110457008854 -0.0079621965387345634
leaf_weight=2304.6677291840315 1780.3211926370859 3133.8749790340662 948.6842835098505 1638.5258173793554 14949.415309980512 3558.7681235671043 1519.9667240083218 11134.732459753752 7352.9292098581791
leaf_count=5859 3417 9102 3284 3634 40010 8751 4506 30853 22001
internal_value=0 0.157332 -0.127936 0.0653444 0.129592 -0.0928259 0.161775 -0.155043 -0.208453
internal_weight=0 21502.1 26819.7 19721.8 16587.9 25871.1 5078.73 20792.3 18487.7
internal_count=131417 56163 75254 52746 43644 71970 13257 58713 52854
shrinkage=0.02


Tree=7
num_leaves=10
num_cat=0
split_feature=0 0 0 0 0 0 0 0 0
split_gain=932.998 1934.21 863.114 413.625 690.862 393.725 567.439 456.752 379.586
threshold=266.50000000000006 267.50000000000006 263.50000000000006 311.50000000000006 327.50000000000006 222.50000000000003 241.50000000000003 25.500000000000004 458.50000000000006
decision_type=2 2 2 2 2 2 2 2 2
left_child=2 -2 5 -3 -5 7 -7 -1 -6
right_child=1 3 -4 4 8 6 -8 -9 -10
leaf_value=0.0053506578910726965 0.023042304687625623 -0.0053791300932937219 -0.021222656728571425 0.014858464547632615 -0.0010249549112884503 0.0075393633911763529 -0.0070473872306365728 -0.0040859208877745299 0.0057761373722963853
leaf_weight=2304.6388047635555 1778.4651066511869 3133.724236279726 947.86650638282299 1638.1211903244257 10087.533291980624 3558.4335162192583 1519.8221632689238 18486.739907696843 4861.8281342238188
leaf_count=5859 3417 9102 3284 3634 27712 8751 4506 52854 12298
internal_value=0 0.15421 -0.125391 0.0640413 0.127007 -0.0909749 0.158554 -0.15195 0.0593604
internal_weight=0 21499.7 26817.5 19721.2 16587.5 25869.6 5078.26 20791.4 14949.4
internal_count=131417 56163 75254 52746 43644 71970 13257 58713 40010
shrinkage=0.02


Tree=8
num_leaves=10
num_cat=0
split_feature=0 0 0 0 0 0 0 21 0
split_gain=896.218 1860.65 830.145 397.699 889.535 379.026 611.482 435.878 365.953
threshold=266.50000000000006 267.50000000000006 263.50000000000006 316.50000000000006 317.50000000000006 229.50000000000003 241.50000000000003 59.500000000000007 374.50000000000006
decision_type=2 2 2 2 2 2 2 2 2
left_child=2 -2 5 -3 -5 7 -7 -1 -6
right_child=1 3 -4 4 8 6 -8 -9 -10
leaf_value=-0.00058991005873846691 0.022611637485450729 -0.0050054545006704343 -0.020822017440168407 0.031176122484080984 0.0069777442520707013 0.0086118243029289412 -0.0069075406005576004 -0.006441340542569539 1.482183036241928e-05
leaf_weight=12880.774026453495 1776.1711494773626 3362.6702298521996 946.85016000270844 419.8276921659708 4044.3059083223343 3046.0590478926897 1519.6423751115799 8421.8709679096937 11893.536661401391
leaf_count=35265 3417 9735 3284 688 10058 7373 4506 24826 32265
internal_value=0 0.151154 -0.122897 0.0627653 0.127169 -0.0891594 0.172196 -0.145205 0.0891527
internal_weight=0 21496.5 26815.2 19720.3 16357.7 25868.3 4565.7 21302.6 15937.8
internal_count=131417 56163 75254 52746 43011 71970 11879 60091 42323
shrinkage=0.02


Tree=9
num_leaves=10
num_cat=0
split_feature=0 0 0 0 0 0 0 0 0
split_gain=860.953 1790.38 798.627 382.244 644.671 369.201 364.221 524.304 438.345
threshold=266.50000000000006 267.50000000000006 263.50000000000006 311.50000000000006 327.50000000000006 458.50000000000006 222.50000000000003 241.50000000000003 25.500000000000004
decision_type=2 2 2 2 2 2 2 2 2
left_child=2 -2 6 -3 -5 -6 8 -8 -1
right_child=1 3 -4 4 5 -7 7 -9 -10
leaf_value=0.005298365842560172 0.022194235095449204 -0.0051723330562117942 -0.020433015055373066 0.014347180238114881 -0.001046936464410172 0.0056605377447425812 0.0072525336664602327 -0.0067706170773930117 -0.0039462458650554397
leaf_weight=2304.5757109075785 1773.4670027345419 3133.3100337684155 945.64773800969124 1636.439319178462 10087.469933375716 4861.7012898176908 3557.5058029443026 1519.4295890927315 18485.090590894222
leaf_count=5859 3417 9102 3284 3634 27712 12298 8751 4506 52854
internal_value=0 0.14817 -0.120456 0.0615205 0.122054 0.0567367 -0.087383 0.152649 -0.146028
internal_weight=0 21492.4 26812.2 19718.9 16585.6 14949.2 25866.6 5076.94 20789.7
internal_count=131417 56163 75254 52746 43644 40010 71970 13257 58713
shrinkage=0.02


Tree=10
num_leaves=10
num_cat=0
split_feature=0 0 0 0 0 0 0 0 0
split_gain=752.282 1686.94 710.403 363.226 562.698 432.063 431.103 374.387 347.81
threshold=266.50000000000006 267.50000000000006 263.50000000000006 308.50000000000006 327.50000000000006 288.50000000000006 287.50000000000006 417.50000000000006 222.50000000000003
decision_type=2 2 2 2 2 2 2 2 2
left_child=2 -2 8 5 -5 6 -3 -6 -1
right_child=1 3 -4 4 7 -7 -8 -9 -10
leaf_value=-0.0027686422817239311 0.021388191031688444 -0.0041602264113861798 -0.019271817251876884 0.012987779843356757 -0.0029324567699052133 -0.014904762423523546 0.019889912154642229 0.0035384250607342765 0.0030848144899893589
leaf_weight=20830.349415183067 1782.2603348046541 1478.4459292292595 943.317362383008 1740.8820044100285 5908.4894731342793 1153.5011297017336 370.2237618714571 9050.0330115556717 5039.9473487138748
leaf_count=58769 3463 4244 3257 3938 16592 3727 773 23506 13148
internal_value=0 0.138582 -0.112544 0.0542115 0.111803 -0.265827 0.0338677 0.0491003 -0.0813919
internal_weight=0 21483.8 26813.6 19701.6 16699.4 3002.17 1848.67 14958.5 25870.3
internal_count=131417 56243 75174 52780 44036 8744 5017 40098 71917
shrinkage=0.02


Tree=11
num_leaves=10
num_cat=0
split_feature=20 21 18 16 16 4 20 20 4
split_gain=444.787 309.059 536.584 141.927 99.0468 66.4452 55.2206 53.2475 39.9312
threshold=146.50000000000003 60.500000000000007 1.5000000000000002 6.5000000000000009 5.5000000000000009 30.500000000000004 50.500000000000007 404.50000000000006 14.500000000000002
decision_type=2 2 2 2 2 2 2 2 2
left_child=1 3 -3 6 -2 -4 -1 8 -6
right_child=4 2 5 -5 7 -7 -8 -9 -10
leaf_value=-0.0006710640373209924 0.0028106550101456062 0.0014214444914092523 -0.0047469568754688199 0.0044424460648050763 0.0087807791303185796 -0.0082500977956014368 0.001560835368298369 0.011350884194042257 0.002343918794248188
leaf_weight=16459.388950973749 5030.5767391622066 6144.444986358285 5043.6799326092005 3179.0353557616472 724.65821367502213 3839.3407392054796 6065.4922153651714 970.17384149134159 833.36544552445412
leaf_count=45108 13214 16435 14548 8159 1753 11559 16173 2269 2199
internal_value=0 -0.0421649 -0.156076 0.0244304 0.221918 -0.3132 -0.00348324 0.383379 0.267638
internal_weight=0 40731.4 15027.5 25703.9 7558.77 8883.02 22524.9 2528.2 1558.02
internal_count=131417 111982 42542 69440 19435 26107 61281 6221 3952
shrinkage=0.02


Tree=12
num_leaves=10
num_cat=0
split_feature=0 0 0 0 0 0 0 0 0
split_gain=721.007 1620.09 682.937 349.102 540.635 416.137 412.185 360.034 336.287
threshold=266.50000000000006 267.50000000000006 263.50000000000006 308.50000000000006 327.50000000000006 288.50000000000006 287.50000000000006 458.50000000000006 222.50000000000003
decision_type=2 2 2 2 2 2 2 2 2
left_child=2 -2 8 5 -5 6 -3 -6 -1
right_child=1 3 -4 4 7 -7 -8 -9 -10
leaf_value=-0.0027146177936908183 0.02097833354122524 -0.0040626726190999239 -0.018906071427065671 0.012733162356494189 -0.0012034204310041449 -0.01462629157532408 0.019453435511058211 0.0054056782062581257 0.0030411625416225377
leaf_weight=20829.036419585347 1778.6092749685049 1478.2947357445955 941.76762080192566 1739.9379441738129 10057.196362406015 1153.0105467140675 370.25014242529869 4900.8218159973621 5039.7721136510372
leaf_count=58769 3463 4244 3257 3938 27688 3727 773 12410 13148
internal_value=0 0.135712 -0.110162 0.0530993 0.109559 -0.26069 0.0334041 0.0481112 -0.079641
internal_weight=0 21478.1 26810.6 19699.5 16698 3001.56 1848.54 14958 25868.8
internal_count=131417 56243 75174 52780 44036 8744 5017 40098 71917
shrinkage=0.02


Tree=13
num_leaves=10
num_cat=0
split_feature=0 0 0 0 0 0 0 0 21
split_gain=692.644 1559.97 657.377 337.981 835.366 322.987 538.866 438.516 369.34
threshold=266.50000000000006 267.50000000000006 263.50000000000006 316.50000000000006 317.50000000000006 222.50000000000003 241.50000000000003 25.500000000000004 60.500000000000007
decision_type=2 2 2 2 2 2 2 2 2
left_child=2 -2 5 -3 -5 7 -7 -1 -9
right_child=1 3 -4 4 -6 6 -8 8 -10
leaf_value=0.0055101800659431545 0.020603188025734777 -0.0047452563838825228 -0.018561268545646652 0.029872462811684583 0.001486914062812964 0.0072695214188790991 -0.0069785330191512911 -0.0014179220887589256 -0.0072060827101452108
leaf_weight=2330.1407464742661 1774.8665957003832 3347.9078740924597 940.14903146028519 422.84714841842651 15926.719894826412 3523.530178964138 1516.0623960793018 11238.314874202013 7259.8778008371592
leaf_count=5908 3463 9703 3257 698 42379 8641 4507 31161 21700
internal_value=0 0.133041 -0.107972 0.0520452 0.111338 -0.0780506 0.149024 -0.133021 -0.184535
internal_weight=0 21472.3 26808.1 19697.5 16349.6 25867.9 5039.59 20828.3 18498.2
internal_count=131417 56243 75174 52780 43077 71917 13148 58769 52861
shrinkage=0.02


Tree=14
num_leaves=10
num_cat=0
split_feature=0 0 0 0 0 1 0 0 0
split_gain=665.442 1502.4 632.872 324.652 805.533 317.315 366.894 498.02 344.592
threshold=266.50000000000006 267.50000000000006 263.50000000000006 316.50000000000006 317.50000000000006 1.5000000000000002 222.50000000000003 241.50000000000003 25.500000000000004
decision_type=2 2 2 2 2 2 2 2 2
left_child=2 -2 5 -3 -5 6 8 -8 -1
right_child=1 3 -4 4 -6 -7 7 -9 -10
leaf_value=0.0044920410213290084 0.020238305143123154 -0.0046509031482607002 -0.018225341087249037 0.02937541845482183 0.0014572003557200236 0.0031560028675635303 0.007052885543718336 -0.0079789101723397506 -0.0048722784474878574
leaf_weight=1750.9861815422773 1770.8234820663929 3347.574767395854 938.40103612840176 421.46635675430298 15926.515938639641 4721.2524755597115 3017.5690158903599 1241.9226811975241 15133.389800801873
leaf_count=4497 3463 9703 3257 698 42379 12347 7414 3741 43918
internal_value=0 0.130426 -0.105834 0.0510143 0.109129 -0.0764984 -0.128844 0.133309 -0.195009
internal_weight=0 21466.4 26803.5 19695.6 16348 25865.1 21143.9 4259.49 16884.4
internal_count=131417 56243 75174 52780 43077 71917 59570 11155 48415
shrinkage=0.02


Tree=15
num_leaves=10
num_cat=0
split_feature=0 0 0 1 0 0 0 0 0
split_gain=644.735 1419.97 660.286 369.369 397.726 573.864 336.687 767.716 309.471
threshold=266.50000000000006 267.50000000000006 263.50000000000006 1.5000000000000002 229.50000000000003 241.50000000000003 316.50000000000006 317.50000000000006 374.50000000000006
decision_type=2 2 2 2 2 2 2 2 2
left_child=2 -2 3 4 -1 -6 -3 -8 -9
right_child=1 6 -4 -5 5 -7 7 8 -10
leaf_value=-0.0038678640904884587 0.019925588755824283 -0.0046963948678256061 -0.018618441573396319 0.0035994714919671583 0.0085324701892357177 -0.0080001192947429505 0.028856824094814829 0.0063772164263296753 -4.3842160863151045e-05
leaf_weight=17273.37551510334 1739.1409833282232 3339.4229217767715 924.07639570534229 4748.2332540899515 2618.5160203427076 1232.623261898756 420.18801730871201 4001.2284257262945 11992.654298022389
leaf_count=49533 3407 9695 3235 12341 6297 3721 699 9992 32497
internal_value=0 0.130812 -0.101677 -0.0719436 -0.1286 0.161863 0.0544592 0.113363 0.0781525
internal_weight=0 21492.6 26796.8 25872.7 21124.5 3851.14 19753.5 16414.1 15993.9
internal_count=131417 56290 75127 71892 59551 10018 52883 43188 42489
shrinkage=0.02


Tree=16
num_leaves=10
num_cat=0
split_feature=0 0 0 0 0 0 0 0 0
split_gain=619.434 1368.11 635.924 323.418 740.938 321.529 586.113 368.031 309.244
threshold=266.50000000000006 267.50000000000006 263.50000000000006 316.50000000000006 317.50000000000006 229.50000000000003 241.50000000000003 25.500000000000004 288.50000000000006
decision_type=2 2 2 2 2 2 2 2 2
left_child=2 -2 5 8 -5 7 -7 -1 -3
right_child=1 3 -4 4 -6 6 -8 -9 -10
leaf_value=0.0050530670765271861 0.019579071913201893 0.00090323503503806886 -0.018287816347873038 0.028397219788297116 0.0015318444927776046 0.0084872325080936548 -0.006745944694963959 -0.0033604683348866632 -0.011319890622936906
leaf_weight=2332.0740953683853 1734.6209624111652 1835.7756528556347 922.04179587960243 418.51419319212437 15993.485203742981 3032.5068158954382 1511.296303153038 18994.377967208624 1503.2457680553198
leaf_count=5936 3407 4986 3235 699 42489 7280 4502 54174 4709
internal_value=0 0.128247 -0.0996632 0.0533822 0.111118 -0.0705112 0.170908 -0.121979 -0.230155
internal_weight=0 21485.6 26792.3 19751 16412 25870.3 4543.8 21326.5 3339.02
internal_count=131417 56290 75127 52883 43188 71892 11782 60110 9695
shrinkage=0.02


Tree=17
num_leaves=10
num_cat=0
split_feature=1 18 20 16 14 23 6 4 2
split_gain=553.2 611.1 138.405 132.361 122.719 90.2777 61.6806 60.5183 51.7372
threshold=1.5000000000000002 1.5000000000000002 58.500000000000007 5.5000000000000009 7.5000000000000009 308.50000000000006 70.500000000000014 323.50000000000006 30.500000000000004
decision_type=2 2 2 2 2 2 2 2 2
left_child=1 5 4 -2 6 7 -3 -1 -4
right_child=3 2 8 -5 -6 -7 -8 -9 -10
leaf_value=0.00016338278019452295 0.0028202560129809255 -0.0012103057604729369 -0.0045617515300234316 0.0080042352906344923 0.0080562607888465775 0.0065722385460432967 -0.013079435103006645 0.0046302212770128349 -0.0075469438487769935
leaf_weight=25814.000419318676 6054.1214224100113 975.52813759446144 5309.6534565389156 2926.2362911999226 548.86797262728214 970.83419202268124 211.08956156671047 1270.3356707692146 4184.9012611955404
leaf_count=70097 15873 2721 15313 7148 1348 2434 684 3250 12549
internal_value=0 -0.049454 -0.246555 0.225611 0.012928 0.0294498 -0.167721 0.0186801 -0.294007
internal_weight=0 39285.2 11230 8980.36 1735.49 28055.2 1186.62 27084.3 9494.55
internal_count=131417 108396 32615 23021 4753 75781 3405 73347 27862
shrinkage=0.02


Tree=18
num_leaves=10
num_cat=0
split_feature=0 0 0 1 0 0 0 0 0
split_gain=593.312 1315.91 610.333 342.218 370.904 533.073 313.178 501.685 1099.31
threshold=266.50000000000006 267.50000000000006 263.50000000000006 1.5000000000000002 229.50000000000003 241.50000000000003 308.50000000000006 374.50000000000006 417.50000000000006
decision_type=2 2 2 2 2 2 2 2 2
left_child=2 -2 3 4 -1 -6 -3 -8 -9
right_child=1 6 -4 -5 5 -7 7 8 -10
leaf_value=-0.0037232050242732516 0.019222970241890184 -0.0049226989936834806 -0.017936250292909139 0.0034688701167652604 0.0082448943676181816 -0.0076937804108122721 0.0075891601290778293 -0.010794669531336721 0.0033429172261770393
leaf_weight=17269.851058840752 1729.547637373209 2983.762414291501 919.64302249252796 4747.7172046750784 2617.0190931260586 1231.9190931022167 4771.8015977740288 2898.8956823796034 9093.2601205557585
leaf_count=49533 3407 8715 3235 12341 6297 3721 11671 8882 23615
internal_value=0 0.125514 -0.0975748 -0.0690469 -0.123592 0.156993 0.0521774 0.105326 -0.0037972
internal_weight=0 21477.3 26786.1 25866.5 21118.8 3848.94 19747.7 16764 11992.2
internal_count=131417 56290 75127 71892 59551 10018 52883 44168 32497
shrinkage=0.02


Tree=19
num_leaves=10
num_cat=0
split_feature=0 0 0 1 0 0 0 0 0
split_gain=570.008 1268.32 587.996 328.705 356.257 512.181 300.847 709.32 300.854
threshold=266.50000000000006 267.50000000000006 263.50000000000006 1.5000000000000002 229.50000000000003 241.50000000000003 316.50000000000006 317.50000000000006 288.50000000000006
decision_type=2 2 2 2 2 2 2 2 2
left_child=2 -2 3 4 -1 -6 8 -8 -3
right_child=1 6 -4 -5 5 -7 7 -9 -10
leaf_value=-0.0036490666860304016 0.018894149021216659 0.00098311550751222897 -0.017622295825118633 0.0033996309064667613 0.0080830772033049295 -0.0075426848447190499 0.02782167064834427 0.001462739034403309 -0.011075349167865295
leaf_weight=17268.385155722499 1724.5570708662271 1835.5381071120501 917.38282115757465 4747.5867270231247 2616.0908970832825 1231.5290080308914 416.12177008390427 15991.712348684669 1502.3220380246639
leaf_count=49533 3407 4986 3235 12341 6297 3721 699 42489 4709
internal_value=0 0.123048 -0.0956445 -0.0676733 -0.121137 0.153906 0.0511383 0.106828 -0.222375
internal_weight=0 21470.3 26781 25863.6 21116 3847.62 19745.7 16407.8 3337.86
internal_count=131417 56290 75127 71892 59551 10018 52883 43188 9695
shrinkage=0.02


Tree=20
num_leaves=10
num_cat=0
split_feature=0 0 0 0 0 0 0 0 0
split_gain=567.802 1159.82 706.925 312.722 357.742 420.584 307.94 300.978 626.811
threshold=264.50000000000006 267.50000000000006 263.50000000000006 25.500000000000004 222.50000000000003 241.50000000000003 27.500000000000004 458.50000000000006 446.50000000000006
decision_type=2 2 2 2 2 2 2 2 2
left_child=2 -2 3 -1 6 -6 -5 8 -3
right_child=1 7 -4 4 5 -7 -8 -9 -10
leaf_value=0.0056907582085972989 0.017456186363997091 0.00053423243630574223 -0.020708327736929349 -0.019846258988918508 0.0065212021130970042 -0.0060898558146175062 -0.0028563831492450296 0.0053574220013189559 -0.019635704264828437
leaf_weight=2338.9793174117804 1894.1506634652615 14156.644984960556 768.45851804316044 434.29854194819927 3533.825456276536 1506.0629630833864 18072.479652404785 4937.7812444716692 641.32789261639118
leaf_count=5904 3879 38201 2801 1469 8680 4475 51397 12468 2143
internal_value=0 0.125978 -0.0920746 -0.0639416 -0.0986019 0.137504 -0.162928 0.0541639 -0.0171654
internal_weight=0 21629.9 26654.1 25885.6 23546.7 5039.89 18506.8 19735.8 14798
internal_count=131417 56691 74726 71925 66021 13155 52866 52812 40344
shrinkage=0.02


Tree=21
num_leaves=10
num_cat=0
split_feature=0 0 0 0 0 0 1 0 0
split_gain=545.485 1117.46 681.605 300.383 343.623 404.076 304.732 289.108 602.069
threshold=264.50000000000006 267.50000000000006 263.50000000000006 25.500000000000004 222.50000000000003 241.50000000000003 1.5000000000000002 458.50000000000006 446.50000000000006
decision_type=2 2 2 2 2 2 2 2 2
left_child=2 -2 3 -1 6 -6 -5 8 -3
right_child=1 7 -4 4 5 -7 -8 -9 -10
leaf_value=0.005577446510811066 0.017151244103938115 0.00052355185472502202 -0.020361543839355824 -0.0044048440332196351 0.0063929008060897219 -0.0059698427250795818 0.0022422033166300611 0.0052508819303720327 -0.019243793253642547
leaf_weight=2338.8305963426828 1889.3728883117437 14156.60171879828 765.99138048291206 15134.934282749891 3532.723344668746 1505.6772025823593 3370.3607650995255 4937.2753976136446 641.36166925728321
leaf_count=5904 3879 38201 2801 43951 8680 4475 8915 12468 2143
internal_value=0 0.123492 -0.0902574 -0.0626722 -0.0966452 0.134794 -0.159686 0.05308 -0.0168255
internal_weight=0 21624.6 26648.5 25882.5 23543.7 5038.4 18505.3 19735.2 14798
internal_count=131417 56691 74726 71925 66021 13155 52866 52812 40344
shrinkage=0.02


Tree=22
num_leaves=10
num_cat=0
split_feature=0 0 0 0 0 1 0 0 0
split_gain=524.045 1076.77 657.306 288.533 341.899 292.425 283.84 671.344 305.316
threshold=264.50000000000006 267.50000000000006 263.50000000000006 25.500000000000004 27.500000000000004 1.5000000000000002 316.50000000000006 317.50000000000006 374.50000000000006
decision_type=2 2 2 2 2 2 2 2 2
left_child=2 -2 3 -1 -5 -6 -3 -8 -9
right_child=1 6 -4 4 5 -7 7 8 -10
leaf_value=0.0054664707271206182 0.016853293588430015 -0.0042967662089212219 -0.020023589005624169 -0.019420381549409428 -0.0025929331394138554 0.0033490818177090726 0.027152628791626249 0.006228656523822285 -0.0001363158218317512
leaf_weight=2338.6481499373913 1884.422762542963 3312.8604528307915 763.41782262921333 434.06400126218796 19101.436662167311 4004.4246539622545 414.61598382890224 4023.9129322767258 11983.153707370162
leaf_count=5904 3879 9615 2801 1469 54133 10419 703 10026 32468
internal_value=0 0.121056 -0.0884766 -0.0614274 -0.0947276 -0.0781288 0.0520183 0.105901 0.0732113
internal_weight=0 21619 26642 25878.6 23539.9 23105.9 19734.5 16421.7 16007.1
internal_count=131417 56691 74726 71925 66021 64552 52812 43197 42494
shrinkage=0.02


Tree=23
num_leaves=10
num_cat=0
split_feature=0 0 0 0 0 0 0 0 0
split_gain=503.512 1037.63 633.984 280.878 576.468 540.229 277.145 330.532 439.075
threshold=264.50000000000006 267.50000000000006 263.50000000000006 458.50000000000006 446.50000000000006 505.50000000000006 25.500000000000004 229.50000000000003 241.50000000000003
decision_type=2 2 2 2 2 2 2 2 2
left_child=2 -2 6 4 -3 -5 -1 -8 -9
right_child=1 3 -4 5 -6 -7 7 8 -10
leaf_value=0.0053577763240623046 0.016562041829096218 0.00048326876520098913 -0.019694029880305008 0.0093760946975774955 -0.018860587981993821 -0.0051920185048833578 -0.0030141515677680887 0.0073838195407212081 -0.0058231120740896035
leaf_weight=2338.4340684115887 1879.3143200725317 14153.403609916568 760.74610523879528 3504.9709618091583 641.27380365133286 1431.7555885463953 19006.932868659496 3026.3735722005367 1505.1188094615936
leaf_count=5904 3879 38201 2801 8375 2143 4093 54225 7321 4475
internal_value=0 0.11869 -0.0867262 0.0509915 -0.0179218 0.257462 -0.0602042 -0.0928415 0.149746
internal_weight=0 21610.7 26637.6 19731.4 14794.7 4936.73 25876.9 23538.4 4531.49
internal_count=131417 56691 74726 52812 40344 12468 71925 66021 11796
shrinkage=0.02


Tree=24
num_leaves=10
num_cat=0
split_feature=0 0 0 0 0 0 0 0 1
split_gain=483.727 1000.07 611.578 271.545 649.426 294.962 291.857 381.168 269.436
threshold=264.50000000000006 267.50000000000006 263.50000000000006 316.50000000000006 317.50000000000006 374.50000000000006 288.50000000000006 287.50000000000006 1.5000000000000002
decision_type=2 2 2 2 2 2 2 2 2
left_child=2 -2 8 6 -5 -6 7 -3 -1
right_child=1 3 -4 4 5 -7 -8 -9 -10
leaf_value=-0.0021454885228836544 0.016277216413156631 -0.0034342629035087452 -0.01937246132487911 0.026740018489619578 0.006095537518844521 -0.00016101265209477595 -0.010811793734853921 0.019347337460254715 0.0031338043428179906
leaf_weight=21144.65611794591 1874.0609676092863 1466.8449033796787 757.98409859836102 412.51133495569229 4023.2467668503523 11982.263346508145 1481.4731749743223 364.12187439203262 4728.6745419502258
leaf_count=59608 3879 4207 2801 703 10026 32468 4647 761 12317
internal_value=0 0.116352 -0.0850145 0.0499718 0.102683 0.0706073 -0.211055 0.0558624 -0.0590074
internal_weight=0 21604.5 26631.3 19730.5 16418 16005.5 3312.44 1830.97 25873.3
internal_count=131417 56691 74726 52812 43197 42494 9615 4968 71925
shrinkage=0.02


Tree=25
num_leaves=10
num_cat=0
split_feature=0 0 0 0 0 0 0 0 0
split_gain=492.045 1079.02 465.608 277.375 336.665 607.465 331.619 272.398 575.809
threshold=266.50000000000006 267.50000000000006 263.50000000000006 25.500000000000004 201.50000000000003 197.50000000000003 205.50000000000003 458.50000000000006 446.50000000000006
decision_type=2 2 2 2 2 2 2 2 2
left_child=2 -2 3 -1 5 -5 -6 8 -3
right_child=1 7 -4 4 6 -7 -8 -9 -10
leaf_value=0.0053126954412608916 0.017442569415917486 0.00048749769960983001 -0.015628487368960223 -0.0028324556576101623 0.018569999210296628 -0.025215814895201177 0.00055371010316837565 0.0050831768495619642 -0.018762834519924117
leaf_weight=2349.0656772404909 1733.6716390699148 14124.319870948792 928.55420178174973 15475.627631500363 430.63684502243996 497.84476678073406 7118.6459029912949 4895.0090356767178 647.12056592106819
leaf_count=5928 3474 38115 3312 44143 927 1780 19210 12359 2169
internal_value=0 0.116535 -0.0868039 -0.0617743 -0.094513 -0.176753 0.0794592 0.0497888 -0.0179535
internal_weight=0 21400.1 26800.4 25871.8 23522.8 15973.5 7549.28 19666.4 14771.4
internal_count=131417 56117 75300 71988 66060 45923 20137 52643 40284
shrinkage=0.02


Tree=26
num_leaves=10
num_cat=0
split_feature=0 0 0 0 0 0 0 0 0
split_gain=472.721 1040.99 448.842 266.43 323.411 584.271 318.448 261.665 553.383
threshold=266.50000000000006 267.50000000000006 263.50000000000006 25.500000000000004 201.50000000000003 197.50000000000003 205.50000000000003 458.50000000000006 446.50000000000006
decision_type=2 2 2 2 2 2 2 2 2
left_child=2 -2 3 -1 5 -5 -6 8 -3
right_child=1 7 -4 4 6 -7 -8 -9 -10
leaf_value=0.0052071836572474993 0.017157286281944385 0.0004777518903852691 -0.01536243017707857 -0.002776066519104687 0.018194553731133625 -0.024738041923901104 0.00054264270401998443 0.0049822603056098582 -0.018398390399138435
leaf_weight=2348.7942610681057 1727.3619889169931 14124.265990570188 925.82240983843803 15474.254095807672 430.79277072846889 497.37307487428188 7118.6170522123575 4894.3422906845808 646.80274993181229
leaf_count=5928 3474 38115 3312 44143 927 1780 19210 12359 2169
internal_value=0 0.114247 -0.0850858 -0.0605437 -0.0926307 -0.173244 0.0778769 0.0487936 -0.0175984
internal_weight=0 21392.8 26795.7 25869.8 23521 15971.6 7549.41 19665.4 14771.1
internal_count=131417 56117 75300 71988 66060 45923 20137 52643 40284
shrinkage=0.02


Tree=27
num_leaves=10
num_cat=0
split_feature=0 0 0 0 21 0 0 0 0
split_gain=454.161 1004.39 435.078 586.218 333.159 251.357 531.916 523.111 227.02
threshold=266.50000000000006 267.50000000000006 241.50000000000003 232.50000000000003 60.500000000000007 458.50000000000006 446.50000000000006 505.50000000000006 374.50000000000006
decision_type=2 2 2 2 2 2 2 2 2
left_child=2 -2 3 4 -1 6 8 -7 -3
right_child=1 5 -4 -5 -6 7 -8 -9 -10
leaf_value=4.9110418176313788e-06 0.016878066802426196 0.0027700404870229945 -0.0097083472168668777 0.0076607504121270834 -0.0050961376116213557 0.0090478722276586074 -0.018043949637113015 -0.005369526589203877 -0.0023236214696890564
leaf_weight=13091.926686525345 1720.9341310709715 7742.6317804306746 2443.426274061203 2848.4833573549986 8406.766255185008 3480.7666781693697 646.38090032339096 1412.8608045428991 6381.5797372311354
leaf_count=35821 3474 20329 7868 6856 24755 8316 2169 4043 17786
internal_value=0 0.112006 -0.0834029 -0.0429905 -0.0994969 0.0478185 -0.0172505 0.24417 0.02341
internal_weight=0 21385.2 26790.6 24347.2 21498.7 19664.2 14770.6 4893.63 14124.2
internal_count=131417 56117 75300 67432 60576 52643 40284 12359 38115
shrinkage=0.02


Tree=28
num_leaves=10
num_cat=0
split_feature=1 18 0 0 0 0 0 0 0
split_gain=451.507 531.639 409.634 403.866 259.039 182.974 159.633 153.264 289.702
threshold=1.5000000000000002 1.5000000000000002 264.50000000000006 267.50000000000006 308.50000000000006 25.500000000000004 27.500000000000004 375.50000000000006 417.50000000000006
decision_type=2 2 2 2 2 2 2 2 2
left_child=1 2 5 -4 -5 -1 -7 -3 -9
right_child=-2 7 3 4 -6 6 -8 8 -10
leaf_value=0.0052510275898639972 0.0041187671949804924 -0.0033349685967962919 0.01469653520534777 -0.004928500574577159 0.0033361530012775038 -0.018043439279058097 -0.0020733877458386984 -0.019588329070086362 -0.0043548653746627508
leaf_weight=1384.1599214673042 8947.2400010973215 8894.5251346379519 1112.695964127779 1776.4778180867434 10271.863358929753 252.39206312596798 13187.609307840466 723.17380355298519 1611.6311296224594
leaf_count=3492 23008 25627 2343 5203 26556 854 37299 2437 4598
internal_value=0 -0.0429772 0.0307734 0.159166 0.105807 -0.0832033 -0.118885 -0.226761 -0.454744
internal_weight=0 39214.5 27985.2 13161 12048.3 14824.2 13440 11229.3 2334.8
internal_count=131417 108409 75747 34102 31759 41645 38153 32662 7035
shrinkage=0.02


Tree=29
num_leaves=10
num_cat=0
split_feature=1 18 0 0 0 0 0 21 0
split_gain=433.685 510.672 393.558 389.67 248.824 175.763 153.603 150.258 171.6
threshold=1.5000000000000002 1.5000000000000002 264.50000000000006 267.50000000000006 308.50000000000006 25.500000000000004 27.500000000000004 58.500000000000007 219.50000000000003
decision_type=2 2 2 2 2 2 2 2 2
left_child=1 2 5 -4 -5 -1 -7 -3 -9
right_child=-2 7 3 4 -6 6 -8 8 -10
leaf_value=0.0051468718505752039 0.0040367851001143745 0.00095431460134143124 0.014449184524968968 -0.0048309958254813892 0.0032697359851687042 -0.01770581454455657 -0.0020320528273666599 -0.0087741116598738303 -0.0032644929603759107
leaf_weight=1383.98973120749 8946.4377276003361 1739.4219975471497 1109.1957761198282 1776.150107562542 10270.97287543118 252.12062206864357 13186.818871080875 3734.3339980393648 5754.4536857306957
leaf_count=3492 23008 4791 2343 5203 26556 854 37299 11542 16329
internal_value=0 -0.0421272 0.0301648 0.156043 0.103701 -0.0815493 -0.116522 -0.222256 -0.271777
internal_weight=0 39207.5 27979.2 13156.3 12047.1 14822.9 13438.9 11228.2 9488.79
internal_count=131417 108409 75747 34102 31759 41645 38153 32662 27871
shrinkage=0.02


Tree=30
num_leaves=10
num_cat=0
split_feature=1 18 20 16 14 3 20 20 21
split_gain=407.776 517.324 137.961 123.47 94.5501 89.5462 53.2636 49.9123 35.78
threshold=1.5000000000000002 1.5000000000000002 59.500000000000007 5.5000000000000009 6.5000000000000009 238.50000000000003 71.500000000000014 47.500000000000007 349.50000000000006
decision_type=2 2 2 2 2 2 2 2 2
left_child=1 5 4 -2 -3 6 -1 -6 -7
right_child=3 2 -4 -5 7 8 -8 -9 -10
leaf_value=-0.00022006608517747224 0.0022222168970395641 -0.0026682298031677014 -0.0054726486245544985 0.0072363558826881403 0.011408766382893646 0.0039830502206430283 0.001907420945643594 -0.00051519417265181067 0.014147916380420738
leaf_weight=19959.608035445213 6023.3906216621399 1199.6077153980732 9403.4180247783661 2919.3460548967123 379.19463948905468 1706.7931951582432 6155.3567786365747 220.09534659981728 149.18824388086796
leaf_count=54577 15863 3473 27669 7165 896 4416 16418 605 335
internal_value=0 -0.043545 -0.225105 0.193081 0.0284311 0.029175 0.014066 0.351943 0.241243
internal_weight=0 39173.3 11202.3 8942.74 1798.9 27970.9 26115 599.29 1855.98
internal_count=131417 108389 32643 23028 4974 75746 70995 1501 4751
shrinkage=0.02


Tree=31
num_leaves=10
num_cat=0
split_feature=1 18 20 16 14 3 20 20 7
split_gain=391.677 496.925 132.536 118.649 90.8315 86.0342 51.156 47.9614 34.6723
threshold=1.5000000000000002 1.5000000000000002 59.500000000000007 5.5000000000000009 6.5000000000000009 238.50000000000003 71.500000000000014 47.500000000000007 74.500000000000014
decision_type=2 2 2 2 2 2 2 2 2
left_child=1 5 4 -2 8 6 -1 -6 -3
right_child=3 2 -4 -5 7 -7 -8 -9 -10
leaf_value=-0.00021566524539803512 0.0021778952117184032 -0.0011194573400070333 -0.0053640782763719258 0.0070936900757646061 0.011183253437328662 0.0047294448755790105 0.0018693083784223183 -0.00050502985249491563 -0.010383569102463864
leaf_weight=19959.61386667192 6023.1158901304007 1009.3320132791996 9401.9460143446922 2918.5657947957516 379.16511102020741 1855.816652238369 6155.3010310530663 220.09500966966152 190.14731958508492
leaf_count=54577 15863 2854 27669 7165 896 4751 16418 605 619
internal_value=0 -0.0426743 -0.220635 0.189246 0.0278719 0.0285941 0.0137846 0.344966 -0.130764
internal_weight=0 39171.4 11200.7 8941.68 1798.74 27970.7 26114.9 599.26 1199.48
internal_count=131417 108389 32643 23028 4974 75746 70995 1501 3473
shrinkage=0.02


Tree=32
num_leaves=10
num_cat=0
split_feature=0 0 0 0 0 0 0 0 0
split_gain=412.704 907.276 415.753 263.081 651.495 297.159 370.227 251.304 246.422
threshold=266.50000000000006 267.50000000000006 263.50000000000006 316.50000000000006 317.50000000000006 288.50000000000006 287.50000000000006 374.50000000000006 294.50000000000006
decision_type=2 2 2 2 2 2 2 2 2
left_child=2 -2 -1 5 -5 6 -3 -6 -7
right_child=1 3 -4 4 7 8 -8 -9 -10
leaf_value=-0.0011793509645650307 0.016194867691378581 -0.0033367014316742528 -0.01496773093405938 0.026565700121203864 0.005608016502597183 -0.021800706689280674 0.018993480473420175 -0.00018072401587503422 -0.0048370618960427523
leaf_weight=25851.766505509615 1675.8660615086555 1470.5206505805254 902.50697062909603 415.22260764241219 4005.4238808602095 526.927998945117 368.92908771336079 11913.652782604098 979.06668005883694
leaf_count=72042 3417 4220 3249 708 10015 1853 770 32261 2882
internal_value=0 0.104088 -0.0823164 0.043867 0.0962095 -0.211465 0.0581164 0.0638098 -0.540397
internal_weight=0 21355.6 26754.3 19679.7 16334.3 3345.44 1839.45 15919.1 1505.99
internal_count=131417 56126 75291 52709 42984 9725 4990 42276 4735
shrinkage=0.02


Tree=33
num_leaves=10
num_cat=0
split_feature=0 21 0 0 0 0 0 14 0
split_gain=398.068 301.482 267.384 684.704 779.693 259.161 166.219 147.976 146.879
threshold=229.50000000000003 60.500000000000007 241.50000000000003 264.50000000000006 267.50000000000006 458.50000000000006 263.50000000000006 5.5000000000000009 246.50000000000003
decision_type=2 2 2 2 2 2 2 2 2
left_child=1 7 -2 6 -5 -6 8 -1 -4
right_child=2 -3 3 4 5 -7 -8 -9 -10
leaf_value=-0.0013570773056390581 0.0072075245534719426 -0.0050132549656123895 -0.016417970205808971 0.014562554094061295 -0.00046570074942447982 0.0048323218732002713 -0.017170679852587693 0.0035813540002488909 -0.0020359745096150701
leaf_weight=9789.6162435263395 3045.0455546379089 8286.6145705580711 377.64293079078197 1811.4262919425964 14752.648648127913 4922.6526123583317 757.54348616302013 3223.6306279152632 1128.6342554092407
leaf_count=27306 7375 24499 1257 3843 40289 12420 2823 8368 3237
internal_value=0 -0.10161 0.0815299 0.0457256 0.10087 0.0430033 -0.476977 -0.00663644 -0.283558
internal_weight=0 21299.9 26795.6 23750.5 21486.7 19675.3 2263.82 13013.2 1506.28
internal_count=131417 60173 71244 63869 56552 52709 7317 35674 4494
shrinkage=0.02


Tree=34
num_leaves=10
num_cat=0
split_feature=0 0 0 0 0 0 1 0 0
split_gain=382.402 257.822 300.903 256.925 658.562 751.822 255.713 250.116 162.11
threshold=229.50000000000003 25.500000000000004 27.500000000000004 241.50000000000003 264.50000000000006 267.50000000000006 1.5000000000000002 316.50000000000006 4.5000000000000009
decision_type=2 2 2 2 2 2 2 2 2
left_child=1 8 -3 -2 -5 -6 -4 -7 -1
right_child=3 2 6 4 5 7 -8 -9 -10
leaf_value=-0.0051369361138448311 0.0070666117239983565 -0.019272189082646274 -0.0034694671460357325 -0.0093644859630066992 0.014318043181153017 -0.0041374136179419142 0.002661264236906134 0.001863689938717606 0.0072648651725187039
leaf_weight=550.87416741251945 3043.723467066884 428.59014338254929 15245.945324629545 2260.3249258548021 1805.6229525953531 3344.0565792620182 3309.0763060152531 16330.440932139754 1762.7966924607754
leaf_count=1573 7375 1464 44142 7317 3843 9725 8670 42984 4324
internal_value=0 -0.0995903 -0.138016 0.0799327 0.0448279 0.0988875 -0.118777 0.0421454 0.215332
internal_weight=0 21297.3 18983.6 26784.2 23740.4 21480.1 18555 19674.5 2313.67
internal_count=131417 60173 54276 71244 63869 56552 52812 52709 5897
shrinkage=0.02


Tree=35
num_leaves=10
num_cat=0
split_feature=1 0 0 0 0 0 0 0 20
split_gain=428.032 330.086 293.771 924.798 750.727 268.598 209.614 193.828 165.741
threshold=1.5000000000000002 222.50000000000003 374.50000000000006 369.50000000000006 417.50000000000006 505.50000000000006 25.500000000000004 413.50000000000006 60.500000000000007
decision_type=2 2 2 2 2 2 2 2 2
left_child=1 6 3 -3 7 -6 -1 -4 -8
right_child=-2 2 4 -5 5 -7 8 -9 -10
leaf_value=0.0034886128860883571 0.0039068415003496448 0.0015157648003920939 -0.0091745880693273139 0.028308010778898534 0.0029820148623633906 -0.0074549566893186495 -0.0019019338321269162 -0.025224637222199631 -0.0061204959790467509
leaf_weight=1746.1580817103386 8933.4479227513075 12092.963618427515 2118.6247288882732 535.34683156013489 6055.6104175746441 1174.960210070014 8180.1493538767099 350.53421275317669 6852.4187559485435
leaf_count=4509 22957 32368 6401 950 15754 3444 23122 1246 20666
internal_value=0 -0.0472307 0.0324002 0.132924 -0.0984444 0.06414 -0.153203 -0.57417 -0.191308
internal_weight=0 39106.8 22328 12628.3 9699.73 7230.57 16778.7 2469.16 15032.6
internal_count=131417 108460 60163 33318 26845 19198 48297 7647 43788
shrinkage=0.02


Tree=36
num_leaves=10
num_cat=0
split_feature=1 18 0 0 0 0 0 0 20
split_gain=411.142 459.975 366.311 312.175 244.758 185.525 284.518 167.982 320.37
threshold=1.5000000000000002 1.5000000000000002 264.50000000000006 267.50000000000006 308.50000000000006 377.50000000000006 417.50000000000006 222.50000000000003 59.500000000000007
decision_type=2 2 2 2 2 2 2 2 2
left_child=1 2 -1 -4 -5 7 -7 8 -3
right_child=-2 5 3 4 -6 6 -8 -9 -10
leaf_value=-0.0017142103741550167 0.0038292006073243458 0.0057401453292240598 0.013205868006133846 -0.0048888750459084611 0.0031381560493396205 -0.02025402315877561 -0.0048425716415303986 -0.00017852911479904597 -0.0081171248200910713
leaf_weight=14772.621547669172 8932.3629522025585 806.688596829772 1071.6067593097687 1779.0850929021835 10298.534977942705 679.18448574841022 1625.16865041852 4270.5764894485474 3798.2180478423834
leaf_count=41639 22957 2073 2306 5231 26624 2325 4674 11817 11771
internal_value=0 -0.0462933 0.0223314 0.143727 0.0977161 -0.217671 -0.470398 -0.151885 -0.284307
internal_weight=0 39101.7 27921.8 13149.2 12077.6 11179.8 2304.35 8875.48 4604.91
internal_count=131417 108460 75800 34161 31855 32660 6999 25661 13844
shrinkage=0.02


Tree=37
num_leaves=10
num_cat=0
split_feature=1 18 0 0 0 0 0 0 20
split_gain=394.929 441.925 351.921 301.265 235.112 178.26 273.764 161.463 307.915
threshold=1.5000000000000002 1.5000000000000002 264.50000000000006 267.50000000000006 308.50000000000006 377.50000000000006 417.50000000000006 222.50000000000003 59.500000000000007
decision_type=2 2 2 2 2 2 2 2 2
left_child=1 2 -1 -4 -5 7 -7 8 -3
right_child=-2 5 3 4 -6 6 -8 -9 -10
leaf_value=-0.001680017344873825 0.0037531211199969949 0.0056249809661954257 0.012985294886324173 -0.0047923305632605172 0.0030757245696748175 -0.01986803730018237 -0.0047459234041937306 -0.0001749616222267908 -0.0079601910963078889
leaf_weight=14771.885520040989 8931.2345663160086 806.8006813377142 1068.0998188555241 1778.691855892539 10297.49580129981 678.59577928483486 1625.1602101176977 4270.5721888840199 3795.7219000756741
leaf_count=41639 22957 2073 2306 5231 26624 2325 4674 11817 11771
internal_value=0 -0.0453789 0.0218909 0.14091 0.0957723 -0.213385 -0.461147 -0.14889 -0.278768
internal_weight=0 39093 27916.2 13144.3 12076.2 11176.9 2303.76 8873.09 4602.52
internal_count=131417 108460 75800 34161 31855 32660 6999 25661 13844
shrinkage=0.02


Tree=38
num_leaves=10
num_cat=0
split_feature=1 18 20 16 21 15 5 6 20
split_gain=379.357 424.593 135.532 102.856 87.4656 85.1603 47.308 47.1749 35.3144
threshold=1.5000000000000002 1.5000000000000002 58.500000000000007 4.5000000000000009 308.50000000000006 7.5000000000000009 232.50000000000003 69.500000000000014 173.50000000000003
decision_type=2 2 2 2 2 2 2 2 2
left_child=1 4 5 -2 6 7 -1 -3 -4
right_child=3 2 8 -5 -6 -7 -8 -9 -10
leaf_value=-2.0919234246044559e-06 0.0019718107528456895 -0.00017012253069104152 -0.0053179354955836412 0.0063828015956353713 0.0063510432599169333 0.0074485842652290716 0.0034144099181917377 -0.010499418421706255 0.0026784910221753066
leaf_weight=25220.844868138433 5479.2671855837107 970.09692656993866 9217.6998011618853 3450.798976406455 960.30238135159016 548.55522841215134 1729.2903724461794 213.66730633378029 223.61903551220894
leaf_count=68875 14431 2720 27279 8526 2422 1360 4503 701 600
internal_value=0 -0.0444831 -0.209187 0.183928 0.0214591 0.0477111 0.0108633 -0.103071 -0.256356
internal_weight=0 39084.1 11173.6 8930.07 27910.4 1732.32 26950.1 1183.76 9441.32
internal_count=131417 108460 32660 22957 75800 4781 73378 3421 27879
shrinkage=0.02


Tree=39
num_leaves=10
num_cat=0
split_feature=0 0 0 2 0 0 0 0 0
split_gain=312.089 762.479 417.79 224.016 209.439 418.487 292.562 182.329 355.829
threshold=266.50000000000006 267.50000000000006 263.50000000000006 326.50000000000006 308.50000000000006 374.50000000000006 288.50000000000006 229.50000000000003 241.50000000000003
decision_type=2 2 2 2 2 2 2 2 2
left_child=2 -2 7 4 6 -6 -3 -1 -9
right_child=1 3 -4 -5 5 -7 -8 8 -10
leaf_value=-0.0017913278046346674 0.014747875960121786 7.1949026068806915e-05 -0.014933855681843067 0.0070256155757701232 0.0061374442412946081 -0.0012452200035216183 -0.013615848530068508 0.0066087060113938058 -0.0052895137612765063
leaf_weight=21252.259127005935 1664.5407562106848 1599.2414150387049 889.73094007372856 1986.3858670145273 4288.5830914825201 10795.953987583518 1020.9654624462128 3005.7842640578747 1506.7824100106955
leaf_count=60039 3473 4409 3239 4892 10603 29606 3343 7318 4495
internal_value=0 0.0881158 -0.0741157 0.0331115 -0.00262202 0.042705 -0.263435 -0.0507939 0.13168
internal_weight=0 21355.7 26654.6 19691.1 17704.7 15084.5 2620.21 25764.8 4512.57
internal_count=131417 56326 75091 52853 47961 40209 7752 71852 11813
shrinkage=0.02


Tree=40
num_leaves=10
num_cat=0
split_feature=1 0 0 0 0 0 0 0 0
split_gain=329.939 307.896 257.176 849.478 751.17 242.14 202.205 189.893 179.114
threshold=1.5000000000000002 222.50000000000003 374.50000000000006 369.50000000000006 417.50000000000006 505.50000000000006 25.500000000000004 27.500000000000004 241.50000000000003
decision_type=2 2 2 2 2 2 2 2 2
left_child=1 6 3 8 -4 -6 -1 -8 -3
right_child=-2 2 4 -5 5 -7 7 -9 -10
leaf_value=0.0036283557353101806 0.0035227111089543095 0.0057993341812183465 -0.011209157840374809 0.027314563451564685 0.0031813791408537013 -0.0067566521542298053 -0.019787838858603645 -0.0032229484332535092 0.0001777693759692308
leaf_weight=1757.4434846788645 8906.960392832756 3023.6347631961107 2452.7235680818558 533.27528019249439 6100.8566919416189 1165.2305464744568 279.40188151597977 14779.582168996334 9044.7492029815912
leaf_count=4535 22927 7466 7612 952 15817 3396 977 42899 24836
internal_value=0 -0.0370777 0.0398992 0.134161 -0.0822956 0.0792352 -0.139256 -0.176728 0.0793897
internal_weight=0 39136.9 22320.5 12601.7 9718.81 7266.09 16816.4 15059 12068.4
internal_count=131417 108490 60079 33254 26825 19213 48411 43876 32302
shrinkage=0.02


Tree=41
num_leaves=10
num_cat=0
split_feature=0 0 0 0 0 0 0 0 0
split_gain=320.61 768.894 382.735 246.74 576.276 445.589 200.741 189.002 374.27
threshold=266.50000000000006 267.50000000000006 263.50000000000006 458.50000000000006 446.50000000000006 505.50000000000006 417.50000000000006 229.50000000000003 241.50000000000003
decision_type=2 2 2 2 2 2 2 2 2
left_child=2 -2 7 4 6 -5 -3 -1 -9
right_child=1 3 -4 5 -6 -7 -8 8 -10
leaf_value=-0.0017562906091959857 0.014952321442988175 -0.0010450983861018245 -0.014276866179204008 0.0084800415672034446 -0.019074675570336326 -0.0047970026001383998 0.0044709779108015584 0.0068372159099600142 -0.0053567025563044145
leaf_weight=21269.987741783261 1655.5526149570942 10646.006861552596 891.36647237837315 3501.753740131855 637.42669834196568 1418.1586261093616 3505.2010020166636 2999.6030426323414 1511.6091999709606
leaf_count=60125 3445 29299 3244 8378 2163 4039 8942 7264 4518
internal_value=0 0.0936867 -0.0707017 0.0386349 -0.0258934 0.232557 0.0160724 -0.0483735 0.137456
internal_weight=0 21364.1 26672.6 19708.5 14788.6 4919.91 14151.2 25781.2 4511.21
internal_count=131417 56266 75151 52821 40404 12417 38241 71907 11782
shrinkage=0.02


Tree=42
num_leaves=10
num_cat=0
split_feature=1 0 0 0 0 0 0 0 0
split_gain=316.825 285.32 249.478 819.963 712.495 223.883 194.264 182.979 172.829
threshold=1.5000000000000002 222.50000000000003 374.50000000000006 369.50000000000006 417.50000000000006 505.50000000000006 25.500000000000004 27.500000000000004 413.50000000000006
decision_type=2 2 2 2 2 2 2 2 2
left_child=1 6 3 -3 8 -6 -1 -8 -4
right_child=-2 2 4 -5 5 -7 7 -9 -10
leaf_value=0.0035911064844176611 0.0034518094474056842 0.0015363478402752354 -0.0087678129406285072 0.026829341317858284 0.0030305691775825206 -0.0065250133877612897 -0.019400716961105263 -0.0031242704929612935 -0.023923141068025764
leaf_weight=1757.3811005353928 8902.9897731840611 12057.981451913714 2100.9581094235182 532.53807356953621 6098.6225393265486 1165.4340942203999 278.83766670525074 14775.453236371279 351.15196700394154
leaf_count=4535 22927 32302 6364 952 15817 3396 977 42899 1248
internal_value=0 -0.0363896 0.037741 0.130639 -0.082611 0.07473 -0.134757 -0.171497 -0.548357
internal_weight=0 39118.4 22306.7 12590.5 9716.17 7264.06 16811.7 15054.3 2452.11
internal_count=131417 108490 60079 33254 26825 19213 48411 43876 7612
shrinkage=0.02


Tree=43
num_leaves=10
num_cat=0
split_feature=20 21 18 16 14 20 20 8 14
split_gain=309.328 193.087 358.624 119.063 76.3422 63.1321 62.0019 36.0767 35.8445
threshold=221.50000000000003 60.500000000000007 1.5000000000000002 10.500000000000002 5.5000000000000009 102.50000000000001 141.50000000000003 1.0000000180025095e-35 11.500000000000002
decision_type=2 2 2 2 2 2 2 2 2
left_child=1 3 -3 5 -2 7 -4 -1 -5
right_child=4 2 6 8 -6 -7 -8 -9 -10
leaf_value=0.0030913539006854874 0.0019977148920312013 0.0011719173117562107 -0.0052031751926192452 0.013646908497842067 0.0072902322493402288 0.0034037418666298352 0.00055600825028407383 -0.00032900440542658313 0.0042973906787002886
leaf_weight=1307.4024779349566 1898.6505153775215 7353.5129160881042 8692.0408920198679 177.66369134187698 2578.8503965139389 2223.9643235653639 815.43904542922974 20982.506731063128 1984.0082530379295
leaf_count=3426 5041 19836 25761 404 6309 5730 2230 57602 5078
internal_value=0 -0.0234321 -0.107192 0.0295051 0.252508 0.00963949 -0.235429 -0.00638635 0.254321
internal_weight=0 43536.5 16861 26675.5 4477.5 24513.9 9507.48 22289.9 2161.67
internal_count=131417 120067 47827 72240 11350 66758 27991 61028 5482
shrinkage=0.02


Tree=44
num_leaves=10
num_cat=0
split_feature=20 21 18 14 14 20 20 4 8
split_gain=297.155 185.472 344.514 113.74 73.3762 59.6459 47.2066 36.1138 32.7395
threshold=221.50000000000003 60.500000000000007 1.5000000000000002 7.5000000000000009 5.5000000000000009 154.50000000000003 102.50000000000001 30.500000000000004 1.0000000180025095e-35
decision_type=2 2 2 2 2 2 2 2 2
left_child=1 3 -3 6 -2 7 8 -4 -1
right_child=4 2 5 -5 -6 -7 -8 -9 -10
leaf_value=0.0029295492525637278 0.0019579068470819781 0.0011484949013401706 -0.003862524042301974 0.0038167450217256606 0.0071471469941944959 0.0022917394298109439 0.0033557303878768534 -0.0064246902814171182 -0.00039365627309689312
leaf_weight=1256.9840163141489 1898.5704351663589 7353.4720458090305 5109.2391885370016 3728.5530099719763 2577.9384679496288 472.37281781435013 1605.4839605242014 3923.8339917808771 20083.805047363043
leaf_count=3300 5041 19836 14859 9589 6309 1259 4143 11873 55208
internal_value=0 -0.0229629 -0.105061 0.028919 0.247521 -0.230771 0.00257421 -0.248896 -0.00986262
internal_weight=0 43533.7 16858.9 26674.8 4476.51 9505.45 22946.3 9033.07 21340.8
internal_count=131417 120067 47827 72240 11350 27991 62651 26732 58508
shrinkage=0.02


Tree=45
num_leaves=10
num_cat=0
split_feature=0 0 0 0 0 0 21 0 0
split_gain=269.053 260.981 294.104 255.292 591.43 724.7 235.785 229.748 172.179
threshold=229.50000000000003 25.500000000000004 27.500000000000004 241.50000000000003 264.50000000000006 267.50000000000006 32.500000000000007 458.50000000000006 263.50000000000006
decision_type=2 2 2 2 2 2 2 2 2
left_child=1 -1 -3 -2 8 -6 -4 -7 -5
right_child=3 2 6 4 5 7 -8 -9 -10
leaf_value=0.0046540890289868044 0.0068097710918091393 -0.018738816016540257 0.001209696417908355 -0.0051451201973687468 0.013809412270841821 -0.00067743672710560653 -0.0036155455139455159 0.0043226954672819905 -0.016880910210759124
leaf_weight=2330.4155469983816 3042.1476577222347 429.56854550540447 5987.9397329986095 1499.4854858368635 1802.1162932217121 14759.641426637769 12500.306191638112 4891.0405570268631 752.32344625890255
leaf_count=5903 7362 1477 16202 4477 3873 40405 36480 12386 2852
internal_value=0 -0.0828163 -0.121731 0.067911 0.0328782 0.0840852 -0.102624 0.0283629 -0.454296
internal_weight=0 21248.2 18917.8 26746.8 23704.6 21452.8 18488.2 19650.7 2251.81
internal_count=131417 60062 54159 71355 63993 56664 52682 52791 7329
shrinkage=0.02


Tree=46
num_leaves=10
num_cat=0
split_feature=0 0 0 0 0 0 21 0 0
split_gain=258.488 250.701 283.054 245.328 568.901 698.978 226.507 220.697 166.917
threshold=229.50000000000003 25.500000000000004 27.500000000000004 241.50000000000003 264.50000000000006 267.50000000000006 32.500000000000007 458.50000000000006 263.50000000000006
decision_type=2 2 2 2 2 2 2 2 2
left_child=1 -1 -3 -2 8 -6 -4 -7 -5
right_child=3 2 6 4 5 7 -8 -9 -10
leaf_value=0.004561841990472105 0.0066772149357682813 -0.018393008174397471 0.0011854901817352024 -0.0050442239397672914 0.013582059532090329 -0.00066388636769738668 -0.0035439765932925287 0.0042371012210130664 -0.016616494622447187
leaf_weight=2330.0536689311266 3040.5651668012142 428.95452189445496 5988.0620697140694 1498.9545323252678 1795.751363530755 14759.739618867636 12497.774723321199 4890.1178199201822 749.08959650993347
leaf_count=5903 7362 1477 16202 4477 3873 40405 36480 12386 2852
internal_value=0 -0.0811754 -0.119319 0.0665848 0.0322352 0.0824357 -0.100585 0.0277971 -0.445999
internal_weight=0 21244.8 18914.8 26734.2 23693.7 21445.6 18485.8 19649.9 2248.04
internal_count=131417 60062 54159 71355 63993 56664 52682 52791 7329
shrinkage=0.02


Tree=47
num_leaves=10
num_cat=0
split_feature=20 0 0 0 0 0 0 0 0
split_gain=249.325 227.44 437.197 331.108 213.949 427.364 251.059 202.356 1000.25
threshold=201.50000000000003 458.50000000000006 446.50000000000006 505.50000000000006 495.50000000000006 496.50000000000006 468.50000000000006 374.50000000000006 369.50000000000006
decision_type=2 2 2 2 2 2 2 2 2
left_child=1 2 7 4 6 -6 -3 8 -1
right_child=-2 3 -4 -5 5 -7 -8 -9 -10
leaf_value=-0.00057036765878975984 0.0042614207589318932 0.011621841091583719 -0.018104170561832663 -0.0045599574520204626 0.028903269125139876 0.0044358911770452864 -0.0028704753778114552 -0.0042284800168208153 0.025889739651573287
leaf_weight=31789.938912883401 4972.0164909958839 821.5534038990736 583.29505839943886 1333.1445497125387 464.81520065665245 738.2112939953804 1134.9203003495932 5546.0886904746294 578.91542729735374
leaf_count=88364 12725 1876 1972 3793 804 1854 3120 15862 1047
internal_value=0 -0.0233912 -0.0482486 0.189439 0.36572 0.697137 0.161024 -0.0349864 -0.00472946
internal_weight=0 42990.9 38498.2 4492.64 3159.5 1203.03 1956.47 37914.9 32368.9
internal_count=131417 118692 107245 11447 7654 2658 4996 105273 89411
shrinkage=0.02


Tree=48
num_leaves=10
num_cat=0
split_feature=0 0 0 20 0 0 0 1 0
split_gain=247.878 244.332 270.909 201.241 247.477 747.514 586.039 168.236 166.299
threshold=222.50000000000003 25.500000000000004 27.500000000000004 124.50000000000001 374.50000000000006 369.50000000000006 417.50000000000006 1.5000000000000002 241.50000000000003
decision_type=2 2 2 2 2 2 2 2 2
left_child=1 -1 -3 4 5 8 -6 -4 -2
right_child=3 2 7 -5 6 -7 -8 -9 -10
leaf_value=0.0044712408557459503 0.0056833368079028121 -0.018066381624892731 -0.0029232130553952119 0.0046144072922762311 -0.010461674380280407 0.025187543467018934 0.00090724462412567267 0.0021348609509962259 -8.1007903212924963e-05
leaf_weight=2329.6323478966951 2574.1736634224653 428.27550864219666 14766.502156883478 5707.1400701105595 2442.8252401351929 541.52710495889187 7012.1100419014692 3196.5715408474207 8959.9971503913403
leaf_count=5903 6342 1477 42895 14485 7558 985 18659 8384 24729
internal_value=0 -0.0813058 -0.11997 0.0638162 0.0195349 0.1144 -0.101592 -0.101129 0.0603045
internal_weight=0 20721 18391.3 27237.8 21530.6 12075.7 9454.94 17963.1 11534.2
internal_count=131417 58659 52756 72758 58273 32056 26217 51279 31071
shrinkage=0.02


Tree=49
num_leaves=10
num_cat=0
split_feature=0 0 0 2 0 0 0 0 0
split_gain=241.575 672.62 440.184 201.64 176.789 354.666 315.891 173.194 295.093
threshold=264.50000000000006 267.50000000000006 263.50000000000006 326.50000000000006 308.50000000000006 374.50000000000006 288.50000000000006 25.500000000000004 27.500000000000004
decision_type=2 2 2 2 2 2 2 2 2
left_child=2 -2 7 4 6 -6 -3 -1 -9
right_child=1 3 -4 -5 5 -7 -8 8 -10
leaf_value=0.0043826807682674209 0.013332550261870774 0.00062961705087051653 -0.016369462841350262 0.0065820994907856492 0.0055556059394614625 -0.0012481745172576771 -0.013646091232248194 -0.017737816946913197 -0.0010245227804745883
leaf_weight=2329.2374344915152 1788.4873614609241 1580.3620921820402 745.95189782977104 1977.42911490798 4276.1861002296209 10792.689292401075 1016.2507115155458 427.5473380535841 23016.008004158735
leaf_count=5903 3873 4329 2852 4879 10615 29629 3339 1477 64521
internal_value=0 0.0800423 -0.0627126 0.0265248 -0.00737842 0.0341449 -0.248227 -0.040734 -0.0665907
internal_weight=0 21431.4 26518.7 19642.9 17665.5 15068.9 2596.61 25772.8 23443.6
internal_count=131417 56664 74753 52791 47912 40244 7668 71901 65998
shrinkage=0.02


Tree=50
num_leaves=10
num_cat=0
split_feature=0 0 0 21 0 0 0 0 0
split_gain=248.73 615.725 328.213 203.584 170.973 264.956 503.401 146.527 104.226
threshold=201.50000000000003 197.50000000000003 205.50000000000003 63.500000000000007 519.50000000000011 458.50000000000006 446.50000000000006 505.50000000000006 25.500000000000004
decision_type=2 2 2 2 2 2 2 2 2
left_child=1 3 -2 8 5 6 -4 -7 -1
right_child=2 -3 4 -5 -6 7 -8 -9 -10
leaf_value=0.0052208294048370543 0.018254144296849576 -0.023826317406495587 0.00075463017550352854 -0.0040421791932462878 -0.0096677355694845656 0.0074950080271823337 -0.017103963767693155 -0.0019329125356174449 -0.00037049351861597016
leaf_weight=1542.5429676473141 437.5800749361515 493.00401529669762 23705.690546914935 6526.9841662198305 601.07184457778931 3436.8850073069334 645.62654376029968 813.26997441053391 9711.8691199868917
leaf_count=3842 942 1775 64071 19350 1809 8284 2167 2244 26933
internal_value=0 -0.092326 0.0559958 -0.0616429 0.0430558 0.0541793 0.0139425 0.284473 0.0198257
internal_weight=0 18274.4 29640.1 17781.4 29202.5 28601.5 24351.3 4250.15 11254.4
internal_count=131417 51900 79517 50125 78575 76766 66238 10528 30775
shrinkage=0.02


Tree=51
num_leaves=10
num_cat=0
split_feature=1 18 0 0 0 0 0 0 0
split_gain=246.267 386.079 270.228 260.657 204.007 186.946 247.894 148.491 113.433
threshold=1.5000000000000002 1.5000000000000002 264.50000000000006 267.50000000000006 308.50000000000006 377.50000000000006 417.50000000000006 365.50000000000006 456.50000000000006
decision_type=2 2 2 2 2 2 2 2 2
left_child=1 2 -1 -4 -5 7 -7 -3 -2
right_child=8 5 3 4 -6 6 -8 -9 -10
leaf_value=-0.0012895501200974582 0.0022257139459121575 -0.0029427563985160578 0.012207593976994292 -0.004448727163980655 0.0029003616453564668 -0.019043588336715482 -0.0046470650568581932 0.013356640807899894 0.0096658351104702937
leaf_weight=14804.317947968841 7974.5066210180521 8607.3206657171249 1048.0791283398867 1768.1331177651882 10270.452063217759 679.0655365884304 1618.2410064786673 226.4868421703577 911.93886312842369
leaf_count=41735 20855 25111 2297 5200 26570 2349 4662 514 2124
internal_value=0 -0.0347829 0.0280487 0.132733 0.0909824 -0.192211 -0.446223 -0.12599 0.149645
internal_weight=0 39022.1 27891 13086.7 12038.6 11131.1 2297.31 8833.81 8886.45
internal_count=131417 108438 75802 34067 31770 32636 7011 25625 22979
shrinkage=0.02


Tree=52
num_leaves=10
num_cat=0
split_feature=14 18 21 21 21 4 10 13 21
split_gain=160.249 114.43 221.097 101.569 85.4238 50.0732 45.4104 46.5392 42.5683
threshold=10.500000000000002 1.5000000000000002 59.500000000000007 63.500000000000007 152.50000000000003 35.500000000000007 47.500000000000007 48.500000000000007 308.50000000000006
decision_type=2 2 2 2 2 2 2 2 2
left_child=1 8 -3 -2 6 -4 -5 -8 -1
right_child=3 2 5 4 -6 -7 7 -9 -10
leaf_value=0.00022223808205169352 0.0049255232798926405 0.00098024969915335011 -0.0027908017067894758 -0.008528860315221513 0.0069235380085464725 -0.0059737931834602511 0.010748962895518048 -0.0023102907809626639 0.0048644253050933988
leaf_weight=25427.975332394242 3937.076499953866 6670.0547860562801 6221.5116005986929 422.8390039652586 448.35135638713837 2913.0095482468605 120.66191923618317 924.27990335226059 812.70916911959648
leaf_count=69424 9942 17930 17870 1302 1120 8803 280 2657 2089
internal_value=0 -0.0221389 -0.0893551 0.154425 -0.0342348 -0.190407 -0.151109 -0.0385064 0.0183391
internal_weight=0 42045.3 15804.6 5853.21 1916.13 9134.52 1467.78 1044.94 26240.7
internal_count=131417 116116 44603 15301 5359 26673 4239 2937 71513
shrinkage=0.02


Tree=53
num_leaves=10
num_cat=0
split_feature=1 18 20 16 14 3 2 6 22
split_gain=230.859 359.498 114.013 74.2122 74.1874 68.1759 40.6027 39.4032 34.4293
threshold=1.5000000000000002 1.5000000000000002 58.500000000000007 5.5000000000000009 6.5000000000000009 232.50000000000003 168.50000000000003 74.500000000000014 334.50000000000006
decision_type=2 2 2 2 2 2 2 2 2
left_child=1 5 4 -2 7 8 -6 -3 -1
right_child=3 2 -4 -5 6 -7 -8 -9 -10
leaf_value=0.00015318187382199359 0.0016265045552269486 -0.00030964916234962013 -0.0045763639812351486 0.0055309184067368275 0.014063347906983522 0.0042033484465125951 0.0029309940741202886 -0.010444024701580169 0.0047416888284498547
leaf_weight=25325.641579851508 5995.0316555052996 951.99414686858654 9412.2780470401049 2888.9640096276999 199.70579193532467 1890.4329109191895 382.293441593647 180.32269018888474 668.61653073132038
leaf_count=69208 15812 2699 27874 7167 453 4873 1004 606 1721
internal_value=0 -0.0336759 -0.185623 0.144914 0.0513498 0.0269568 0.340685 -0.0976089 0.0135985
internal_weight=0 39011.3 11126.6 8884 1714.32 27884.7 581.999 1132.32 25994.3
internal_count=131417 108438 32636 22979 4762 75802 1457 3305 70929
shrinkage=0.02


Tree=54
num_leaves=10
num_cat=0
split_feature=0 0 0 0 0 0 0 0 0
split_gain=235.181 592.288 315.202 169.939 242.741 164.752 250.097 485.379 157.001
threshold=201.50000000000003 197.50000000000003 205.50000000000003 25.500000000000004 27.500000000000004 519.50000000000011 458.50000000000006 446.50000000000006 4.5000000000000009
decision_type=2 2 2 2 2 2 2 2 2
left_child=1 3 -2 8 -5 6 7 -4 -1
right_child=2 -3 5 4 -6 -7 -8 -9 -10
leaf_value=-0.0055707257256486257 0.017881131639623377 -0.023376702467293536 0.00073978928578065015 -0.01677839413410653 -0.001524947334511475 -0.0094997565171124742 0.0055312531644781454 -0.016806763125181177 0.0067477429815370159
leaf_weight=537.16104590892792 437.57228125631809 491.9274200797081 23694.70482198894 426.38054992258549 15043.589533373713 601.02139362692833 4246.9675462841988 644.83386999368668 1766.7361004948616
leaf_count=1537 942 1775 64071 1467 42789 1809 10528 2167 4332
internal_value=0 -0.089767 0.0544936 -0.0596926 -0.097446 0.0418062 0.0527308 0.0136332 0.193477
internal_weight=0 18265.8 29625.1 17773.9 15470 29187.5 28586.5 24339.5 2303.9
internal_count=131417 51900 79517 50125 44256 78575 76766 66238 5869
shrinkage=0.02


Tree=55
num_leaves=10
num_cat=0
split_feature=20 0 0 0 0 0 0 0 0
split_gain=224.495 193.479 421.093 272.391 208.596 218.183 190.871 628.942 526.826
threshold=159.50000000000003 458.50000000000006 446.50000000000006 505.50000000000006 503.50000000000006 497.50000000000006 375.50000000000006 365.50000000000006 417.50000000000006
decision_type=2 2 2 2 2 2 2 2 2
left_child=1 2 6 4 5 -3 7 -1 -8
right_child=-2 3 -4 -5 -6 -7 8 -9 -10
leaf_value=-0.00074175018778904831 0.0033683453095459028 0.0072533738792706645 -0.018231088033410441 -0.0043261824865113412 0.024980011799595313 -0.0094234001362750851 -0.011318647370724758 0.015026749460772574 0.0016377530520724399
leaf_weight=30237.775562360883 6645.2625762969255 2476.6189149320126 559.75643344223499 1283.0750672072172 226.87117558717728 356.35341434180737 2350.0719241648912 1043.8017060905695 2688.025708809495
leaf_count=84440 17206 5983 1920 3650 416 1051 7369 2273 7109
internal_value=0 -0.0296049 -0.0531243 0.169949 0.332068 0.257289 -0.0398118 -0.0107003 -0.220392
internal_weight=0 41222.3 36879.4 4342.92 3059.84 2832.97 36319.7 31281.6 5038.1
internal_count=131417 114211 103111 11100 7450 7034 101191 86713 14478
shrinkage=0.02


Tree=56
num_leaves=10
num_cat=0
split_feature=20 21 18 16 16 5 8 23 13
split_gain=215.636 165.974 256.382 92.8191 82.5567 44.6095 42.638 36.1357 24.7817
threshold=159.50000000000003 64.500000000000014 1.5000000000000002 9.5000000000000018 5.5000000000000009 30.500000000000004 1.5000000000000002 5.5000000000000009 187.50000000000003
decision_type=2 2 2 2 2 2 2 2 2
left_child=1 3 -3 6 -2 -4 7 -1 -7
right_child=4 2 5 -5 -6 8 -8 -9 -10
leaf_value=0.011461949294480689 0.0016611793525895017 0.0010998890118064692 -0.0031978844722753749 0.0040953259022671372 0.0063373785747835275 -0.0067029275429483139 -0.00059824362573335991 0.0010039812479483239 -0.0017873342142626519
leaf_weight=131.62153086066246 4317.9854243248701 5376.0311565250158 4980.007803440094 2392.2586899697781 2326.365606084466 3302.688782915473 16793.277835592628 7766.5378956049681 475.32312794029713
leaf_count=312 11471 14540 14462 6149 5735 10097 46332 20939 1380
internal_value=0 -0.0290156 -0.116847 0.0168175 0.165073 -0.222347 -0.00140269 0.0591653 -0.304399
internal_weight=0 41217.7 14134.1 27083.7 6644.35 8758.02 24691.4 7898.16 3778.01
internal_count=131417 114211 40479 73732 17206 25939 67583 21251 11477
shrinkage=0.02


Tree=57
num_leaves=10
num_cat=0
split_feature=20 0 0 0 0 0 0 0 0
split_gain=208.095 187.112 441.318 292.567 216.332 208.93 159.595 515.472 296.704
threshold=348.50000000000006 458.50000000000006 446.50000000000006 505.50000000000006 503.50000000000006 497.50000000000006 201.50000000000003 197.50000000000003 205.50000000000003
decision_type=2 2 2 2 2 2 2 2 2
left_child=1 2 6 4 5 -3 7 -1 -8
right_child=-2 3 -4 -5 -6 -7 8 -9 -10
leaf_value=-0.0013857538003776107 0.0056734524505266037 0.0071407339101205282 -0.017696885979213366 -0.0043309183170089525 0.024745163972749222 -0.0087118859856885663 0.017229993255474047 -0.022349708029657047 0.00026294739124885886
leaf_weight=16871.70029142499 2417.5863789021969 2703.3101163804531 604.69568884372711 1370.1571089476347 242.00650060176849 376.23690882325172 417.02509966492653 479.65938445925713 22375.781551584601
leaf_count=47781 6043 6527 2070 3898 443 1102 904 1727 60922
internal_value=0 -0.0172384 -0.0390219 0.171798 0.332133 0.259772 -0.0262086 -0.0984694 0.0287936
internal_weight=0 45440.6 40748.9 4691.71 3321.55 3079.55 40144.2 17351.4 22792.8
internal_count=131417 125374 113404 11970 8072 7629 111334 49508 61826
shrinkage=0.02


Tree=58
num_leaves=10
num_cat=0
split_feature=20 21 18 17 16 5 8 20 21
split_gain=202.476 163.63 251.437 94.9102 77.7214 41.2965 41.093 34.1824 28.4926
threshold=157.50000000000003 64.500000000000014 1.5000000000000002 9.5000000000000018 5.5000000000000009 30.500000000000004 1.5000000000000002 5.5000000000000009 50.500000000000007
decision_type=2 2 2 2 2 2 2 2 2
left_child=1 3 -3 6 -2 -4 7 -1 -5
right_child=4 2 5 8 -6 -7 -8 -9 -10
leaf_value=0.012251085788835858 0.0015981722297829636 0.0011021622809594847 -0.0032040977001631422 0.0059471559269974944 0.0061054472612028596 -0.0059912186844765574 -0.00054819694528966071 0.0010331071675014345 0.00050791779504351603
leaf_weight=107.31691251695156 4404.0012952834368 5333.1087227910757 4957.966764524579 1478.4456716626883 2349.2094309478998 3762.8759430646896 17036.346823528409 7898.4874732643366 524.76646588742733
leaf_count=252 11703 14421 14416 3704 5801 11442 46972 21279 1427
internal_value=0 -0.0283515 -0.115873 0.0171251 0.15845 -0.220451 0.000346709 0.0594382 0.226408
internal_weight=0 41099.3 14054 27045.4 6753.21 8720.84 25042.2 8005.8 2003.21
internal_count=131417 113913 40279 73634 17504 25858 68503 21531 5131
shrinkage=0.02


Tree=59
num_leaves=10
num_cat=0
split_feature=1 0 0 0 0 0 0 0 0
split_gain=196.666 182.711 223.431 717.89 608.63 173.228 170.78 162.009 137.394
threshold=1.5000000000000002 222.50000000000003 374.50000000000006 369.50000000000006 417.50000000000006 241.50000000000003 514.50000000000011 25.500000000000004 45.500000000000007
decision_type=2 2 2 2 2 2 2 2 2
left_child=1 7 3 5 -4 -3 -6 -1 -9
right_child=-2 2 4 -5 6 -7 -8 8 -10
leaf_value=0.0035427478941574076 0.002641187556668095 0.0054323753625306597 -0.010374671806120421 0.025280575987818538 0.0021666828824416441 -9.6196459385767245e-05 -0.0083756119478098495 -0.0082758813581744334 -0.002213901553324855
leaf_weight=1742.3980647623539 8909.8274185806513 3033.8658512383699 2438.7566469758749 518.42269119620323 6540.3740652352571 8934.2591962069273 675.26260481774807 1682.8718843311071 13372.411419719458
leaf_count=4480 23091 7505 7602 931 17134 24715 2018 5238 38703
internal_value=0 -0.0326088 0.027045 0.115375 -0.0871657 0.065289 0.0588099 -0.111247 -0.144671
internal_weight=0 38938.6 22140.9 12486.5 9654.39 11968.1 7215.64 16797.7 15055.3
internal_count=131417 108326 59905 33151 26754 32220 19152 48421 43941
shrinkage=0.02


Tree=60
num_leaves=10
num_cat=0
split_feature=1 18 0 0 0 0 0 0 0
split_gain=213.618 304.401 209.551 263.022 205.354 153.967 214.685 122.57 133.925
threshold=1.5000000000000002 1.5000000000000002 264.50000000000006 267.50000000000006 308.50000000000006 377.50000000000006 417.50000000000006 417.50000000000006 375.50000000000006
decision_type=2 2 2 2 2 2 2 2 2
left_child=1 2 -1 -4 -5 -3 -7 8 -2
right_child=7 5 3 4 -6 6 -8 -9 -10
leaf_value=-0.0012573308202750984 0.0021607007694355836 -0.0023444338817623328 0.011877344858908302 -0.0049389747779904998 0.0024701377261811368 -0.017650932144458044 -0.0041937055491475224 0.0073681399116251487 -0.010020836839210748
leaf_weight=14775.918557614088 6728.9518328905106 8850.8289227485657 1035.9837056845427 1749.9715325534344 10209.059469535947 671.34511037170887 1613.3915900886059 1785.3360697627068 378.38125158846378
leaf_count=41684 17568 25755 2284 5176 26532 2325 4645 4309 1139
internal_value=0 -0.0374266 0.018578 0.1112 0.0692245 -0.177091 -0.408427 0.134339 0.075369
internal_weight=0 38906.5 27770.9 12995 11959 11135.6 2284.74 8892.67 7107.33
internal_count=131417 108401 75676 33992 31708 32725 6970 23016 18707
shrinkage=0.02


Tree=61
num_leaves=10
num_cat=0
split_feature=20 0 0 0 0 0 0 0 0
split_gain=206.592 173.421 376.311 277.053 208.975 192.153 179.915 618.645 505.391
threshold=163.50000000000003 458.50000000000006 446.50000000000006 505.50000000000006 503.50000000000006 497.50000000000006 375.50000000000006 365.50000000000006 417.50000000000006
decision_type=2 2 2 2 2 2 2 2 2
left_child=1 2 6 4 5 -3 7 -1 -8
right_child=-2 3 -4 -5 -6 -7 8 -9 -10
leaf_value=-0.00078176863314551568 0.0032306840755394819 0.0068635446211622753 -0.017300694086931696 -0.0045737163254777344 0.024129615660617457 -0.0087417210269716845 -0.011114771622193967 0.014735668872353181 0.0015707119069180923
leaf_weight=30332.374786749482 6417.7649232000113 2468.387904047966 559.78043638169765 1304.1210310906172 242.57496260106564 358.899164929986 2343.4480772167444 1060.7121601104736 2700.9268695861101
leaf_count=84867 16594 5976 1920 3730 446 1053 7383 2308 7140
internal_value=0 -0.0312565 -0.0535272 0.156958 0.320947 0.243665 -0.0409818 -0.0127958 -0.216223
internal_weight=0 41371.2 36997.2 4373.98 3069.86 2827.29 36437.5 31393.1 5044.37
internal_count=131417 114823 103618 11205 7475 7029 101698 87175 14523
shrinkage=0.02


Tree=62
num_leaves=10
num_cat=0
split_feature=20 0 0 0 0 0 0 0 0
split_gain=198.444 166.622 362.202 266.244 207.111 386.476 197.67 174.429 866.289
threshold=163.50000000000003 458.50000000000006 446.50000000000006 505.50000000000006 495.50000000000006 496.50000000000006 468.50000000000006 374.50000000000006 369.50000000000006
decision_type=2 2 2 2 2 2 2 2 2
left_child=1 2 7 4 6 -6 -3 8 -1
right_child=-2 3 -4 -5 5 -7 -8 -9 -10
leaf_value=-0.00068791807603836911 0.0031666137215756447 0.0098086277971067542 -0.016986321729664869 -0.0044823364025154497 0.027449077815609475 0.0038109874804810508 -0.0032540200302183494 -0.0041518433631757331 0.024152034570140857
leaf_weight=30553.268414825201 6416.734838694334 792.93090265989304 558.80302572250366 1304.1544272005558 447.37603639066219 722.22177219390869 1105.6695015132427 5312.0723797231913 569.10253956913948
leaf_count=85383 16594 1839 1920 3730 783 1817 3036 15279 1036
internal_value=0 -0.0306351 -0.0524635 0.15389 0.314724 0.645243 0.110259 -0.0401649 -0.0115609
internal_weight=0 41365.6 36993.2 4372.35 3068.2 1169.6 1898.6 36434.4 31122.4
internal_count=131417 114823 103618 11205 7475 2600 4875 101698 86419
shrinkage=0.02


Tree=63
num_leaves=10
num_cat=0
split_feature=1 18 0 0 0 0 0 0 0
split_gain=199.555 289.483 199.3 254.22 196.475 144.992 198.162 117.881 124.909
threshold=1.5000000000000002 1.5000000000000002 264.50000000000006 267.50000000000006 308.50000000000006 377.50000000000006 417.50000000000006 417.50000000000006 379.50000000000006
decision_type=2 2 2 2 2 2 2 2 2
left_child=1 2 -1 -4 -5 -3 -7 8 -2
right_child=7 5 3 4 -6 6 -8 -9 -10
leaf_value=-0.0012166440989909064 0.0020201534968752621 -0.0022842067683803793 0.011687501199233546 -0.004831220094745777 0.0024172841586582341 -0.017072011525121947 -0.0041231567419521874 0.0071937427729783735 -0.010747010509598906
leaf_weight=14774.638593330979 6787.4258275479078 8848.3813164383173 1032.3529131114483 1749.4176817089319 10201.690074458718 668.7774853259325 1611.9650612175465 1783.5286735892296 317.93956610560417
leaf_count=41684 17739 25755 2284 5176 26532 2325 4645 4309 968
internal_value=0 -0.0360436 0.0185815 0.108967 0.0677396 -0.172284 -0.397009 0.130008 0.0721865
internal_weight=0 38887.2 27758.1 12983.5 11951.1 11129.1 2280.74 8888.89 7105.37
internal_count=131417 108401 75676 33992 31708 32725 6970 23016 18707
shrinkage=0.02


Tree=64
num_leaves=10
num_cat=0
split_feature=1 18 0 0 0 0 0 0 20
split_gain=191.693 278.12 191.478 245.364 188.741 139.459 191.164 114.368 245.621
threshold=1.5000000000000002 1.5000000000000002 264.50000000000006 267.50000000000006 308.50000000000006 377.50000000000006 417.50000000000006 222.50000000000003 59.500000000000007
decision_type=2 2 2 2 2 2 2 2 2
left_child=1 2 -1 -4 -5 7 -7 8 -3
right_child=-2 5 3 4 -6 6 -8 -9 -10
leaf_value=-0.0011923726342535333 0.0025486304732855311 0.0055326600973648063 0.011495695752652357 -0.0047360778148599807 0.0023692100041494842 -0.016769377266003211 -0.0040411192269517674 0.00012850825616577004 -0.0065611924601665129
leaf_weight=14773.946232393384 8887.2563574463129 813.34132301807404 1028.6735047847033 1748.9354472011328 10200.59298427403 667.29890197515488 1611.8572099804878 4243.5600752681494 3790.2799392342567
leaf_count=41684 23016 2101 2284 5176 26532 2325 4645 11797 11857
internal_value=0 -0.035332 0.0182152 0.106835 0.0663924 -0.168889 -0.389376 -0.111942 -0.22105
internal_weight=0 38878.5 27752.1 12978.2 11949.5 11126.3 2279.16 8847.18 4603.62
internal_count=131417 108401 75676 33992 31708 32725 6970 25755 13958
shrinkage=0.02


Tree=65
num_leaves=10
num_cat=0
split_feature=0 0 0 0 21 0 0 0 0
split_gain=209.081 256.313 530.33 553.015 206.881 200.76 156.518 156.27 129.571
threshold=229.50000000000003 241.50000000000003 264.50000000000006 267.50000000000006 34.500000000000007 316.50000000000006 263.50000000000006 246.50000000000003 25.500000000000004
decision_type=2 2 2 2 2 2 2 2 2
left_child=4 -2 6 -4 -1 -5 7 -3 -6
right_child=1 2 3 5 8 -7 -8 -9 -10
leaf_value=0.00117921536574304 0.0065990623289545252 -0.016338501564929435 0.012128566825748373 -0.0040478443379965883 0.0025823057107367217 0.00135068762160598 -0.016360837518616066 -0.0013526193152448615 -0.0036444827441476473
leaf_weight=7376.4515130072832 3042.5682013034821 368.10641551017761 1760.98375877738 3313.9521733522415 1496.2460012584925 16267.018368348479 738.71465143561363 1120.3518323451281 12307.600380629301
leaf_count=19921 7366 1238 3894 9680 3890 43077 2850 3221 36280
internal_value=0 0.0569457 0.0216526 0.0701426 -0.0761928 0.0218117 -0.442339 -0.254408 -0.148435
internal_weight=0 26611.7 23569.1 21342 21180.3 19581 2227.17 1488.46 13803.8
internal_count=131417 71326 63960 56651 60091 52757 7309 4459 40170
shrinkage=0.02


Tree=66
num_leaves=10
num_cat=0
split_feature=0 0 0 0 21 0 0 0 0
split_gain=200.854 246.323 510.246 533.346 198.743 192.844 151.818 150.407 124.481
threshold=229.50000000000003 241.50000000000003 264.50000000000006 267.50000000000006 34.500000000000007 316.50000000000006 263.50000000000006 246.50000000000003 25.500000000000004
decision_type=2 2 2 2 2 2 2 2 2
left_child=4 -2 6 -4 -1 -5 7 -3 -6
right_child=1 2 3 5 8 -7 -8 -9 -10
leaf_value=0.0011556282968982928 0.0064708344696772111 -0.016035358841957694 0.011928574059334911 -0.0039677263443868805 0.0025309881840585155 0.001323743308356568 -0.016109039981741086 -0.0013257711320402629 -0.0035725468027043247
leaf_weight=7376.5317825525999 3040.8799026012421 367.62555278837681 1754.8109492212534 3313.3183623552322 1496.1138466596603 16266.233213916421 735.33721518516541 1120.2410390675068 12304.408285811543
leaf_count=19921 7366 1238 3894 9680 3890 43077 2850 3221 36280
internal_value=0 0.0558325 0.0212262 0.0687672 -0.0746801 0.0213763 -0.434331 -0.249461 -0.145501
internal_weight=0 26598.4 23557.6 21334.4 21177.1 19579.6 2223.2 1487.87 13800.5
internal_count=131417 71326 63960 56651 60091 52757 7309 4459 40170
shrinkage=0.02


Tree=67
num_leaves=10
num_cat=0
split_feature=20 0 0 0 21 0 0 0 0
split_gain=198.525 187.944 528.592 317.035 167.783 142.902 305.704 76.0719 64.343
threshold=348.50000000000006 201.50000000000003 197.50000000000003 205.50000000000003 63.500000000000007 212.50000000000003 213.50000000000003 162.50000000000003 439.50000000000006
decision_type=2 2 2 2 2 2 2 2 2
left_child=1 2 4 -3 7 -5 -7 -1 -2
right_child=8 3 -4 5 -6 6 -8 -9 -10
leaf_value=-0.0006543703964030286 0.0040568074223516206 0.01773139287231074 -0.022635540041855133 -0.0067099610036822788 -0.0040646342275648785 0.024103154823630315 0.0005017069516074147 0.0038101295982960344 0.012723309114348007
leaf_weight=8943.0739191174507 1970.7977115660906 426.16510872542858 478.71133396029472 1080.8391465097666 5999.2890881597996 218.38433438539505 26389.171234339476 1837.6842046976089 414.78259618580341
leaf_count=24798 5034 913 1743 3271 18005 432 71437 4867 917
internal_value=0 -0.0167723 -0.0989114 0.0336451 -0.0692303 0.0204119 0.034917 0.00534693 0.279013
internal_weight=0 45373.3 17258.8 28114.6 16780 27688.4 26607.6 10780.8 2385.58
internal_count=131417 125466 49413 76053 47670 75140 71869 29665 5951
shrinkage=0.02


Tree=68
num_leaves=10
num_cat=0
split_feature=20 0 0 0 0 21 0 0 0
split_gain=190.966 182.024 264.179 462.618 493.776 215.984 121.639 106.866 86.0815
threshold=337.50000000000006 229.50000000000003 241.50000000000003 264.50000000000006 267.50000000000006 60.500000000000007 263.50000000000006 15.500000000000002 213.50000000000003
decision_type=2 2 2 2 2 2 2 2 2
left_child=1 5 -3 6 -5 8 -4 -7 -1
right_child=-2 2 3 4 -6 7 -8 -9 -10
leaf_value=0.00025776074200165185 0.0053371852489759739 0.006507832696330749 -0.0054323282906080465 0.01170118201646257 8.3715035051462838e-05 0.0043363985100211356 -0.015627139535795271 -0.0050519232797577663 -0.0071403751224325311
leaf_weight=11813.618147149682 2501.4149067401886 2867.2863613218069 1436.0744427591562 1585.6359105855227 18580.686995252967 517.6353917568922 697.99149866402149 7091.8365073204041 661.4525660276413
leaf_count=32439 6255 6940 4336 3533 50320 1335 2718 21592 1949
internal_value=0 -0.0168152 0.039832 0.00306374 0.0499537 -0.0878093 -0.439341 -0.220552 -0.00678222
internal_weight=0 45252.2 25167.7 22300.4 20166.3 20084.5 2134.07 7609.47 12475.1
internal_count=131417 125162 67847 60907 53853 57315 7054 22927 34388
shrinkage=0.02


Tree=69
num_leaves=10
num_cat=0
split_feature=20 0 0 0 0 0 0 0 0
split_gain=183.482 176.407 507.605 305.807 136.83 294.167 135.097 209.436 170.826
threshold=337.50000000000006 201.50000000000003 197.50000000000003 205.50000000000003 212.50000000000003 213.50000000000003 25.500000000000004 27.500000000000004 4.5000000000000009
decision_type=2 2 2 2 2 2 2 2 2
left_child=1 2 6 -3 -5 -6 8 -8 -1
right_child=-2 3 -4 4 5 -7 7 -9 -10
leaf_value=-0.0066366472495137168 0.0052325432216161821 0.017404215514601497 -0.022207557772941078 -0.0065853840448315435 0.023625744364356813 0.00047893729119585744 -0.016877881596171772 -0.0016489893354832245 0.0064346292931120189
leaf_weight=523.47255711257458 2500.4796899408102 426.05598646402359 476.78259484469891 1078.2862744629383 218.48680771887302 26305.919738873839 367.83023564517498 14180.754624351859 1660.0689452588558
leaf_count=1518 6255 913 1741 3267 432 71250 1285 40671 4085
internal_value=0 -0.0164846 -0.0961755 0.0324379 0.0194026 0.0336239 -0.0670639 -0.101892 0.164671
internal_weight=0 45237.7 17208.9 28028.7 27602.7 26524.4 16732.1 14548.6 2183.54
internal_count=131417 125162 49300 75862 74949 71682 47559 41956 5603
shrinkage=0.02


Tree=70
num_leaves=10
num_cat=0
split_feature=1 18 20 3 15 3 3 19 20
split_gain=168.839 253.345 89.6686 63.9621 62.4763 53.645 49.3312 28.3157 27.4815
threshold=1.5000000000000002 1.5000000000000002 37.500000000000007 311.50000000000006 8.5000000000000018 72.500000000000014 121.50000000000001 1.0000000180025095e-35 71.500000000000014
decision_type=2 2 2 2 2 2 2 2 2
left_child=1 5 4 -2 -3 8 -6 -4 -1
right_child=3 2 7 -5 6 -7 -8 -9 -10
leaf_value=-0.00035108333149449638 0.0016809451953598562 -0.00086943825780789823 -0.0036800544459122198 0.0061638209508455138 0.025317138129928089 0.002323978257831844 0.0058618380326945661 0.0084160057156426275 0.0013187919404426427
leaf_weight=17800.285805523396 7289.7385020107031 395.22439886629581 10411.155739396811 1542.8720097690821 73.491499900817871 4900.8601393550634 176.12753872573376 74.959574222564697 5060.1773718297482
